1,140617,270,-5.182,-4.372,7.194,0.048,-0.095,-0.024,92.108,-18.328,135.355
1,140620,271,-5.153,-4.400,7.080,0.044,-0.081,-0.013,92.108,-18.328,135.355
1,140624,275,-5.153,-4.400,7.080,0.044,-0.081,-0.013,92.414,-18.460,135.764
1,140627,272,-5.153,-4.400,7.041,0.044,-0.081,-0.013,92.414,-18.460,135.764
1,140650,270,-5.167,-4.363,7.104,0.048,-0.098,-0.024,92.254,-18.533,135.165
1,140654,272,-5.167,-4.363,7.104,0.048,-0.098,-0.024,92.254,-18.533,135.165
1,140658,269,-5.166,-4.421,7.034,0.042,-0.086,-0.022,92.254,-18.533,135.165
1,140679,274,-5.192,-4.411,7.068,0.042,-0.087,-0.023,92.444,-18.489,135.399
1,140682,269,-5.192,-4.411,7.068,0.042,-0.087,-0.023,92.444,-18.489,135.399
1,140686,269,-5.147,-4.379,7.105,0.042,-0.087,-0.022,92.663,-18.328,135.355
1,140708,271,-5.243,-4.445,7.143,0.037,-0.084,-0.023,92.400,-18.781,134.829
1,140712,274,-5.243,-4.445,7.143,0.037,-0.084,-0.023,92.897,-18.489,135.633
1,140716,274,-5.224,-4.470,7.177,0.049,-0.099,-0.023,92.897,-18.489,135.633
1,140739,276,-5.196,-4.391,7.131,0.077,-0.131,-0.024,92.531,-18.474,134.917
1,140743,278,-5.196,-4.391,7.131,0.077,-0.131,-0.024,92.531,-18.474,134.917
1,140747,277,-5.178,-4.387,7.011,0.078,-0.136,-0.024,92.531,-18.474,134.917
1,140769,279,-5.137,-4.360,7.055,0.071,-0.122,-0.026,92.561,-18.518,134.873
1,140773,275,-5.137,-4.360,7.055,0.071,-0.122,-0.026,92.868,-17.933,135.136
1,140777,278,-5.184,-4.356,7.094,0.064,-0.112,-0.024,92.868,-17.933,135.136
1,140799,279,-5.196,-4.393,7.104,0.053,-0.100,-0.022,92.575,-18.386,134.873
1,140802,279,-5.152,-4.353,7.115,0.053,-0.100,-0.022,92.575,-18.386,134.873
1,140806,278,-5.152,-4.353,7.115,0.051,-0.098,-0.021,92.575,-18.386,134.873
1,140829,280,-5.214,-4.471,7.073,0.050,-0.112,-0.022,92.473,-18.635,135.311
1,140833,281,-5.305,-4.426,7.292,0.064,-0.110,-0.023,92.473,-18.635,135.311
1,140836,280,-5.305,-4.426,7.292,0.064,-0.110,-0.023,92.911,-18.606,135.238
1,140859,280,-5.231,-4.446,7.129,0.082,-0.142,-0.027,92.005,-18.606,135.194
1,140863,280,-5.184,-4.404,6.954,0.089,-0.143,-0.027,92.590,-18.357,135.355
1,140866,279,-5.184,-4.404,6.954,0.089,-0.143,-0.027,92.590,-18.357,135.355
1,140889,282,-5.192,-4.420,7.223,0.079,-0.127,-0.024,92.429,-18.620,135.063
1,140893,279,-5.173,-4.430,7.135,0.077,-0.138,-0.026,92.429,-18.620,135.063
1,140896,279,-5.173,-4.430,7.135,0.077,-0.138,-0.026,92.429,-18.620,135.063
1,140919,275,-5.196,-4.398,7.189,0.089,-0.144,-0.020,92.444,-18.927,135.034
1,140922,275,-5.224,-4.391,7.189,0.095,-0.151,-0.026,92.444,-15.186,134.873
1,140926,274,-5.224,-4.391,7.189,0.095,-0.151,-0.026,92.385,-18.255,134.873
1,140949,277,-5.273,-4.478,7.231,0.128,-0.193,-0.024,92.224,-18.416,134.814
1,140953,276,-5.273,-4.478,7.231,0.128,-0.193,-0.024,92.224,-18.416,134.814
1,140957,282,-5.273,-4.478,7.231,0.128,-0.193,-0.024,92.224,-18.416,134.814
1,140979,278,-5.346,-4.416,7.259,0.075,-0.075,-0.017,91.991,-18.869,135.209
1,140983,281,-5.346,-4.416,7.259,0.075,-0.075,-0.017,91.991,-18.869,135.209
1,140986,280,-5.346,-4.416,7.259,0.075,-0.075,-0.017,92.108,-18.708,135.647
1,141009,273,-4.650,-3.706,7.249,0.202,-0.332,0.111,92.151,-19.044,135.282
1,141012,280,-4.650,-3.706,7.249,0.202,-0.332,0.111,92.838,-18.664,134.566
1,141016,278,-4.650,-4.013,6.842,0.202,-0.332,0.111,92.838,-18.664,134.566
1,141039,277,-5.298,-4.479,7.390,0.095,-0.247,0.305,92.853,-19.760,133.265
1,141042,279,-5.298,-4.479,7.390,0.095,-0.247,0.305,92.853,-19.760,133.265
1,141046,279,-5.358,-4.309,7.464,0.095,-0.291,0.303,92.853,-19.760,133.265
1,141069,278,-5.292,-4.463,7.419,0.236,-0.439,0.292,94.154,-20.623,132.461
1,141073,275,-5.292,-4.463,7.419,0.236,-0.439,0.292,94.154,-20.623,132.461
1,141077,272,-5.509,-4.638,7.440,0.292,-0.492,0.257,94.563,-20.140,132.885
1,141099,267,-5.512,-4.619,7.570,0.367,-0.582,0.127,94.198,-21.076,131.891
1,141103,268,-5.512,-4.619,7.570,0.367,-0.582,0.127,94.198,-21.076,131.891
1,141106,273,-5.466,-4.605,7.682,0.432,-0.644,0.059,94.198,-21.076,131.891
1,141129,268,-4.861,-3.933,7.286,0.517,-0.724,-0.040,94.154,-21.295,130.795
1,141132,272,-4.861,-3.933,7.286,0.517,-0.724,-0.040,94.154,-21.295,130.795
1,141136,276,-4.905,-3.968,7.451,0.497,-0.681,-0.029,93.964,-21.178,131.014
1,141159,275,-4.703,-3.824,7.548,0.467,-0.638,-0.035,93.628,-21.763,131.073
1,141163,273,-4.564,-3.745,7.548,0.467,-0.638,-0.037,93.525,-20.886,131.350
1,141166,273,-4.564,-3.745,7.548,0.447,-0.616,-0.037,93.525,-20.886,131.350
1,141189,276,-4.623,-3.861,7.641,0.398,-0.547,-0.029,93.628,-21.631,130.678
1,141193,274,-4.568,-3.827,7.586,0.374,-0.522,-0.032,93.628,-21.631,130.678
1,141196,273,-4.568,-3.827,7.586,0.374,-0.522,-0.032,93.628,-21.631,130.678
1,141219,274,-4.443,-3.706,7.717,0.325,-0.458,-0.032,93.481,-21.894,130.576
1,141222,274,-4.452,-3.723,7.760,0.303,-0.432,-0.033,93.481,-21.894,130.576
1,141226,273,-4.452,-3.723,7.760,0.303,-0.432,-0.033,93.365,-21.602,130.795
1,141249,279,-4.561,-3.765,7.851,0.276,-0.395,-0.031,93.043,-21.134,130.547
1,141252,280,-4.560,-3.730,7.941,0.272,-0.387,-0.029,93.043,-21.134,130.547
1,141256,282,-4.560,-3.730,7.941,0.272,-0.387,-0.029,93.043,-21.134,130.547
1,141279,282,-4.514,-3.728,8.024,0.277,-0.402,-0.028,93.058,-21.836,130.064
1,141283,278,-4.519,-3.728,8.024,0.286,-0.412,-0.028,93.058,-21.836,130.064
1,141287,281,-4.519,-3.728,8.024,0.286,-0.412,-0.028,93.058,-21.543,130.590
1,141309,276,-4.424,-3.692,8.106,0.319,-0.448,-0.032,92.473,-21.880,130.342
1,141313,278,-4.424,-3.692,8.106,0.319,-0.448,-0.032,92.707,-21.485,129.991
1,141316,276,-4.424,-3.692,8.106,0.319,-0.448,-0.032,92.707,-21.485,129.991
1,141339,277,-4.333,-3.637,8.171,0.345,-0.484,-0.032,92.137,-22.640,129.494
1,141342,280,-4.333,-3.637,8.171,0.345,-0.484,-0.032,92.137,-22.640,129.494
1,141346,284,-4.333,-3.637,8.171,0.345,-0.484,-0.032,92.137,-22.640,129.494
1,141369,277,-4.166,-3.531,8.207,0.358,-0.498,-0.033,92.268,-22.318,128.880
1,141373,285,-4.166,-3.531,8.207,0.358,-0.498,-0.033,92.268,-22.318,128.880
1,141376,283,-4.166,-3.526,8.277,0.358,-0.498,-0.033,92.341,-21.996,130.313
1,141399,280,-4.140,-3.522,8.308,0.373,-0.525,-0.033,91.508,-22.099,130.035
1,141403,282,-4.140,-3.522,8.308,0.373,-0.525,-0.033,91.508,-22.099,130.035
1,141429,278,-4.099,-3.516,8.587,0.348,-0.540,-0.035,91.508,-22.566,129.655
1,141433,281,-4.099,-3.516,8.587,0.348,-0.540,-0.035,91.508,-22.566,129.655
1,141436,280,-3.971,-3.328,8.333,0.400,-0.572,-0.038,91.508,-18.825,128.939
1,141458,284,-3.872,-3.331,8.524,0.402,-0.584,-0.038,91.026,-22.640,128.954
1,141462,281,-3.872,-3.331,8.524,0.402,-0.584,-0.038,91.231,-22.289,128.924
1,141466,283,-3.814,-3.217,8.489,0.419,-0.579,-0.034,91.231,-22.289,128.924
1,141489,279,-3.787,-3.273,8.652,0.393,-0.566,-0.035,90.456,-22.362,128.603
1,141493,281,-3.787,-3.273,8.652,0.393,-0.566,-0.035,90.456,-22.362,128.603
1,141497,280,-3.736,-3.210,8.633,0.421,-0.584,-0.035,90.456,-22.362,128.603
1,141519,282,-3.647,-3.180,8.669,0.417,-0.593,-0.038,90.427,-22.830,128.603
1,141523,280,-3.645,-3.175,8.766,0.417,-0.596,-0.037,90.427,-22.830,128.603
1,141526,283,-3.645,-3.175,8.766,0.420,-0.596,-0.037,90.178,-22.391,129.085
1,141549,282,-3.534,-3.090,8.680,0.439,-0.624,-0.040,90.149,-22.727,128.924
1,141552,279,-3.519,-3.144,8.819,0.434,-0.628,-0.040,89.842,-22.625,128.924
1,141556,281,-3.519,-3.144,8.819,0.434,-0.628,-0.040,89.842,-22.625,128.924
1,141579,282,-3.382,-2.961,8.828,0.470,-0.657,-0.040,89.389,-22.844,128.179
1,141583,279,-3.320,-3.001,8.956,0.458,-0.663,-0.040,89.389,-22.844,128.179
1,141586,280,-3.320,-3.001,8.956,0.458,-0.663,-0.040,89.389,-22.844,128.179
1,141609,274,-3.228,-2.877,8.856,0.464,-0.657,-0.039,88.731,-22.844,127.419
1,141613,276,-3.228,-2.897,8.990,0.448,-0.651,-0.039,88.790,-22.508,127.302
1,141617,277,-3.228,-2.897,8.990,0.448,-0.651,-0.039,88.790,-22.508,127.302
1,141639,281,-3.021,-2.728,9.060,0.470,-0.672,-0.043,87.884,-23.005,127.989
1,141643,280,-3.021,-2.728,9.060,0.469,-0.673,-0.043,87.884,-23.005,127.989
1,141646,279,-3.021,-2.728,9.060,0.469,-0.673,-0.043,87.884,-23.005,127.989
1,141669,276,-2.843,-2.651,9.120,0.484,-0.701,-0.044,87.840,-23.692,127.170
1,141672,276,-2.843,-2.651,9.120,0.484,-0.701,-0.044,87.840,-23.692,127.170
1,141676,276,-2.843,-2.651,9.120,0.484,-0.701,-0.044,87.577,-23.224,127.287
1,141699,269,-2.631,-2.490,9.191,0.492,-0.702,-0.044,87.518,-23.736,126.557
1,141703,274,-2.631,-2.490,9.191,0.492,-0.702,-0.044,87.211,-23.897,127.083
1,141707,275,-2.631,-2.490,9.191,0.492,-0.702,-0.044,87.211,-23.897,127.083
1,141729,281,-2.420,-2.345,9.206,0.478,-0.676,-0.045,87.021,-24.467,126.586
1,141733,278,-2.420,-2.345,9.206,0.478,-0.676,-0.045,87.021,-24.467,126.586
1,141736,274,-2.347,-2.316,9.228,0.478,-0.676,-0.045,87.021,-24.467,126.586
1,141759,277,-2.303,-2.246,9.247,0.428,-0.615,-0.042,86.787,-24.130,125.972
1,141762,276,-2.303,-2.246,9.247,0.428,-0.615,-0.042,86.992,-24.247,126.352
1,141766,277,-2.266,-2.227,9.259,0.403,-0.585,-0.040,86.992,-24.247,126.352
1,141789,282,-2.151,-2.114,9.343,0.380,-0.546,-0.044,86.364,-24.525,125.738
1,141792,282,-2.151,-2.114,9.343,0.380,-0.546,-0.044,86.364,-24.525,125.738
1,141796,282,-2.149,-2.124,9.366,0.357,-0.519,-0.042,86.364,-24.525,125.738
1,141819,283,-2.078,-2.093,9.401,0.334,-0.484,-0.043,86.378,-24.437,126.060
1,141823,278,-2.078,-2.093,9.401,0.334,-0.484,-0.043,86.378,-24.437,126.060
1,141827,281,-2.011,-2.043,9.515,0.324,-0.467,-0.043,86.393,-24.408,126.162
1,141849,281,-2.034,-2.055,9.452,0.308,-0.445,-0.039,85.764,-24.554,126.016
1,141853,282,-2.034,-2.083,9.447,0.308,-0.445,-0.039,85.633,-24.306,125.782
1,141856,284,-2.004,-2.083,9.447,0.301,-0.434,-0.037,85.633,-24.306,125.782
1,141879,281,-1.948,-2.011,9.561,0.297,-0.431,-0.039,85.881,-24.759,125.417
1,141882,282,-1.902,-2.033,9.526,0.297,-0.425,-0.037,85.881,-24.759,125.417
1,141886,284,-1.902,-2.033,9.526,0.291,-0.425,-0.037,85.881,-24.759,125.417
1,141909,286,-1.889,-1.982,9.634,0.297,-0.426,-0.039,85.151,-25.007,125.504
1,141913,289,-1.859,-1.986,9.620,0.299,-0.431,-0.038,85.151,-24.583,125.943
1,141939,286,-1.828,-1.973,9.605,0.307,-0.448,-0.038,84.917,-24.613,126.001
1,141943,286,-1.804,-1.929,9.574,0.314,-0.452,-0.039,84.917,-24.613,126.001
1,141946,289,-1.804,-1.929,9.574,0.314,-0.452,-0.039,84.917,-24.613,126.001
1,141968,288,-1.778,-1.954,9.673,0.281,-0.425,-0.035,85.180,-25.080,125.387
1,141973,287,-1.750,-1.907,9.690,0.293,-0.431,-0.042,85.180,-25.080,125.387
1,141976,285,-1.750,-1.907,9.690,0.293,-0.431,-0.042,84.990,-25.183,125.270
1,142000,278,-1.655,-1.841,9.806,0.320,-0.458,-0.045,84.683,-25.080,126.016
1,142002,279,-1.655,-1.841,9.806,0.337,-0.494,-0.045,84.347,-25.037,125.928
1,142006,276,-1.655,-1.841,9.806,0.337,-0.494,-0.045,84.347,-25.037,125.928
1,142029,282,-1.482,-1.746,9.840,0.440,-0.628,-0.051,84.230,-25.358,125.621
1,142033,279,-1.482,-1.746,9.840,0.440,-0.628,-0.051,84.230,-25.358,125.621
1,142037,283,-1.482,-1.746,9.840,0.440,-0.628,-0.051,84.230,-25.358,125.621
1,142059,280,-1.248,-1.576,9.753,0.517,-0.713,-0.057,83.177,-25.577,125.957
1,142063,282,-1.248,-1.576,9.753,0.517,-0.713,-0.057,83.177,-25.577,125.694
1,142066,284,-1.248,-1.576,9.753,0.517,-0.713,-0.057,83.937,-25.460,125.694
1,142089,283,-1.005,-1.384,9.777,0.508,-0.707,-0.050,82.914,-25.592,125.899
1,142092,285,-1.005,-1.384,9.777,0.508,-0.707,-0.050,82.914,-25.592,125.899
1,142096,284,-0.932,-1.350,9.811,0.508,-0.707,-0.050,82.914,-25.592,125.899
1,142119,292,-0.883,-1.237,9.808,0.487,-0.672,-0.055,82.622,-26.352,125.519
1,142123,292,-0.883,-1.237,9.808,0.487,-0.672,-0.055,82.622,-26.352,125.519
1,142126,290,-0.894,-1.198,9.850,0.476,-0.659,-0.051,82.271,-26.074,125.753
1,142149,289,-0.811,-1.082,9.752,0.447,-0.630,-0.034,81.979,-26.703,125.153
1,142153,275,-0.811,-1.082,9.752,0.447,-0.630,-0.034,81.789,-25.943,125.475
1,142179,284,-0.389,-0.836,9.745,0.411,-0.540,-0.071,81.453,-26.630,125.300
1,142183,283,-0.389,-0.836,9.745,0.411,-0.540,-0.071,81.453,-26.630,125.300
1,142186,280,-0.589,-1.005,9.848,0.348,-0.507,-0.043,81.453,-26.630,125.300
1,142208,283,-0.270,-0.983,9.929,0.334,-0.459,-0.048,81.438,-26.615,125.256
1,142212,284,-0.202,-0.668,9.833,0.334,-0.459,-0.048,81.438,-26.615,125.256
1,142216,287,-0.202,-0.668,9.833,0.349,-0.439,-0.056,81.409,-26.761,125.782
1,142239,285,-0.463,-0.989,9.852,0.257,-0.365,-0.032,80.970,-26.747,125.621
1,142243,279,-0.324,-0.944,10.012,0.241,-0.334,-0.035,80.970,-26.747,125.621
1,142247,282,-0.324,-0.944,10.012,0.241,-0.334,-0.035,80.970,-26.747,125.621
1,142269,280,-0.103,-0.743,9.916,0.209,-0.296,-0.038,81.000,-26.907,125.373
1,142273,278,-0.234,-0.766,9.819,0.195,-0.277,-0.038,81.000,-26.907,125.373
1,142276,277,-0.234,-0.766,9.819,0.195,-0.277,-0.038,81.014,-26.425,125.431
1,142299,287,-0.261,-0.823,9.977,0.164,-0.222,-0.034,80.868,-26.776,124.978
1,142302,287,-0.160,-0.738,9.867,0.159,-0.213,-0.043,80.751,-26.381,125.197
1,142306,287,-0.160,-0.738,9.867,0.159,-0.213,-0.043,80.751,-26.381,125.197
1,142329,283,-0.200,-0.711,9.846,0.115,-0.164,-0.040,80.780,-26.630,124.803
1,142333,285,-0.254,-0.851,9.905,0.078,-0.132,-0.028,80.780,-26.630,124.803
1,142336,285,-0.254,-0.851,9.905,0.078,-0.132,-0.028,80.780,-26.630,124.803
1,142359,284,-0.203,-0.786,9.894,0.049,-0.087,-0.029,80.941,-26.367,124.642
1,142363,286,-0.203,-0.786,9.894,0.032,-0.076,-0.029,80.941,-26.367,124.642
1,142367,286,-0.203,-0.786,9.894,0.032,-0.076,-0.029,81.263,-26.527,125.358
1,142389,281,-0.331,-0.901,10.047,0.029,-0.076,-0.028,80.824,-26.527,124.905
1,142393,282,-0.331,-0.901,10.047,0.029,-0.076,-0.028,80.824,-26.527,124.905
1,142396,281,-0.331,-0.901,10.047,0.029,-0.076,-0.028,80.824,-26.527,124.905
1,142419,284,-0.294,-0.877,9.930,0.053,-0.084,-0.031,80.941,-26.688,125.460
1,142422,287,-0.294,-0.877,9.930,0.053,-0.084,-0.031,80.941,-26.688,125.460
1,142426,288,-0.294,-0.877,9.930,0.053,-0.084,-0.031,80.941,-26.542,125.782
1,142449,292,-0.250,-0.808,9.907,0.042,-0.073,-0.033,80.780,-26.147,125.460
1,142453,291,-0.250,-0.808,9.907,0.042,-0.073,-0.033,80.357,-25.957,125.519
1,142457,289,-0.303,-0.857,9.942,0.042,-0.073,-0.029,80.357,-25.957,125.519
1,142479,278,-0.412,-0.936,10.077,0.023,-0.060,-0.027,81.014,-26.776,124.978
1,142483,278,-0.412,-0.936,10.077,0.023,-0.060,-0.027,81.014,-26.776,124.978
1,142486,280,-0.400,-0.933,10.055,0.038,-0.075,-0.026,81.014,-26.776,124.978
1,142509,281,-0.374,-0.910,9.986,0.087,-0.123,-0.032,80.620,-26.571,125.358
1,142513,282,-0.374,-0.910,9.986,0.087,-0.123,-0.032,80.620,-26.571,125.358
1,142516,283,-0.386,-0.901,10.035,0.098,-0.131,-0.029,80.985,-26.264,125.621
1,142539,284,-0.296,-0.835,9.949,0.097,-0.136,-0.037,81.248,-26.308,126.060
1,142542,284,-0.296,-0.835,9.949,0.097,-0.136,-0.037,80.985,-26.308,126.060
1,142546,285,-0.284,-0.818,9.893,0.086,-0.136,-0.039,80.985,-26.308,126.060
1,142569,285,-0.343,-0.891,10.001,0.067,-0.111,-0.031,80.474,-26.498,125.636
1,142573,284,-0.334,-0.875,9.989,0.067,-0.111,-0.031,80.474,-26.498,125.636
1,142577,284,-0.334,-0.875,9.989,0.072,-0.120,-0.033,80.474,-26.498,125.636
1,142599,288,-0.293,-0.847,9.917,0.073,-0.116,-0.031,80.532,-26.235,124.993
1,142603,288,-0.364,-0.853,9.935,0.062,-0.111,-0.029,80.576,-25.592,125.417
1,142606,284,-0.364,-0.853,9.935,0.062,-0.111,-0.029,80.576,-25.592,125.417
1,142629,285,-0.296,-0.849,9.971,0.054,-0.108,-0.028,80.678,-25.928,125.870
1,142632,287,-0.325,-0.797,9.946,0.060,-0.110,-0.031,80.678,-25.928,125.870
1,142636,286,-0.325,-0.797,9.946,0.060,-0.110,-0.031,80.678,-25.928,125.870
1,142659,288,-0.321,-0.847,9.942,0.050,-0.106,-0.028,80.707,-26.206,125.636
1,142663,289,-0.357,-0.845,9.918,0.045,-0.105,-0.028,80.707,-26.206,125.636
1,142666,290,-0.357,-0.845,9.918,0.045,-0.105,-0.028,80.985,-26.440,125.855
1,142689,289,-0.310,-0.845,9.974,0.043,-0.099,-0.026,80.839,-26.381,125.183
1,142693,286,-0.339,-0.875,9.963,0.044,-0.095,-0.027,80.780,-26.235,125.694
1,142696,290,-0.339,-0.875,9.963,0.044,-0.095,-0.027,80.780,-26.235,125.694
1,142719,284,-0.318,-0.889,9.977,0.053,-0.100,-0.028,80.634,-26.264,125.665
1,142723,281,-0.318,-0.889,9.977,0.082,-0.100,-0.028,80.634,-26.264,125.665
1,142726,280,-0.318,-0.889,9.977,0.082,-0.100,-0.028,80.634,-26.264,125.665
1,142749,277,-0.364,-0.988,10.191,0.241,-0.114,-0.044,80.737,-26.425,125.533
1,142752,270,-0.364,-0.988,10.191,0.241,-0.114,-0.044,80.298,-25.840,125.665
1,142756,277,-0.364,-0.988,10.191,0.241,-0.114,-0.044,80.298,-25.840,125.665
1,142779,265,-0.300,-1.000,10.140,0.038,-0.110,0.033,80.678,-26.030,126.001
1,142783,264,-0.300,-1.000,10.140,0.038,-0.110,0.033,80.678,-26.030,126.001
1,142787,267,-0.300,-1.000,10.140,0.038,-0.110,0.033,80.678,-26.030,126.001
1,142809,253,-0.502,-1.129,9.680,-0.364,-0.028,-0.209,80.137,-26.045,125.285
1,142813,251,-0.502,-1.129,9.680,-0.364,-0.028,-0.209,80.137,-26.045,125.285
1,142816,254,-0.456,-0.960,10.676,-0.364,0.007,-0.154,80.590,-25.680,126.600
1,142839,252,-0.406,-1.178,10.086,0.012,-0.153,-0.026,80.707,-26.352,126.308
1,142842,257,-0.406,-1.178,10.086,0.012,-0.153,-0.026,80.459,-25.855,126.776
1,142846,254,-0.291,-0.854,9.966,0.100,-0.149,-0.020,80.459,-25.855,126.776
1,142869,259,-0.257,-0.872,10.001,0.059,-0.119,-0.027,80.342,-26.381,126.045
1,142873,257,-0.257,-0.872,10.001,0.059,-0.119,-0.027,80.342,-26.381,126.045
1,142876,261,-0.383,-0.829,9.919,0.062,-0.111,-0.024,80.342,-26.381,126.045
1,142899,258,-0.276,-0.812,9.982,0.064,-0.106,-0.029,80.693,-26.440,125.680
1,142903,258,-0.276,-0.812,9.982,0.064,-0.106,-0.029,80.605,-25.665,126.337
1,142906,260,-0.248,-0.772,9.967,0.064,-0.110,-0.029,80.605,-25.665,126.337
1,142929,261,-0.388,-0.925,9.953,0.061,-0.115,-0.027,80.693,-26.030,126.074
1,142933,263,-0.372,-0.888,9.960,0.061,-0.115,-0.027,80.693,-26.030,126.074
1,142936,264,-0.372,-0.888,9.960,0.067,-0.120,-0.028,80.693,-26.030,126.074
1,142959,268,-0.240,-0.781,9.939,0.066,-0.117,-0.029,80.210,-25.797,125.577
1,142962,267,-0.328,-0.871,9.898,0.056,-0.108,-0.026,80.210,-25.797,125.577
1,142966,269,-0.328,-0.871,9.898,0.056,-0.108,-0.026,80.693,-25.972,125.913
1,142989,271,-0.301,-0.866,9.918,0.057,-0.105,-0.029,80.766,-26.323,126.220
1,142993,273,-0.227,-0.756,9.872,0.059,-0.099,-0.031,80.503,-25.972,126.045
1,142997,271,-0.227,-0.756,9.872,0.059,-0.099,-0.031,80.503,-25.972,126.045
1,143019,269,-0.357,-0.876,9.983,0.023,-0.065,-0.026,80.488,-26.352,125.753
1,143023,270,-0.406,-0.901,9.910,0.016,-0.056,-0.027,80.488,-26.352,125.753
1,143026,273,-0.406,-0.901,9.910,0.016,-0.056,-0.027,80.488,-26.352,125.753
1,143049,263,-0.319,-0.843,10.057,0.027,-0.064,-0.028,80.430,-26.001,125.709
1,143053,262,-0.395,-0.906,10.057,0.042,-0.077,-0.026,80.854,-25.680,126.206
1,143056,264,-0.395,-0.906,10.057,0.042,-0.077,-0.026,80.854,-25.680,126.206
1,143079,271,-0.306,-0.837,9.880,0.082,-0.137,-0.033,80.766,-25.767,126.805
1,143083,275,-0.306,-0.837,9.880,0.090,-0.137,-0.033,80.766,-25.767,126.805
1,143086,270,-0.306,-0.837,9.880,0.090,-0.137,-0.033,80.766,-25.767,126.805
1,143109,268,-0.380,-0.922,10.016,0.076,-0.130,-0.028,80.780,-25.636,126.074
1,143113,270,-0.380,-0.922,10.016,0.076,-0.130,-0.028,80.780,-25.636,126.074
1,143117,270,-0.380,-0.922,10.016,0.076,-0.130,-0.028,80.620,-25.782,126.732
1,143139,263,-0.325,-0.842,10.013,0.094,-0.145,-0.031,80.342,-25.899,126.177
1,143143,265,-0.325,-0.842,10.013,0.094,-0.145,-0.031,80.693,-25.577,126.323
1,143146,268,-0.325,-0.871,10.010,0.094,-0.145,-0.031,80.693,-25.577,126.323
1,143169,268,-0.288,-0.805,9.941,0.108,-0.161,-0.033,80.284,-25.431,126.206
1,143172,268,-0.288,-0.805,9.941,0.108,-0.161,-0.033,80.284,-25.431,126.206
1,143176,267,-0.278,-0.770,9.873,0.108,-0.155,-0.029,80.284,-25.431,126.206
1,143199,274,-0.307,-0.822,9.935,0.075,-0.130,-0.029,80.254,-25.870,126.323
1,143203,276,-0.307,-0.822,9.935,0.075,-0.130,-0.029,80.254,-25.870,126.323
1,143207,273,-0.255,-0.849,9.966,0.068,-0.121,-0.031,80.503,-25.723,126.659
1,143229,282,-0.176,-0.757,9.830,0.040,-0.084,-0.028,80.620,-26.162,127.024
1,143233,282,-0.176,-0.757,9.830,0.040,-0.084,-0.028,80.620,-26.162,127.024
1,143236,284,-0.224,-0.775,9.850,0.015,-0.055,-0.024,80.620,-26.162,127.024
1,143258,273,-0.315,-0.824,9.941,-0.026,0.004,-0.023,80.707,-26.279,126.323
1,143262,268,-0.315,-0.824,9.941,-0.026,0.004,-0.023,80.707,-26.279,126.323
1,143266,260,-0.380,-0.954,10.063,-0.049,0.028,-0.020,81.014,-26.177,126.688
1,143289,250,-0.453,-0.955,10.051,0.010,-0.048,-0.029,81.073,-25.592,126.440
1,143292,251,-0.397,-1.031,10.038,0.010,-0.048,-0.029,81.014,-25.504,126.557
1,143319,257,-0.305,-0.922,9.936,0.056,-0.108,-0.029,80.210,-26.030,127.302
1,143323,262,-0.263,-0.755,9.852,0.057,-0.100,-0.032,80.210,-26.030,127.302
1,143327,259,-0.263,-0.755,9.852,0.057,-0.100,-0.032,80.210,-26.030,127.302
1,143349,250,-0.328,-0.841,9.919,0.023,-0.061,-0.027,80.167,-26.089,126.367
1,143353,251,-0.266,-0.841,9.736,0.017,-0.055,-0.034,80.167,-26.089,126.367
1,143356,253,-0.266,-0.841,9.736,0.017,-0.055,-0.034,80.284,-25.343,126.980
1,143379,247,-0.085,-0.693,9.698,-0.042,0.024,-0.028,80.503,-25.987,126.776
1,143382,250,-0.071,-0.626,9.716,-0.083,0.092,-0.029,80.503,-25.987,126.776
1,143386,249,-0.071,-0.626,9.716,-0.083,0.092,-0.029,80.503,-25.987,126.776
1,143409,251,-0.165,-0.763,9.563,-0.224,0.264,-0.024,80.941,-25.665,126.381
1,143413,251,-0.236,-0.763,9.563,-0.292,0.352,-0.021,80.941,-25.665,126.381
1,143416,249,-0.236,-0.763,9.563,-0.292,0.352,-0.021,81.453,-25.753,127.214
1,143439,253,-0.711,-1.162,9.899,-0.418,0.509,-0.007,81.701,-25.753,127.302
1,143443,251,-0.711,-1.162,9.899,-0.418,0.509,-0.007,81.891,-25.168,127.638
1,143446,256,-0.711,-1.162,9.899,-0.418,0.509,-0.007,81.891,-25.168,127.638
1,143469,253,-0.924,-1.373,9.894,-0.420,0.508,-0.012,82.125,-25.855,127.346
1,143473,247,-0.924,-1.373,9.894,-0.420,0.508,-0.012,82.125,-25.855,127.346
1,143476,248,-0.924,-1.373,9.894,-0.420,0.508,-0.012,82.125,-25.855,127.346
1,143499,252,-1.127,-1.425,9.803,-0.401,0.484,-0.015,82.724,-25.212,127.375
1,143502,253,-1.127,-1.425,9.803,-0.401,0.484,-0.015,82.724,-25.212,127.375
1,143506,249,-1.127,-1.425,9.783,-0.401,0.484,-0.015,82.929,-24.920,127.433
1,143528,247,-1.286,-1.567,9.846,-0.380,0.456,-0.016,83.017,-25.080,128.033
1,143533,244,-1.286,-1.567,9.846,-0.380,0.456,-0.016,83.017,-25.080,128.033
1,143537,245,-1.348,-1.640,9.807,-0.371,0.446,-0.015,83.017,-25.080,128.033
1,143559,246,-1.505,-1.735,9.848,-0.346,0.408,-0.016,83.557,-24.963,127.580
1,143563,246,-1.505,-1.735,9.848,-0.346,0.408,-0.016,83.557,-24.963,127.580
1,143566,243,-1.594,-1.819,9.846,-0.321,0.379,-0.016,83.791,-24.876,128.179
1,143589,250,-1.717,-1.903,9.846,-0.249,0.291,-0.017,83.923,-24.993,127.784
1,143592,246,-1.717,-1.903,9.846,-0.249,0.291,-0.017,84.507,-24.554,128.734
1,143596,249,-1.785,-1.936,9.835,-0.209,0.242,-0.017,84.507,-24.554,128.734
1,143619,253,-1.811,-1.963,9.844,-0.130,0.134,-0.021,84.522,-24.642,127.200
1,143623,254,-1.811,-1.963,9.844,-0.130,0.134,-0.021,84.522,-24.642,127.200
1,143649,257,-1.869,-2.020,9.870,-0.016,-0.012,-0.024,84.595,-24.540,127.770
1,143653,256,-1.834,-2.021,9.898,-0.016,-0.012,-0.024,84.595,-24.540,127.770
1,143657,260,-1.834,-2.021,9.898,0.026,-0.064,-0.024,84.361,-24.569,127.960
1,143679,257,-1.595,-1.777,9.602,0.117,-0.161,-0.032,84.595,-25.139,127.857
1,143683,263,-1.557,-1.750,9.653,0.111,-0.160,-0.033,84.595,-25.139,127.857
1,143686,258,-1.557,-1.750,9.653,0.111,-0.160,-0.033,84.595,-25.139,127.857
1,143709,266,-1.622,-1.808,9.625,0.060,-0.106,-0.029,84.259,-25.110,127.141
1,143712,264,-1.606,-1.801,9.648,0.049,-0.097,-0.029,84.259,-25.110,127.141
1,143716,263,-1.606,-1.801,9.648,0.049,-0.097,-0.029,84.259,-25.110,130.883
1,143739,264,-1.645,-1.857,9.699,0.059,-0.109,-0.028,83.821,-24.876,127.229
1,143743,266,-1.676,-1.854,9.680,0.064,-0.114,-0.027,83.981,-24.145,127.287
1,143747,266,-1.676,-1.854,9.680,0.064,-0.114,-0.027,83.981,-24.145,127.287
1,143769,262,-1.584,-1.813,9.647,0.054,-0.103,-0.029,83.704,-24.642,127.960
1,143773,259,-1.612,-1.813,9.647,0.045,-0.092,-0.026,83.704,-24.642,127.960
1,143776,260,-1.612,-1.813,9.647,0.045,-0.092,-0.026,83.704,-24.642,127.960
1,143799,265,-1.644,-1.848,9.671,0.066,-0.115,-0.028,84.171,-25.051,127.726
1,143802,266,-1.644,-1.848,9.671,0.066,-0.115,-0.028,84.171,-25.051,127.726
1,143806,267,-1.644,-1.848,9.671,0.066,-0.115,-0.028,84.274,-24.481,127.623
1,143829,265,-1.671,-1.889,9.674,0.059,-0.110,-0.026,84.098,-24.671,127.989
1,143833,265,-1.671,-1.889,9.674,0.059,-0.110,-0.026,83.879,-24.671,127.989
1,143836,260,-1.671,-1.889,9.674,0.059,-0.110,-0.026,83.879,-24.671,127.989
1,143859,262,-1.618,-1.942,9.645,0.066,-0.121,-0.029,83.806,-24.920,128.062
1,143863,265,-1.618,-1.942,9.645,0.066,-0.121,-0.029,83.806,-24.920,128.062
1,143867,265,-1.618,-1.683,9.759,0.066,-0.121,-0.029,83.806,-24.920,128.062
1,143889,263,-1.670,-1.814,9.781,0.062,-0.109,-0.026,84.522,-25.475,127.653
1,143893,264,-1.670,-1.814,9.781,0.062,-0.109,-0.026,84.361,-24.510,128.325
1,143896,263,-1.555,-1.789,9.583,0.086,-0.114,-0.028,84.361,-24.510,128.325
1,143919,264,-1.579,-1.706,9.373,0.078,-0.099,-0.028,83.762,-24.671,127.930
1,143922,256,-1.579,-1.706,9.373,0.078,-0.099,-0.028,83.762,-24.671,127.930
1,143926,258,-1.848,-2.064,10.028,0.089,-0.060,-0.037,83.762,-24.671,127.930
1,143949,245,-1.628,-1.797,9.742,0.099,-0.119,-0.039,84.157,-24.744,127.740
1,143953,240,-1.628,-1.797,9.742,0.099,-0.119,-0.039,84.157,-24.744,127.740
1,143957,238,-1.658,-1.908,9.634,0.067,-0.112,-0.033,84.420,-24.130,128.135
1,143979,242,-1.667,-2.010,9.837,0.071,-0.139,-0.046,83.631,-24.510,127.127
1,143983,235,-1.667,-2.010,9.531,0.071,-0.139,-0.046,84.142,-24.715,127.740
1,143986,236,-1.595,-1.737,9.533,0.117,-0.164,-0.061,84.142,-24.715,127.740
1,144009,244,-1.566,-1.664,9.539,0.009,-0.101,-0.046,83.806,-24.437,128.164
1,144013,242,-1.679,-2.187,9.717,-0.005,-0.075,-0.006,83.806,-24.437,128.164
1,144016,237,-1.679,-2.187,9.717,-0.005,-0.075,-0.006,83.806,-24.437,128.164
1,144039,248,-1.633,-1.670,9.634,0.101,-0.093,-0.049,83.747,-24.583,127.755
1,144042,251,-1.697,-1.777,9.745,0.042,-0.078,-0.028,84.244,-24.116,128.383
1,144046,250,-1.697,-1.777,9.745,0.042,-0.078,-0.028,84.244,-24.116,128.383
1,144069,251,-1.610,-1.702,9.521,0.065,-0.132,-0.035,83.864,-24.700,128.369
1,144073,256,-1.677,-1.860,9.821,0.054,-0.112,-0.026,83.864,-24.700,128.369
1,144077,254,-1.677,-1.860,9.821,0.054,-0.112,-0.026,83.864,-24.700,128.369
1,144099,258,-1.609,-1.796,9.592,0.070,-0.119,-0.027,83.981,-24.715,127.623
1,144103,259,-1.639,-1.860,9.673,0.057,-0.110,-0.027,83.981,-24.715,127.623
1,144106,258,-1.639,-1.860,9.673,0.057,-0.110,-0.027,83.850,-23.955,128.559
1,144129,253,-1.639,-1.826,9.629,0.064,-0.119,-0.029,83.587,-24.364,128.457
1,144132,257,-1.639,-1.826,9.629,0.068,-0.116,-0.028,83.587,-24.189,128.690
1,144136,257,-1.639,-1.826,9.629,0.068,-0.116,-0.028,83.587,-24.189,128.690
1,144159,264,-1.634,-1.822,9.714,0.060,-0.110,-0.027,83.894,-24.496,127.404
1,144163,263,-1.634,-1.822,9.714,0.060,-0.110,-0.027,83.894,-24.496,127.404
1,144166,262,-1.634,-1.822,9.714,0.060,-0.110,-0.027,83.894,-24.496,127.404
1,144189,263,-1.779,-1.315,9.746,0.176,-0.125,-0.068,84.069,-24.393,128.427
1,144193,264,-1.779,-1.315,9.746,0.176,-0.125,-0.068,84.157,-23.692,128.296
1,144197,264,-1.779,-1.315,9.746,0.176,-0.125,-0.068,84.157,-23.692,128.296
1,144219,266,-1.679,-1.784,10.046,0.236,-0.172,-0.108,83.806,-23.590,127.799
1,144223,266,-1.679,-1.784,10.046,0.236,-0.172,-0.108,83.806,-23.590,127.799
1,144226,271,-1.600,-1.121,8.946,0.236,-0.172,-0.191,83.806,-23.590,127.799
1,144250,267,-1.560,-1.869,9.827,0.060,-0.106,-0.042,83.674,-23.970,127.609
1,144252,268,-1.560,-1.869,9.827,0.060,-0.106,-0.042,83.674,-23.970,127.609
1,144256,269,-1.573,-1.921,9.795,0.143,-0.144,-0.070,83.733,-23.385,128.062
1,144279,265,-1.603,-1.543,9.637,0.354,-0.204,-0.108,83.397,-23.633,128.077
1,144283,270,-1.603,-1.543,9.637,0.354,-0.204,-0.108,83.967,-23.180,128.734
1,144287,270,-1.735,-1.085,9.336,0.282,-0.194,-0.072,83.967,-23.180,128.734
1,144309,268,-1.620,-1.831,10.053,-0.046,-0.020,0.104,83.397,-23.414,127.653
1,144313,268,-1.620,-1.831,10.053,-0.046,-0.020,0.104,83.397,-23.414,127.653
1,144317,268,-1.547,-1.920,9.949,-0.044,-0.056,0.081,83.397,-23.414,127.653
1,144339,268,-1.554,-1.760,9.569,0.055,-0.139,0.010,83.601,-23.648,127.726
1,144370,268,-2.473,-2.663,10.061,-0.126,0.073,-0.611,81.745,-23.210,130.912
1,144374,267,-1.870,-2.267,10.100,-0.134,0.006,-0.770,81.745,-23.210,130.912
1,144399,263,-1.300,-1.860,9.501,0.007,-0.115,-0.889,79.187,-22.640,133.835
1,144403,264,-1.621,-2.043,9.606,0.020,-0.046,-0.915,79.187,-22.640,133.835
1,144407,259,-1.621,-2.043,9.606,0.020,-0.046,-0.915,77.784,-22.420,135.647
1,144429,260,-2.436,-2.314,9.773,-0.009,0.032,-1.020,75.884,-22.493,137.767
1,144433,256,-2.502,-2.748,9.740,0.015,0.031,-1.102,73.897,-22.289,140.544
1,144436,253,-2.502,-2.748,9.740,0.015,0.031,-1.102,73.897,-22.289,140.544
1,144459,252,-2.774,-2.800,9.953,0.028,-0.067,-1.499,68.737,-22.479,145.849
1,144462,253,-2.168,-2.815,10.106,0.109,-0.180,-1.697,68.737,-22.479,145.849
1,144466,248,-2.168,-2.815,10.106,0.109,-0.180,-1.697,68.737,-22.479,145.849
1,144489,249,-1.211,-1.383,10.016,0.533,-0.555,-2.109,61.795,-22.800,151.155
1,144493,251,-1.211,-1.383,10.016,0.848,-0.681,-2.109,61.795,-22.800,154.896
1,144497,249,-1.211,-1.383,10.016,0.848,-0.681,-2.109,58.404,-22.581,153.479
1,144519,250,-0.144,-1.050,9.809,0.404,-0.930,-1.665,51.768,-24.627,155.905
1,144523,248,-0.144,-1.050,9.809,0.404,-0.930,-1.665,51.768,-24.627,155.905
1,144527,250,-0.144,-1.050,9.809,0.404,-0.930,-1.665,51.768,-24.627,155.905
1,144549,248,-0.848,-1.137,9.253,0.417,-0.536,-1.651,48.568,-25.680,157.205
1,144553,248,-0.848,-1.137,9.253,0.417,-0.536,-1.651,48.568,-25.680,157.205
1,144556,249,-0.848,-1.137,9.253,0.417,-0.536,-1.651,46.887,-26.206,158.053
1,144579,250,0.166,-0.696,9.846,-0.259,-0.034,-1.432,44.782,-26.790,158.579
1,144583,254,0.166,-0.696,9.846,-0.259,-0.034,-1.432,44.227,-27.653,159.529
1,144586,251,-0.033,-2.350,9.653,-0.259,-0.034,-1.349,44.227,-27.653,159.529
1,144609,248,-0.853,-2.711,9.578,-0.280,0.012,-1.552,41.552,-30.284,160.947
1,144613,251,-0.853,-2.711,9.578,-0.280,0.012,-1.552,41.552,-30.284,160.947
1,144617,249,0.007,-1.630,9.509,0.290,-0.125,-1.548,41.552,-30.284,160.947
1,144639,251,-0.331,-1.397,9.458,0.301,-0.038,-1.415,39.345,-31.453,163.037
1,144643,251,-0.331,-1.397,9.458,0.301,-0.038,-1.415,39.345,-31.453,163.037
1,144646,248,-0.535,-1.842,9.768,0.045,0.114,-1.464,38.746,-31.877,163.505
1,144669,242,-0.083,-2.869,9.913,0.076,0.183,-1.372,36.027,-34.946,166.209
1,144672,245,-0.083,-2.869,9.913,0.076,0.183,-1.372,36.027,-34.946,166.209
1,144676,244,-0.623,-2.170,9.948,0.083,0.156,-1.561,36.027,-34.946,166.209
1,144699,247,0.010,-1.487,9.955,-0.291,0.205,-1.405,33.864,-38.249,167.173
1,144703,250,0.010,-2.952,9.600,-0.291,0.205,-1.405,33.864,-38.249,167.173
1,144707,246,0.129,-2.952,9.600,-0.304,0.199,-1.390,32.681,-39.491,167.729
1,144729,248,-1.201,-1.970,10.686,-0.088,0.230,-1.497,31.643,-41.976,167.641
1,144733,248,-1.133,-1.158,9.799,-0.004,0.233,-1.455,30.868,-43.423,167.919
1,144736,253,-1.133,-1.158,9.799,-0.004,0.233,-1.455,30.868,-43.423,167.919
1,144758,252,-0.569,0.067,10.271,-0.209,0.315,-1.184,28.764,-47.223,167.641
1,144763,248,-0.424,-0.014,9.819,-0.230,0.309,-1.062,28.764,-47.223,167.641
1,144766,253,-0.424,-0.014,9.819,-0.230,0.309,-1.062,28.764,-47.223,167.641
1,144789,246,-0.508,-0.994,9.771,-0.219,0.281,-0.922,28.150,-48.626,167.641
1,144792,244,-0.191,-3.270,9.567,-0.242,0.247,-1.081,28.150,-48.626,167.641
1,144796,244,-0.191,-3.270,9.567,-0.242,0.247,-1.081,28.135,-48.685,167.743
1,144819,244,-0.542,-1.671,10.033,0.650,-0.088,-0.544,27.404,-48.524,167.963
1,144823,245,-0.745,-0.834,10.235,0.735,-0.110,-0.452,27.404,-48.524,167.963
1,144827,246,-0.745,-0.834,10.235,0.735,-0.110,-0.452,27.404,-48.524,167.963
1,144849,243,-0.706,-1.058,9.555,0.452,0.305,-0.127,27.653,-46.814,166.837
1,144853,238,-0.706,-1.058,9.555,0.200,0.023,-0.127,27.653,-46.814,166.837
1,144856,244,-0.706,-1.058,9.555,0.200,0.023,-0.127,27.653,-45.645,166.486
1,144879,249,-0.130,-1.551,9.806,-1.350,0.148,0.358,27.682,-45.455,166.866
1,144882,247,-0.130,-1.551,9.806,-1.350,0.148,0.358,28.135,-44.183,168.006
1,144886,250,-0.130,-1.551,9.806,-1.350,0.148,0.358,28.135,-44.183,168.006
1,144909,254,-0.431,-3.529,9.763,0.214,-0.027,0.622,28.778,-41.216,167.480
1,144913,252,-0.431,-3.529,9.763,0.214,-0.027,0.622,28.778,-41.216,167.480
1,144916,251,-0.431,-3.529,9.763,0.214,-0.027,0.622,28.778,-41.216,167.480
1,144939,255,-0.650,-2.536,8.853,0.068,-0.057,0.161,29.743,-37.518,166.223
1,144943,253,-0.650,-2.536,8.853,0.068,-0.057,0.161,29.743,-37.518,166.223
1,144947,254,-0.735,-2.420,9.095,0.068,0.255,0.117,30.298,-36.846,167.466
1,144969,252,-0.823,-2.989,9.657,-1.283,0.083,0.148,26.571,-38.395,168.869
1,144972,252,-0.823,-2.989,9.657,-1.283,0.083,0.148,29.757,-38.395,168.869
1,144976,254,-0.755,-3.169,9.919,-1.163,0.051,0.158,29.757,-38.395,168.869
1,144999,251,-0.779,-3.978,9.961,-0.431,-0.060,0.023,30.444,-39.901,169.775
1,145002,250,-0.779,-3.978,9.961,-0.431,-0.060,0.023,30.444,-39.901,169.775
1,145006,247,-0.733,-4.226,9.772,-0.001,-0.120,-0.093,30.444,-39.901,169.775
1,145029,254,-0.750,-3.215,9.533,0.181,-0.128,-0.313,29.874,-40.544,169.205
1,145033,255,-0.750,-3.215,9.533,0.181,-0.128,-0.313,30.035,-40.778,168.693
1,145037,253,-0.784,-3.113,9.584,0.134,-0.098,-0.357,30.035,-40.778,168.693
1,145059,251,-0.774,-2.992,9.435,0.153,-0.098,-0.411,28.764,-43.511,168.533
1,145063,247,-0.701,-2.865,9.467,0.153,-0.098,-0.411,28.764,-43.511,168.533
1,145067,250,-0.701,-2.865,9.467,0.143,-0.092,-0.428,28.764,-43.511,168.533
1,145089,245,-0.676,-2.619,9.357,-0.224,-0.037,-0.432,28.354,-46.112,168.372
1,145092,247,-0.559,-2.993,9.747,-0.439,-0.031,-0.434,28.354,-46.112,168.372
1,145096,248,-0.559,-2.993,9.747,-0.439,-0.031,-0.434,28.310,-47.588,168.401
1,145119,240,-0.653,-2.761,9.711,-0.073,-0.079,-0.448,27.624,-49.138,167.846
1,145123,234,-0.516,-2.369,9.483,0.264,-0.108,-0.409,27.624,-50.248,167.846
1,145126,238,-0.516,-2.369,9.483,0.264,-0.108,-0.409,27.624,-50.248,167.846
1,145149,245,-0.638,-2.479,9.275,0.149,-0.086,-0.337,27.200,-52.338,166.735
1,145153,246,-0.647,-2.503,9.630,-0.176,-0.051,-0.288,27.200,-52.338,166.735
1,145156,246,-0.647,-2.503,9.630,-0.176,-0.051,-0.288,27.200,-52.338,166.735
1,145179,247,-1.121,-2.443,9.270,-0.282,-0.057,-0.226,26.893,-53.888,166.413
1,145183,249,-0.430,-2.778,9.428,-0.156,-0.110,-0.204,26.688,-54.078,165.668
1,145186,251,-0.430,-2.778,9.428,-0.156,-0.110,-0.204,26.688,-54.078,165.668
1,145209,241,-0.567,-3.302,9.278,0.034,-0.114,-0.183,26.615,-55.042,166.019
1,145212,247,-0.567,-3.302,9.278,0.131,-0.114,-0.183,26.615,-55.042,166.019
1,145239,260,-0.379,-2.960,9.447,0.213,-0.149,-0.257,26.586,-55.452,165.142
1,145243,257,-0.379,-2.960,9.447,0.213,-0.149,-0.257,26.586,-55.452,165.142
1,145247,264,-0.379,-2.960,9.447,0.213,-0.149,-0.257,26.659,-55.788,164.937
1,145269,254,-0.250,-2.613,9.806,0.021,-0.104,-0.395,26.352,-56.679,164.455
1,145273,242,-0.250,-2.613,9.806,0.021,-0.104,-0.395,26.425,-57.498,163.958
1,145276,245,-0.250,-2.613,9.500,0.021,-0.104,-0.395,26.425,-57.498,163.958
1,145299,255,-0.330,-2.990,9.303,-0.169,-0.045,-0.434,26.337,-59.778,162.906
1,145303,252,-0.330,-2.990,9.303,-0.169,-0.045,-0.434,26.337,-59.778,162.906
1,145306,259,-0.292,-3.304,9.894,-0.061,-0.035,-0.450,26.337,-59.778,162.906
1,145329,262,-0.415,-2.908,9.531,0.324,0.064,-0.616,25.797,-60.187,162.219
1,145333,268,-0.415,-2.908,9.531,0.324,0.064,-0.616,26.615,-60.114,161.327
1,145336,263,-0.069,-2.284,9.685,0.431,0.098,-0.684,26.615,-60.114,161.327
1,145359,268,-0.403,-1.931,9.568,0.274,0.150,-0.849,26.264,-60.041,159.661
1,145363,264,-0.403,-1.931,9.568,0.274,0.150,-0.849,26.264,-60.041,159.661
1,145367,266,-0.585,-1.711,9.578,0.021,0.144,-0.782,26.264,-60.041,159.661
1,145389,253,-0.452,-2.296,9.489,-0.244,0.158,-0.616,25.957,-60.143,159.237
1,145393,261,-0.452,-2.296,9.489,-0.244,0.158,-0.616,25.957,-60.143,159.237
1,145396,257,-0.525,-2.173,9.352,-0.261,0.151,-0.552,26.659,-59.997,159.734
1,145419,258,-0.586,-2.359,9.417,-0.506,0.143,-0.382,26.834,-59.529,159.339
1,145422,255,-0.542,-2.355,9.370,-0.506,0.143,-0.382,26.454,-59.149,160.202
1,145426,260,-0.542,-2.355,9.370,-0.727,0.147,-0.280,26.454,-59.149,160.202
1,145448,259,-0.477,-2.621,9.417,-1.262,0.143,-0.117,27.112,-58.389,159.997
1,145453,263,-0.474,-2.705,9.235,-1.607,0.140,-0.055,27.112,-58.389,159.997
1,145457,258,-0.474,-2.705,9.235,-1.607,0.140,-0.055,27.112,-58.389,159.997
1,145479,252,-0.641,-3.179,8.940,-2.578,0.131,0.090,27.287,-58.711,160.596
1,145483,253,-0.650,-4.695,8.632,-2.836,0.142,0.147,27.287,-59.456,161.444
1,145486,256,-0.650,-4.695,8.632,-2.836,0.142,0.147,27.565,-59.456,161.444
1,145509,259,-0.725,-4.735,8.516,-2.866,0.145,0.093,27.887,-60.859,161.692
1,145512,255,-0.816,-4.500,8.399,-2.709,0.153,0.081,27.887,-60.859,161.692
1,145516,260,-0.816,-4.500,8.399,-2.709,0.153,0.081,27.887,-60.859,161.692
1,145539,260,-1.098,-5.371,8.481,1.114,0.197,0.178,27.974,-56.285,164.265
1,145542,254,-0.855,-5.436,8.481,1.025,0.181,0.310,27.974,-56.285,164.265
1,145546,255,-0.855,-5.436,8.481,1.025,0.181,0.310,27.828,-52.748,165.756
1,145569,252,-1.017,-4.481,8.545,1.286,0.103,0.213,27.682,-48.860,165.653
1,145573,254,-1.017,-4.481,8.545,1.286,0.103,0.213,27.404,-44.665,166.559
1,145577,249,-1.017,-4.481,8.545,1.286,0.103,0.213,27.404,-44.665,166.559
1,145599,248,-1.096,-5.013,9.133,1.433,-0.065,0.232,28.281,-37.153,166.413
1,145603,254,-1.096,-5.013,9.133,1.433,-0.065,0.232,28.281,-37.153,166.413
1,145606,250,-1.096,-5.013,9.133,1.433,-0.065,0.232,28.281,-37.153,166.413
1,145629,253,-1.285,-3.851,8.894,0.431,-0.075,0.200,28.500,-30.620,165.566
1,145632,256,-1.285,-3.851,8.894,0.431,-0.075,0.200,28.500,-30.620,165.405
1,145636,251,-1.285,-5.076,10.028,0.431,-0.075,0.200,28.807,-27.755,165.405
1,145659,251,-0.998,-4.709,9.392,1.362,-0.181,0.137,29.889,-22.011,162.964
1,145663,243,-0.998,-4.709,9.392,1.362,-0.181,0.137,29.889,-22.011,162.964
1,145689,242,-1.125,-3.742,9.692,2.145,-0.382,-0.045,31.424,-15.975,158.594
1,145693,239,-1.125,-3.742,9.692,2.145,-0.382,-0.045,31.424,-15.975,158.594
1,145696,239,-1.053,-3.952,8.801,2.257,-0.414,-0.097,31.526,-12.628,156.796
1,145719,244,-0.901,-2.826,8.850,1.306,-0.341,-0.228,31.716,-11.225,155.466
1,145723,240,-0.901,-2.826,8.850,1.306,-0.341,-0.228,31.920,-9.866,155.525
1,145726,246,-0.988,-2.632,9.105,0.729,-0.241,-0.189,31.920,-9.866,155.525
1,145749,252,-0.967,-2.822,9.352,0.238,-0.150,-0.117,32.023,-9.778,154.809
1,145752,249,-0.967,-2.822,9.352,0.238,-0.150,-0.117,32.023,-9.778,154.809
1,145756,252,-1.033,-2.325,8.311,0.051,-0.103,-0.065,32.023,-9.778,154.809
1,145779,252,-0.721,-6.339,9.850,-0.485,0.004,-0.266,31.438,-11.122,155.642
1,145783,256,-0.830,-4.806,9.558,-0.485,0.004,-0.662,31.438,-11.122,155.642
1,145809,250,-0.920,-2.477,10.174,0.217,-0.100,-0.916,29.801,-15.975,158.331
1,145813,251,-0.808,-2.666,10.579,0.645,-0.140,-0.881,29.801,-15.975,158.331
1,145817,251,-0.808,-2.666,10.579,0.645,-0.140,-0.881,29.801,-15.975,158.331
1,145839,255,-0.780,-2.603,8.309,1.679,-0.208,-0.959,28.427,-17.144,157.205
1,145842,252,-0.849,-1.198,8.417,1.129,-0.156,-0.986,28.427,-17.144,157.205
1,145846,253,-0.849,-1.198,8.417,1.129,-0.156,-0.986,27.901,-18.313,157.790
1,145869,257,-0.738,-1.687,10.033,-0.310,-0.035,-0.694,27.521,-19.848,158.506
1,145873,252,-0.712,-2.134,9.852,-0.165,-0.053,-0.569,27.463,-20.813,159.208
1,145876,253,-0.712,-2.134,9.852,-0.165,-0.053,-0.569,27.463,-20.813,159.208
1,145899,251,-0.644,-2.171,9.484,0.562,-0.126,-0.407,27.170,-21.967,158.726
1,145903,257,-0.614,-2.171,9.484,0.578,-0.133,-0.364,27.170,-21.967,158.726
1,145907,254,-0.614,-2.171,9.484,0.578,-0.133,-0.364,27.170,-21.967,158.726
1,145929,255,-0.702,-1.116,9.674,-0.336,-0.070,-0.148,27.024,-22.376,159.383
1,145933,250,-0.702,-1.116,9.674,-0.336,-0.070,-0.148,27.024,-22.376,159.383
1,145936,251,-0.702,-1.116,9.674,-0.336,-0.070,-0.148,27.127,-22.932,159.866
1,145958,251,-0.572,-2.585,9.747,-0.430,-0.051,-0.049,26.834,-23.180,160.129
1,145962,248,-0.572,-2.585,9.747,-0.430,-0.051,-0.049,26.834,-23.180,160.129
1,145966,250,-0.572,-2.585,9.747,-0.430,-0.051,-0.049,26.834,-23.180,160.129
1,145989,245,-0.575,-2.205,9.466,0.009,-0.083,-0.123,27.229,-22.362,158.506
1,145993,250,-0.575,-2.205,9.466,0.009,-0.083,-0.123,27.229,-22.362,158.506
1,145997,240,-0.882,-2.320,9.575,0.009,-0.083,-0.123,27.141,-21.602,158.579
1,146019,235,-0.556,-2.259,9.696,-0.134,-0.071,-0.112,26.893,-20.915,158.448
1,146023,239,-0.556,-2.259,9.696,-0.134,-0.071,-0.112,26.834,-19.556,158.857
1,146026,237,-0.601,-2.107,9.642,0.022,-0.090,-0.093,26.834,-19.556,158.857
1,146049,245,-2.198,-2.262,8.753,0.116,-0.104,-0.064,27.448,-17.144,157.249
1,146052,235,-2.198,-2.262,8.753,0.116,-0.104,-0.064,27.448,-17.144,157.249
1,146056,243,-0.881,-2.055,9.930,-0.119,-0.158,0.029,27.448,-17.144,157.249
1,146079,243,-0.446,-2.694,9.377,-0.470,-0.070,-0.065,27.331,-14.265,156.358
1,146083,241,-0.446,-2.694,9.377,-0.470,-0.070,-0.065,27.331,-14.265,156.358
1,146086,238,-0.657,-2.914,9.726,-0.597,-0.077,-0.112,27.521,-13.096,156.855
1,146109,234,-0.580,-3.081,9.678,-0.280,-0.103,-0.176,27.419,-10.289,155.832
1,146113,232,-0.580,-3.081,9.678,-0.280,-0.103,-0.176,27.419,-10.289,155.832
1,146117,236,-1.169,-3.303,9.714,-0.012,-0.133,-0.224,27.419,-10.289,155.832
1,146139,236,-0.689,-2.851,9.319,0.458,-0.165,-0.236,27.843,-7.059,153.113
1,146143,226,-0.257,-2.798,8.986,0.313,-0.162,-0.233,27.843,-7.059,153.113
1,146146,227,-0.257,-2.798,8.986,0.313,-0.162,-0.233,27.843,-4.443,151.929
1,146169,225,-0.389,-3.346,9.309,-0.203,-0.136,-0.354,28.267,-3.654,151.228
1,146172,231,-0.377,-3.184,9.227,-0.387,-0.108,-0.380,27.843,-2.382,150.570
1,146176,221,-0.377,-3.184,9.227,-0.387,-0.108,-0.380,27.843,-2.382,150.570
1,146199,224,-0.391,-2.980,9.322,-0.722,-0.064,-0.380,27.726,-1.593,150.775
1,146203,222,-0.280,-2.984,9.419,-0.749,-0.073,-0.362,27.726,-1.593,150.775
1,146207,226,-0.280,-2.984,9.419,-0.749,-0.073,-0.362,27.726,-1.593,150.775
1,146229,226,-0.185,-2.898,9.314,-0.700,-0.101,-0.298,27.974,-0.146,150.950
1,146233,228,-0.209,-3.060,9.297,-0.765,-0.097,-0.258,27.974,-0.146,150.950
1,146236,231,-0.209,-3.060,9.297,-0.765,-0.097,-0.258,28.164,0.541,150.336
1,146259,226,-0.542,-3.965,9.226,-0.766,-0.095,-0.173,28.252,1.812,150.570
1,146263,219,-0.542,-3.965,9.226,-0.655,-0.103,-0.165,27.901,1.812,150.570
1,146266,224,-0.542,-3.965,9.226,-0.655,-0.103,-0.165,27.901,1.812,150.570
1,146289,227,-0.506,-4.636,9.289,-0.672,-0.084,-0.175,27.857,2.090,150.205
1,146292,222,-0.506,-4.636,9.289,-0.672,-0.084,-0.175,27.857,2.090,150.205
1,146296,221,-0.506,-4.636,9.289,-0.672,-0.084,-0.175,27.857,2.090,150.205
1,146319,230,-0.536,-3.929,8.943,-0.186,-0.122,-0.161,28.427,2.879,150.906
1,146323,227,-0.536,-3.929,8.943,-0.186,-0.122,-0.161,28.720,3.479,151.125
1,146327,227,-0.536,-3.929,8.943,-0.186,-0.122,-0.161,28.720,3.479,151.125
1,146349,224,-0.461,-4.405,9.383,-0.391,-0.072,-0.046,28.310,2.821,151.710
1,146353,223,-0.461,-4.405,9.383,-0.391,-0.072,-0.046,28.310,2.821,151.710
1,146356,226,-0.439,-4.446,9.276,-0.391,-0.072,-0.046,28.310,2.821,151.710
1,146379,224,-0.461,-3.983,9.063,0.105,-0.116,-0.031,28.135,2.835,151.783
1,146382,222,-0.461,-3.983,9.063,0.105,-0.116,-0.031,28.135,2.835,151.783
1,146386,223,-0.432,-4.045,9.010,0.024,-0.108,-0.016,27.945,2.675,151.622
1,146409,223,-0.450,-3.973,9.111,0.104,-0.123,-0.034,27.974,2.470,151.783
1,146413,223,-0.450,-3.973,9.111,0.104,-0.123,-0.034,27.901,2.806,152.148
1,146439,224,-0.464,-4.152,9.098,0.193,-0.131,-0.062,28.442,2.719,151.257
1,146443,228,-0.464,-4.152,9.098,0.193,-0.131,-0.062,28.442,2.719,151.257
1,146447,229,-0.444,-3.946,8.911,0.226,-0.132,-0.093,28.442,2.719,151.257
1,146468,229,-0.475,-3.766,9.114,-0.145,-0.084,-0.079,28.135,3.055,151.652
1,146473,227,-0.475,-3.565,9.243,-0.145,-0.084,-0.079,28.062,3.011,152.353
1,146476,231,-0.444,-3.565,9.243,-0.136,-0.097,-0.073,28.062,3.011,152.353
1,146499,238,-0.458,-3.629,8.938,0.043,-0.132,-0.084,27.857,3.259,151.272
1,146502,233,-0.444,-3.644,9.025,-0.270,-0.128,-0.084,27.857,3.259,151.272
1,146506,230,-0.444,-3.644,9.025,-0.050,-0.128,-0.084,27.857,3.259,151.272
1,146529,231,-0.700,-4.353,9.454,-0.170,-0.162,-0.070,27.843,3.785,150.994
1,146533,231,-0.579,-4.030,8.590,-0.150,-0.126,-0.131,27.843,3.785,150.994
1,146537,235,-0.579,-4.030,8.590,-0.150,-0.126,-0.131,28.223,3.917,150.950
1,146559,222,-0.354,-3.348,8.643,-0.329,-0.077,-0.198,27.887,3.844,150.395
1,146563,221,0.140,-2.782,8.784,-0.323,-0.103,-0.193,27.594,4.750,150.833
1,146566,231,0.140,-2.782,8.784,-0.323,-0.103,-0.193,27.594,4.750,150.833
1,146589,224,-0.562,-3.405,8.253,-0.721,-0.143,-0.171,27.609,5.612,150.088
1,146592,222,-0.512,-3.793,8.473,-1.119,-0.103,-0.111,27.609,5.612,150.088
1,146596,217,-0.512,-3.793,8.473,-1.119,-0.103,-0.111,27.609,5.612,150.088
1,146619,220,-0.424,-4.524,8.611,-1.508,-0.068,-0.088,27.916,6.621,151.155
1,146623,225,-0.424,-4.524,8.611,-1.522,-0.081,-0.095,27.916,7.776,151.169
1,146626,228,-0.424,-4.524,8.611,-1.522,-0.081,-0.095,28.296,7.776,151.169
1,146649,222,-0.244,-5.334,8.485,-1.244,-0.200,-0.055,28.544,8.726,149.956
1,146653,220,-0.244,-5.334,8.485,-1.244,-0.200,-0.055,28.544,8.726,149.956
1,146656,213,-0.244,-5.334,8.485,-1.244,-0.200,-0.055,28.544,8.726,149.956
1,146679,224,-0.317,-5.907,7.914,-1.497,-0.199,-0.122,29.202,9.866,150.029
1,146683,224,-0.317,-5.907,7.914,-1.497,-0.199,-0.122,29.202,9.866,150.029
1,146686,218,-0.317,-5.907,7.914,-1.497,-0.199,-0.122,29.772,9.939,149.664
1,146709,216,-0.390,-6.307,7.975,-1.528,-0.189,-0.203,29.874,9.807,149.868
1,146712,221,-0.390,-6.307,7.975,-1.528,-0.189,-0.203,29.947,9.529,150.921
1,146716,224,-0.546,-6.334,7.707,-1.528,-0.189,-0.186,29.947,9.529,150.921
1,146739,216,-0.487,-6.975,8.085,-1.528,-0.202,-0.235,30.415,8.346,151.666
1,146743,218,-0.487,-6.975,8.085,-1.528,-0.202,-0.235,30.415,8.346,151.666
1,146747,224,-0.218,-7.255,7.816,-1.745,-0.249,-0.250,30.415,8.346,151.666
1,146769,220,0.450,-6.676,6.833,-2.056,-0.233,-0.238,31.277,5.335,152.675
1,146773,217,0.450,-6.676,6.833,-2.056,-0.233,-0.238,31.277,5.335,153.932
1,146776,217,0.514,-6.287,6.487,-1.715,-0.148,-0.208,31.730,4.005,153.932
1,146799,220,-0.273,-6.817,7.047,-0.610,0.049,0.009,31.058,3.639,154.794
1,146802,219,-0.273,-6.817,7.047,-0.610,0.049,0.009,31.058,3.639,154.794
1,146806,213,-0.304,-7.071,7.170,-0.169,0.079,0.120,31.058,3.639,154.794
1,146829,211,-0.370,-6.702,6.963,0.312,0.134,0.272,30.547,5.495,155.452
1,146833,205,-0.370,-6.792,7.041,0.312,0.134,0.272,30.547,5.495,155.452
1,146836,203,-0.383,-6.792,7.041,0.547,0.183,0.356,30.547,7.089,155.276
1,146859,209,-0.310,-6.738,7.076,1.208,0.236,0.384,29.684,9.500,154.107
1,146863,209,-0.877,-5.971,8.126,1.146,0.244,0.343,28.413,12.058,154.180
1,146866,208,-0.877,-5.971,8.126,1.146,0.244,0.343,28.413,12.058,154.180
1,146889,184,-0.020,-6.272,6.974,-0.077,-0.318,0.075,28.895,13.826,152.119
1,146893,184,-0.541,-6.294,8.523,0.354,-0.374,0.130,28.895,13.826,152.119
1,146896,186,-0.541,-6.294,8.523,0.354,-0.374,0.130,28.895,13.826,152.119
1,146919,193,-0.438,-7.120,8.039,0.715,-0.451,0.147,29.991,16.749,149.415
1,146922,196,-0.517,-7.003,7.260,0.648,-0.369,0.158,29.991,16.749,149.415
1,146926,190,-0.517,-7.003,7.260,0.648,-0.369,0.158,30.766,17.992,147.968
1,146949,198,-0.506,-6.092,7.050,0.296,-0.279,0.138,30.634,19.132,146.478
1,146953,197,-0.530,-5.955,7.172,0.191,-0.287,0.119,30.634,19.132,146.478
1,146957,201,-0.530,-5.955,7.172,0.191,-0.287,0.119,30.634,19.132,146.478
1,146979,202,-0.536,-6.351,7.261,0.097,-0.313,0.060,31.424,21.587,144.358
1,146983,204,-0.536,-6.351,7.261,0.004,-0.296,0.060,31.424,21.587,144.358
1,146986,204,-0.536,-6.351,7.261,0.004,-0.296,0.060,31.774,22.640,143.745
1,147009,211,-0.264,-6.694,7.744,0.165,-0.225,0.220,32.008,23.093,141.728
1,147013,214,-0.264,-6.694,7.744,0.165,-0.225,0.220,32.739,24.496,142.064
1,147016,211,-0.264,-6.694,7.744,0.165,-0.225,0.220,32.739,24.496,142.064
1,147039,214,-0.701,-6.324,7.486,0.090,-0.151,0.211,33.207,24.642,139.944
1,147042,214,-0.701,-6.324,7.486,0.090,-0.151,0.211,33.207,24.642,139.944
1,147046,224,-0.701,-6.324,7.486,0.090,-0.151,0.211,33.207,24.642,139.944
1,147069,227,-0.477,-6.441,7.896,0.117,-0.133,0.236,33.937,25.490,138.878
1,147073,225,-0.477,-6.441,7.896,0.117,-0.133,0.236,33.937,25.490,138.878
1,147077,221,-0.525,-6.462,7.979,0.117,-0.133,0.238,33.937,26.016,137.971
1,147099,225,-0.497,-6.233,7.196,0.503,-0.149,0.277,34.727,26.615,136.042
1,147103,225,-0.497,-6.233,7.196,0.503,-0.149,0.277,34.727,26.615,136.042
1,147106,227,-0.389,-5.946,6.955,0.310,-0.095,0.281,34.727,26.615,136.042
1,147129,230,-0.715,-5.974,7.717,-0.017,-0.050,0.219,35.721,27.243,134.361
1,147132,228,-0.715,-5.974,7.717,-0.017,-0.050,0.219,35.721,27.243,134.361
1,147136,232,-0.675,-6.104,7.892,0.038,-0.066,0.233,35.911,26.980,133.163
1,147159,228,-0.616,-6.030,7.449,0.225,-0.098,0.230,36.568,27.448,132.037
1,147163,232,-0.616,-6.030,7.449,0.225,-0.098,0.230,36.817,28.325,131.804
1,147166,229,-0.648,-6.001,6.998,0.186,-0.073,0.235,36.817,28.325,131.804
1,147189,235,-0.688,-6.162,7.291,-0.226,-0.032,0.169,37.431,28.822,130.225
1,147193,233,-0.840,-6.194,7.681,-0.226,-0.032,0.169,37.431,28.822,130.225
1,147196,233,-0.840,-6.194,7.681,-0.288,-0.040,0.127,37.431,28.822,130.225
1,147219,233,-0.843,-6.368,7.621,-0.175,-0.056,0.098,37.738,29.173,128.018
1,147223,238,-0.456,-6.242,7.137,-0.167,-0.040,0.098,37.738,29.173,128.018
1,147226,232,-0.456,-6.242,7.137,-0.167,-0.040,0.098,38.059,29.816,128.325
1,147249,224,-0.254,-5.995,6.727,-0.632,0.083,0.094,38.161,30.094,128.062
1,147252,225,-0.707,-5.929,6.828,-0.898,0.130,0.065,38.161,30.094,128.062
1,147256,220,-0.707,-5.929,6.828,-0.898,0.130,0.065,38.161,30.094,128.062
1,147279,224,-0.735,-6.609,7.207,-1.091,0.104,0.015,38.249,30.137,128.515
1,147283,220,-0.805,-6.897,7.211,-1.084,0.059,-0.033,38.249,30.137,128.515
1,147287,221,-0.805,-6.897,7.211,-1.084,0.059,-0.033,38.249,30.503,128.880
1,147309,223,-0.741,-8.984,8.652,-0.831,-0.017,-0.277,38.468,30.576,128.135
1,147313,224,-1.277,-9.995,8.801,-0.788,-0.106,-0.545,38.702,30.854,129.070
1,147316,226,-1.277,-9.995,8.801,-0.788,-0.106,-0.545,38.702,30.854,129.070
1,147339,218,-1.090,-7.089,8.417,-0.447,-0.294,-0.958,37.167,28.267,130.342
1,147342,216,-1.090,-7.089,8.417,-0.639,-0.294,-0.958,37.167,28.267,130.342
1,147346,220,-1.090,-7.089,8.417,-0.639,-0.294,-0.958,37.167,28.267,130.342
1,147369,210,-0.196,-6.486,5.129,-1.085,-0.348,-0.925,37.036,23.049,131.365
1,147373,210,-0.196,-6.486,5.129,-1.085,-0.348,-0.925,37.036,23.049,131.365
1,147376,209,-0.196,-6.486,5.129,-1.085,-0.348,-0.925,36.890,22.216,132.447
1,147399,204,-0.080,-4.593,4.196,-0.694,-0.059,-0.782,36.510,21.149,132.447
1,147403,201,-0.080,-4.593,4.196,-0.694,-0.059,-0.782,36.378,21.149,132.447
1,147429,200,-0.208,-7.795,6.430,-0.370,-0.049,-0.259,36.349,22.815,132.432
1,147432,202,-0.208,-7.795,6.430,-0.370,-0.049,-0.259,36.349,22.815,132.432
1,147436,200,-0.225,-7.731,6.725,-0.370,-0.049,-0.217,36.349,22.815,132.432
1,147458,186,-0.385,-7.856,7.272,-0.338,-0.130,-0.078,35.896,23.809,131.789
1,147462,199,-0.385,-7.856,7.272,-0.338,-0.130,-0.078,36.130,24.627,130.766
1,147466,194,-0.038,-7.888,6.547,-0.083,-0.161,-0.011,36.130,24.627,130.766
1,147489,187,-0.017,-7.884,6.336,0.723,-0.132,0.197,36.963,25.753,128.413
1,147493,188,-0.017,-7.884,6.336,0.723,-0.132,0.197,36.963,25.753,128.413
1,147497,188,-0.522,-7.722,5.769,0.935,-0.020,0.303,36.963,25.753,128.413
1,147519,200,-0.267,-8.028,6.537,0.502,-0.083,0.189,36.861,27.346,126.498
1,147523,194,-0.267,-8.028,6.537,0.502,-0.083,0.189,36.861,27.346,126.498
1,147527,199,0.223,-8.096,6.736,0.326,-0.046,0.162,37.094,28.442,126.849
1,147549,189,-0.391,-7.491,6.640,0.390,-0.039,0.101,37.036,28.457,126.250
1,147552,187,-0.354,-7.260,6.171,0.390,-0.039,0.101,37.051,28.208,126.250
1,147556,186,-0.354,-7.260,6.171,0.456,-0.034,0.077,37.051,28.208,126.250
1,147579,187,-0.292,-7.417,6.083,0.233,0.061,0.062,36.232,29.027,124.832
1,147583,187,-0.426,-7.413,6.418,0.164,0.098,0.049,36.232,29.027,124.832
1,147586,188,-0.426,-7.413,6.418,0.164,0.098,0.049,36.232,29.027,124.832
1,147609,197,-0.365,-7.304,6.794,0.101,0.101,0.021,35.794,30.094,124.730
1,147613,197,-0.406,-7.366,6.883,0.123,0.090,0.026,36.013,30.883,125.431
1,147617,200,-0.406,-7.366,6.883,0.123,0.090,0.026,36.013,30.883,125.431
1,147639,200,-0.413,-6.954,6.559,0.314,0.032,0.050,35.516,31.614,124.700
1,147643,195,-0.450,-6.954,6.329,0.352,0.026,0.075,35.516,31.614,124.700
1,147646,194,-0.450,-6.954,6.329,0.352,0.026,0.075,35.516,31.614,124.700
1,147669,206,-0.482,-7.247,6.384,0.151,0.126,0.120,35.633,32.330,124.203
1,147672,202,-0.634,-7.083,6.384,0.061,0.178,0.131,35.633,32.330,124.203
1,147676,209,-0.634,-7.083,6.384,0.061,0.178,0.131,35.545,33.265,124.379
1,147699,193,0.073,-7.384,6.135,-0.385,-0.166,0.022,35.721,32.505,124.613
1,147703,196,0.073,-7.384,6.135,-0.390,-0.166,0.022,35.457,32.973,125.957
1,147707,192,0.073,-7.384,6.135,-0.390,-0.166,0.022,35.457,32.973,125.957
1,147729,191,-0.593,-7.290,6.823,-0.242,-0.103,0.011,35.647,33.221,125.153
1,147733,202,-0.593,-7.290,6.823,-0.242,-0.103,0.011,35.647,33.221,125.153
1,147736,197,-0.593,-7.290,6.823,-0.242,-0.103,0.011,35.647,33.221,125.153
1,147759,203,-0.483,-7.234,6.427,-0.214,-0.103,-0.038,35.794,33.850,125.197
1,147763,201,-0.483,-7.234,6.427,-0.214,-0.103,-0.038,35.911,34.230,125.431
1,147766,203,-0.483,-7.267,6.418,-0.214,-0.103,-0.038,35.911,34.230,125.431
1,147789,205,-0.481,-7.119,6.474,-0.165,-0.187,-0.089,35.472,34.069,124.890
1,147792,206,-0.481,-7.119,6.474,-0.165,-0.187,-0.089,35.472,34.069,124.890
1,147796,209,-0.441,-7.228,6.249,-0.165,-0.222,-0.104,35.472,34.069,124.890
1,147819,207,-0.390,-7.365,6.028,-0.170,-0.172,-0.110,35.896,34.537,124.291
1,147823,209,-0.390,-7.365,6.028,-0.170,-0.172,-0.110,35.896,34.537,124.291
1,147827,204,-0.346,-7.402,5.933,-0.263,-0.166,-0.114,36.276,34.771,124.145
1,147849,214,-0.477,-7.687,6.727,-0.432,-0.232,-0.116,35.896,34.683,122.917
1,147853,211,-0.477,-7.687,6.727,-0.432,-0.232,-0.116,36.276,34.507,124.101
1,147856,208,-0.224,-7.825,6.707,-0.479,-0.294,-0.110,36.276,34.507,124.101
1,147879,213,-0.385,-7.868,6.063,-0.348,-0.309,-0.104,36.729,33.879,123.166
1,147882,207,-0.385,-7.868,6.063,-0.348,-0.309,-0.104,36.729,33.879,123.166
1,147886,213,-0.327,-7.817,6.086,-0.282,-0.310,-0.116,36.729,33.879,123.166
1,147909,208,-0.307,-7.860,6.398,-0.221,-0.301,-0.119,37.051,33.645,122.406
1,147913,205,-0.433,-8.016,6.065,-0.221,-0.301,-0.119,37.533,33.806,123.151
1,147916,208,-0.433,-8.016,6.065,-0.274,-0.326,-0.119,37.533,33.806,123.151
1,147939,199,-0.353,-8.002,5.919,-0.443,-0.329,-0.156,37.606,32.534,123.078
1,147943,199,-0.370,-7.810,5.852,-0.424,-0.309,-0.169,37.606,32.534,123.078
1,147946,205,-0.370,-7.810,5.852,-0.424,-0.309,-0.169,37.606,32.534,123.078
1,147969,204,-0.334,-7.972,5.782,-0.296,-0.255,-0.131,38.249,32.184,123.546
1,147972,202,-0.318,-7.787,5.774,-0.160,-0.226,-0.115,38.249,32.184,123.546
1,147976,203,-0.318,-7.787,5.774,-0.160,-0.226,-0.115,37.928,32.008,124.028
1,147999,196,-0.251,-7.838,5.509,-0.032,-0.150,-0.054,37.840,32.067,123.663
1,148002,198,-0.306,-8.099,5.673,-0.062,-0.095,-0.024,38.001,31.701,123.736
1,148006,200,-0.306,-8.099,5.673,-0.062,-0.095,-0.024,38.001,31.701,123.736
1,148029,192,-0.269,-7.848,6.118,-0.068,-0.031,-0.049,38.015,31.891,123.502
1,148033,194,-0.266,-7.848,6.118,0.061,-0.034,-0.059,38.015,31.891,123.502
1,148037,198,-0.266,-7.848,6.118,0.061,-0.034,-0.059,38.015,31.891,123.502
1,148059,186,-0.264,-7.626,5.827,0.299,-0.131,0.013,37.723,32.447,122.420
1,148063,180,-0.264,-7.626,5.827,0.299,-0.131,0.013,37.723,33.134,122.698
1,148066,179,-0.264,-7.626,5.827,0.299,-0.131,0.013,38.147,33.134,122.698
1,148089,164,-0.274,-7.580,6.085,0.380,-0.130,0.098,38.264,32.681,121.996
1,148092,160,-0.274,-7.580,6.085,0.380,-0.130,0.098,38.264,32.681,121.996
1,148096,157,-0.274,-7.580,6.085,0.380,-0.130,0.098,38.264,32.681,121.996
1,148119,161,-0.347,-7.462,6.182,0.663,-0.188,0.182,38.600,33.104,119.673
1,148123,159,-0.347,-7.462,6.182,0.663,-0.188,0.182,38.600,33.104,119.673
1,148126,163,-0.347,-7.358,6.078,0.663,-0.188,0.182,38.600,33.601,119.336
1,148149,146,-0.631,-7.363,7.104,1.183,-0.153,0.357,39.024,33.674,117.846
1,148153,139,-0.631,-7.363,7.104,1.183,-0.153,0.357,39.214,34.595,116.223
1,148157,137,-0.380,-7.595,6.281,1.399,0.022,0.404,39.214,34.595,116.223
1,148179,138,-0.499,-7.974,5.852,0.990,0.039,0.293,40.061,34.668,112.920
1,148183,135,-0.499,-7.974,5.852,0.990,0.039,0.293,40.061,34.668,112.920
1,148186,135,-0.578,-7.729,6.237,0.650,0.017,0.194,40.061,34.668,112.920
1,148208,129,-0.682,-7.456,6.608,0.616,0.106,0.134,40.003,35.224,110.947
1,148212,136,-0.682,-7.456,6.608,0.616,0.106,0.134,40.003,35.224,110.947
1,148216,138,-0.774,-7.586,6.175,0.586,0.172,0.142,40.032,35.428,110.465
1,148239,163,-0.687,-6.713,6.402,0.294,0.139,0.029,39.608,36.539,110.669
1,148243,167,-0.687,-6.713,6.402,0.294,0.139,0.029,39.608,36.539,110.669
1,148247,172,-0.773,-6.666,6.703,0.097,0.045,-0.033,39.608,36.539,110.669
1,148269,169,-0.366,-7.311,6.677,0.065,-0.067,-0.060,39.521,36.948,109.749
1,148273,170,-0.251,-7.137,6.711,0.065,-0.031,-0.010,39.521,36.948,109.749
1,148276,172,-0.251,-7.137,6.711,0.202,-0.031,-0.010,39.389,37.109,109.369
1,148299,163,-0.791,-6.681,6.878,0.338,-0.056,0.044,39.199,36.729,109.149
1,148302,163,-0.776,-6.914,6.628,0.337,-0.094,0.048,39.521,37.986,107.732
1,148306,157,-0.776,-6.914,6.628,0.337,-0.094,0.048,39.521,37.986,107.732
1,148329,160,-0.633,-7.077,6.364,0.258,-0.109,0.044,39.857,37.738,107.045
1,148333,161,-0.605,-7.031,6.586,0.144,-0.101,0.018,39.857,37.738,107.045
1,148336,158,-0.605,-7.031,6.586,0.144,-0.101,0.018,39.857,37.738,107.045
1,148359,171,-0.507,-7.277,7.192,0.032,-0.123,0.007,39.564,38.001,106.255
1,148363,169,-0.465,-7.255,7.297,0.125,-0.136,0.035,39.564,38.001,106.255
1,148367,169,-0.465,-7.255,7.297,0.125,-0.136,0.035,40.091,38.278,105.612
1,148389,175,-0.540,-7.256,6.351,0.243,-0.144,0.073,39.959,38.878,105.086
1,148393,169,-0.540,-7.256,6.351,0.143,-0.172,0.053,39.959,38.878,105.086
1,148396,174,-0.540,-7.256,6.351,0.143,-0.172,0.053,39.959,38.878,105.086
1,148419,179,-0.677,-7.078,7.384,0.035,-0.246,-0.001,40.208,38.571,103.902
1,148422,182,-0.677,-7.078,7.384,0.035,-0.246,-0.001,40.208,38.571,103.902
1,148426,182,-0.677,-7.078,7.384,0.035,-0.246,-0.001,40.208,38.907,104.239
1,148449,183,-0.739,-6.877,7.595,0.580,-0.325,0.083,40.894,38.600,102.280
1,148453,180,-0.739,-6.877,7.595,0.580,-0.325,0.083,40.778,39.111,102.338
1,148457,184,-0.739,-6.877,7.595,0.580,-0.325,0.083,40.778,39.111,102.338
1,148479,186,-0.546,-6.835,6.360,0.990,-0.296,0.173,41.611,38.264,98.992
1,148483,185,-0.546,-6.835,6.360,0.990,-0.296,0.173,41.611,38.264,98.992
1,148486,181,-0.546,-6.930,6.109,0.990,-0.296,0.173,41.611,38.264,98.992
1,148509,179,-0.573,-6.841,7.273,0.484,-0.347,0.092,42.005,38.074,97.048
1,148512,183,-0.573,-6.841,7.273,0.484,-0.347,0.092,42.005,38.074,97.048
1,148516,184,-0.605,-6.903,7.675,0.430,-0.376,0.067,43.175,38.424,96.492
1,148539,187,-0.787,-6.976,7.089,0.550,-0.280,0.061,42.385,38.015,95.571
1,148542,189,-0.787,-6.976,7.089,0.550,-0.280,0.061,42.385,38.015,95.571
1,148546,187,-0.701,-6.913,7.108,0.487,-0.235,0.040,42.385,38.015,95.571
1,148569,187,-0.494,-6.292,7.320,0.341,-0.193,-0.004,43.058,37.884,93.818
1,148573,187,-0.494,-6.292,7.320,0.341,-0.193,-0.004,43.058,37.884,93.818
1,148577,185,-0.370,-6.355,7.759,0.379,-0.237,0.007,43.058,37.884,94.388
1,148599,188,-0.435,-6.254,7.963,0.767,-0.353,0.065,43.555,37.825,92.590
1,148603,185,-0.435,-6.254,7.859,0.767,-0.353,0.065,43.949,37.708,92.181
1,148606,187,-0.543,-6.408,7.859,0.909,-0.445,0.078,43.949,37.708,92.181
1,148629,186,-0.530,-6.620,7.239,0.843,-0.447,0.053,44.037,37.591,89.740
1,148632,184,-0.562,-6.407,7.225,0.843,-0.398,0.028,44.037,37.591,89.740
1,148636,185,-0.562,-6.407,7.225,0.715,-0.398,0.028,44.037,37.591,89.740
1,148659,192,-0.376,-6.200,7.705,0.453,-0.362,-0.004,44.022,37.211,87.854
1,148663,187,-0.414,-6.335,7.944,0.393,-0.378,-0.026,44.022,37.211,87.854
1,148666,187,-0.414,-6.335,7.944,0.393,-0.378,-0.026,44.358,37.314,87.431
1,148689,187,-0.523,-6.205,7.630,0.387,-0.397,-0.056,44.475,36.934,87.708
1,148693,191,-0.373,-6.212,7.802,0.349,-0.412,-0.078,44.490,36.934,87.708
1,148696,193,-0.373,-6.212,7.802,0.349,-0.412,-0.078,44.490,36.934,87.708
1,148719,189,-0.260,-5.937,6.768,0.171,-0.343,-0.075,44.505,36.597,87.167
1,148723,186,-0.109,-6.494,7.766,-0.150,-0.379,-0.088,44.505,36.597,87.167
1,148726,192,-0.109,-6.494,7.766,-0.150,-0.379,-0.088,44.505,36.597,87.167
1,148749,183,-0.323,-5.848,7.643,-0.268,-0.224,-0.137,45.060,36.597,88.220
1,148752,187,-0.323,-5.848,7.643,-0.202,-0.151,-0.132,45.016,36.744,88.819
1,148756,186,-0.323,-5.848,7.643,-0.202,-0.151,-0.132,45.016,36.744,88.819
1,148779,189,-0.039,-6.110,7.455,-0.511,-0.252,-0.126,44.870,36.027,89.506
1,148783,189,-0.039,-6.110,7.455,-0.511,-0.252,-0.126,44.870,36.027,89.506
1,148787,187,-0.039,-6.110,7.455,-0.511,-0.252,-0.126,44.870,36.027,89.506
1,148809,186,-0.055,-6.459,8.091,-0.211,-0.202,-0.090,44.519,35.531,90.968
1,148813,180,-0.055,-6.459,8.091,-0.211,-0.202,-0.090,44.519,35.531,90.968
1,148816,187,-0.055,-6.459,8.091,-0.211,-0.202,-0.090,44.417,35.531,91.201
1,148839,191,-0.077,-6.255,7.291,-0.379,-0.237,-0.101,44.563,35.355,91.464
1,148842,194,-0.077,-6.255,7.291,-0.379,-0.237,-0.101,44.519,35.896,91.464
1,148846,192,0.001,-6.441,7.229,-0.379,-0.237,-0.101,44.519,35.896,91.464
1,148869,195,0.044,-6.519,7.417,-0.374,-0.139,-0.105,44.972,35.326,91.698
1,148873,199,0.044,-6.519,7.417,-0.374,-0.139,-0.105,44.972,35.326,91.698
1,148876,198,0.660,-8.104,11.393,-0.071,-0.054,-0.106,44.972,35.326,91.698
1,148899,194,-2.061,-4.719,5.987,1.862,0.503,0.000,44.519,36.144,90.383
1,148903,198,-2.061,-4.719,5.987,1.862,0.503,0.000,44.198,36.203,89.331
1,148906,194,0.806,-5.897,7.518,0.935,-0.316,-0.117,44.198,36.203,89.331
1,148929,194,-0.026,-6.760,6.421,0.007,-0.332,-0.035,44.885,35.282,88.395
1,148933,200,-0.026,-6.760,6.421,0.007,-0.332,-0.035,44.885,35.282,88.395
1,148936,197,-0.115,-6.446,6.974,-0.134,-0.243,-0.077,44.885,35.282,88.395
1,148958,190,-0.163,-6.291,7.872,0.051,-0.079,-0.065,44.198,35.341,88.381
1,148962,190,-0.163,-6.291,7.773,0.051,-0.079,-0.065,44.198,35.341,88.381
1,148966,188,-0.193,-6.397,7.773,0.083,-0.050,-0.038,44.578,35.399,89.068
1,148989,159,-0.104,-6.553,7.570,-0.013,0.032,-0.022,44.738,35.136,88.571
1,148993,158,-0.099,-6.327,7.487,-0.010,0.084,-0.053,43.993,35.107,88.878
1,148997,151,-0.099,-6.327,7.487,-0.010,0.084,-0.053,43.993,35.107,88.878
1,149019,145,-0.128,-6.171,7.912,0.060,0.055,-0.087,43.423,36.144,88.731
1,149023,148,-0.172,-6.144,7.960,0.081,0.002,-0.088,43.423,36.144,88.731
1,149026,146,-0.172,-6.144,7.960,0.081,0.002,-0.088,43.423,36.144,88.731
1,149049,152,-0.150,-6.221,7.795,0.040,-0.087,-0.068,43.686,36.159,89.228
1,149052,142,-0.183,-6.152,7.719,0.039,-0.100,-0.065,43.423,36.641,89.886
1,149056,138,-0.183,-6.152,7.719,0.039,-0.100,-0.065,43.423,36.641,89.886
1,149079,124,-0.188,-6.116,7.468,0.077,-0.092,-0.026,43.511,35.925,90.281
1,149083,132,-0.160,-6.225,7.481,0.083,-0.083,-0.006,43.511,35.925,90.281
1,149086,132,-0.160,-6.225,7.481,0.083,-0.083,-0.006,43.511,35.925,90.281
1,149109,144,-0.193,-6.276,7.836,0.059,-0.092,-0.024,43.671,35.779,88.834
1,149113,147,-0.193,-6.276,7.836,0.046,-0.114,-0.024,43.671,35.779,88.834
1,149117,144,-0.193,-6.276,7.836,0.046,-0.114,-0.024,43.978,36.364,88.921
1,149139,156,-0.173,-6.354,7.630,0.164,-0.108,-0.010,43.861,36.232,88.907
1,149143,160,-0.173,-6.354,7.630,0.164,-0.108,-0.010,44.315,36.115,88.381
1,149146,160,-0.173,-6.354,7.630,0.164,-0.108,-0.010,44.315,36.115,88.381
1,149169,160,-0.162,-6.032,7.571,0.079,-0.086,-0.009,43.671,35.677,88.191
1,149172,158,-0.162,-6.032,7.571,0.079,-0.086,-0.009,43.671,35.677,88.191
1,149176,156,-0.162,-6.032,7.571,0.079,-0.086,-0.009,43.671,35.677,88.191
1,149199,166,-0.187,-6.299,7.610,0.224,-0.082,0.032,44.022,35.984,87.957
1,149203,163,-0.187,-6.299,7.610,0.224,-0.082,0.032,44.183,36.495,88.001
1,149207,167,-0.189,-6.347,7.653,0.224,-0.082,0.032,44.183,36.495,88.001
1,149229,168,-0.175,-6.124,7.817,0.071,-0.079,-0.001,44.051,35.896,88.191
1,149233,172,-0.175,-6.124,7.817,0.071,-0.079,-0.001,44.051,35.896,88.191
1,149236,172,-0.181,-6.145,7.858,0.072,-0.095,-0.001,44.051,35.896,88.191
1,149259,171,-0.188,-6.162,7.819,0.155,-0.134,0.000,43.847,36.407,87.781
1,149262,170,-0.188,-6.162,7.819,0.155,-0.134,0.000,43.847,36.407,87.781
1,149266,170,-0.183,-6.081,7.720,0.202,-0.143,0.001,44.037,36.115,88.015
1,149289,169,-0.172,-6.112,7.628,0.211,-0.131,0.010,44.022,36.524,87.328
1,149292,169,-0.172,-6.112,7.628,0.211,-0.131,0.010,44.154,36.539,88.088
1,149296,168,-0.115,-6.147,7.712,0.194,-0.103,0.006,44.154,36.539,88.088
1,149319,161,-0.187,-6.132,7.747,0.170,-0.105,0.015,44.095,35.954,86.334
1,149323,162,-0.187,-6.097,7.764,0.170,-0.105,0.015,44.095,35.954,86.334
1,149327,166,-0.254,-6.097,7.764,0.111,-0.117,0.000,44.095,35.954,86.334
1,149349,168,-0.212,-6.166,7.871,0.072,-0.150,-0.018,44.154,36.101,86.364
1,149353,167,-0.209,-6.078,7.772,0.087,-0.167,-0.023,44.154,36.115,87.328
1,149356,168,-0.209,-6.078,7.772,0.087,-0.167,-0.023,44.446,36.115,87.328
1,149379,173,-0.264,-5.950,7.516,0.089,-0.144,-0.006,43.905,35.969,87.036
1,149382,179,-0.223,-6.017,7.619,0.076,-0.117,0.004,43.905,35.969,87.036
1,149386,176,-0.223,-6.017,7.619,0.076,-0.117,0.004,43.905,35.969,87.036
1,149409,177,-0.199,-6.055,7.748,0.086,-0.094,0.010,44.636,36.013,87.197
1,149413,179,-0.205,-6.074,7.785,0.044,-0.097,0.009,44.636,36.013,87.197
1,149416,180,-0.205,-6.074,7.785,0.044,-0.097,0.009,44.388,36.188,87.372
1,149439,184,-0.193,-6.144,7.786,-0.061,-0.115,-0.018,44.431,35.735,86.861
1,149443,186,-0.182,-6.095,7.707,-0.090,-0.125,-0.032,44.928,35.969,87.460
1,149446,189,-0.182,-6.095,7.707,-0.090,-0.125,-0.032,44.928,35.969,87.460
1,149468,192,-0.219,-6.019,7.452,-0.176,-0.106,-0.031,44.548,35.618,87.591
1,149473,190,-0.219,-6.019,7.452,-0.213,-0.106,-0.031,44.548,35.618,87.591
1,149476,195,-0.219,-6.019,7.452,-0.213,-0.106,-0.031,44.548,35.618,87.591
1,149499,197,-0.221,-6.146,7.596,-0.402,-0.090,-0.042,44.870,35.633,87.635
1,149502,196,-0.221,-6.146,7.596,-0.402,-0.090,-0.042,44.870,35.633,88.205
1,149506,199,-0.221,-6.146,7.596,-0.402,-0.090,-0.042,44.958,35.589,88.205
1,149529,191,-0.205,-6.159,7.328,-0.491,-0.137,-0.057,44.695,35.691,89.097
1,149533,191,-0.205,-6.159,7.328,-0.491,-0.137,-0.057,44.695,35.691,89.097
1,149537,195,-0.205,-6.159,7.328,-0.491,-0.137,-0.057,44.695,35.691,89.097
1,149559,191,-0.176,-6.502,7.049,-0.885,-0.108,-0.067,44.607,35.721,90.222
1,149563,188,-0.176,-6.502,7.049,-0.885,-0.108,-0.067,44.607,35.721,90.222
1,149566,189,-0.190,-6.547,7.164,-0.885,-0.093,-0.094,44.402,35.443,90.748
1,149589,201,-0.165,-6.586,7.286,-1.047,-0.128,-0.128,44.885,35.238,92.034
1,149592,196,-0.165,-6.586,7.286,-1.047,-0.128,-0.128,44.636,35.326,92.312
1,149596,199,-0.196,-6.552,7.117,-0.983,-0.170,-0.131,44.636,35.326,92.312
1,149619,197,0.096,-7.158,6.876,-1.003,-0.227,-0.114,44.811,35.282,94.855
1,149623,200,0.096,-7.158,6.876,-1.003,-0.227,-0.114,44.811,35.282,94.855
1,149626,198,0.063,-6.902,6.719,-1.014,-0.220,-0.150,44.811,35.282,94.855
1,149649,201,-0.093,-6.987,6.730,-0.990,-0.236,-0.151,45.381,34.771,95.645
1,149653,198,-0.093,-6.987,6.730,-0.990,-0.236,-0.151,45.381,34.771,95.645
1,149656,198,-0.060,-6.969,6.755,-0.927,-0.250,-0.134,44.870,34.946,96.025
1,149679,194,-0.079,-7.127,6.785,-0.579,-0.286,-0.083,44.899,34.317,96.054
1,149682,195,-0.036,-7.303,6.811,-0.579,-0.286,-0.083,44.899,34.317,96.054
1,149686,194,-0.036,-7.303,6.811,-0.436,-0.316,-0.061,44.899,34.317,96.054
1,149708,190,0.026,-7.524,6.867,-0.418,-0.409,-0.066,45.615,34.712,95.571
1,149712,187,-0.010,-7.452,6.769,-0.390,-0.457,-0.076,45.615,34.712,95.571
1,149716,189,-0.010,-7.452,6.769,-0.390,-0.457,-0.076,45.396,34.902,94.461
1,149739,186,0.022,-7.610,7.284,-0.215,-0.492,-0.075,45.542,33.996,93.555
1,149743,189,-0.296,-7.637,6.677,-0.121,-0.313,-0.092,45.864,34.771,94.651
1,149747,193,-0.296,-7.637,6.677,-0.121,-0.313,-0.092,45.864,34.771,94.651
1,149769,185,0.147,-7.265,6.141,-0.127,-0.337,-0.093,46.039,33.704,93.204
1,149773,186,0.129,-7.473,5.855,-0.224,-0.342,-0.068,46.039,33.704,93.204
1,149776,184,0.129,-7.473,5.855,-0.224,-0.342,-0.068,46.039,33.704,93.204
1,149799,184,0.238,-7.491,5.786,-0.360,-0.263,-0.059,45.995,34.040,92.809
1,149802,180,0.239,-7.389,5.786,-0.375,-0.241,-0.056,45.995,34.040,92.809
1,149806,182,0.239,-7.389,5.786,-0.375,-0.241,-0.056,46.054,33.996,92.780
1,149829,181,0.117,-7.766,6.567,-0.255,-0.203,-0.021,46.156,33.382,92.780
1,149833,181,0.117,-7.766,6.567,-0.162,-0.203,-0.021,46.156,33.382,92.780
1,149836,179,0.117,-7.766,6.567,-0.162,-0.203,-0.021,46.156,33.382,92.780
1,149859,173,0.229,-7.701,5.664,-0.374,-0.250,-0.053,46.405,33.747,91.918
1,149863,167,0.229,-7.701,5.664,-0.374,-0.250,-0.053,46.405,33.747,91.918
1,149867,168,0.229,-7.701,5.664,-0.374,-0.250,-0.053,46.536,33.426,91.918
1,149889,169,0.390,-7.874,5.922,-0.619,-0.260,-0.064,46.536,33.265,92.122
1,149893,170,0.390,-7.874,5.922,-0.619,-0.260,-0.064,46.945,34.098,92.195
1,149896,167,0.390,-7.874,6.293,-0.619,-0.260,-0.064,46.945,34.098,92.195
1,149919,165,0.303,-7.972,5.965,-0.445,-0.286,-0.089,46.565,32.856,90.982
1,149922,161,0.303,-7.972,5.965,-0.445,-0.286,-0.089,46.565,32.856,90.982
1,149926,161,0.475,-7.970,5.544,-0.445,-0.304,-0.081,46.565,32.856,90.982
1,149949,164,0.414,-8.077,5.056,-0.608,-0.290,-0.046,47.062,32.622,91.377
1,149953,167,0.414,-8.077,5.056,-0.608,-0.290,-0.046,47.062,32.622,91.377
1,149957,165,0.370,-8.292,5.454,-0.668,-0.243,-0.046,46.609,33.426,92.298
1,149979,154,0.358,-8.082,5.699,-0.470,-0.172,-0.062,46.595,33.514,92.181
1,149983,159,0.358,-8.082,5.699,-0.470,-0.172,-0.062,46.595,33.514,92.181
1,149986,160,0.359,-8.170,5.550,-0.406,-0.172,-0.038,46.595,33.514,92.181
1,150009,151,0.373,-8.333,5.477,-0.407,-0.145,-0.029,46.448,33.601,91.669
1,150012,148,0.373,-8.333,5.477,-0.407,-0.145,-0.029,46.448,33.601,91.669
1,150016,151,0.365,-8.262,5.521,-0.396,-0.132,-0.035,46.448,33.324,92.195
1,150039,142,0.382,-8.248,5.568,-0.329,-0.148,-0.012,47.311,33.207,92.414
1,150042,148,0.354,-8.365,5.335,-0.329,-0.148,0.301,47.588,33.937,92.283
1,150046,148,0.354,-8.365,5.335,-0.314,-0.156,0.000,47.588,33.937,92.283
1,150069,144,0.371,-8.424,4.996,-0.392,-0.104,-0.015,46.858,33.879,92.678
1,150073,145,0.358,-8.279,5.128,-0.363,-0.064,-0.018,46.858,33.879,92.678
1,150076,146,0.358,-8.279,5.128,-0.363,-0.064,-0.018,46.858,33.879,92.678
1,150099,140,0.047,-8.387,5.469,-0.182,-0.017,0.012,47.311,33.470,92.663
1,150103,138,0.157,-8.480,5.697,-0.108,0.007,0.011,47.311,33.470,92.663
1,150106,144,0.157,-8.480,5.697,-0.108,0.007,0.011,46.975,33.894,92.648
1,150129,146,0.437,-8.386,4.911,-0.090,-0.028,-0.005,46.858,34.054,92.882
1,150132,146,0.331,-8.444,4.959,-0.177,-0.093,0.000,46.858,34.054,92.882
1,150136,141,0.331,-8.444,4.959,-0.177,-0.093,0.000,46.858,34.054,92.882
1,150159,160,0.278,-8.461,5.084,-0.238,-0.087,-0.007,46.609,34.478,92.575
1,150163,159,0.321,-8.524,5.084,-0.228,-0.087,-0.011,46.609,34.478,92.575
1,150166,151,0.321,-8.524,5.084,-0.228,-0.087,-0.011,46.609,34.478,92.575
1,150189,151,0.444,-8.235,5.001,-0.075,-0.057,-0.040,46.901,33.952,93.291
1,150193,150,0.444,-8.235,5.001,-0.075,-0.057,-0.040,47.179,34.741,93.233
1,150196,152,0.444,-8.235,5.001,-0.075,-0.057,-0.040,47.179,34.741,93.233
1,150219,158,0.335,-8.455,4.751,-0.015,-0.099,-0.005,46.799,34.098,93.306
1,150222,162,0.335,-8.455,4.751,-0.015,-0.099,-0.005,46.799,34.098,93.306
1,150226,159,0.335,-8.455,4.751,-0.015,-0.099,-0.005,46.799,34.098,93.306
1,150249,162,0.264,-8.401,4.893,-0.092,-0.153,-0.022,47.062,34.361,92.473
1,150252,163,0.264,-8.401,4.893,-0.092,-0.153,-0.022,47.062,34.361,92.473
1,150256,160,0.264,-8.401,4.739,-0.092,-0.153,-0.022,47.340,34.668,92.853
1,150279,162,0.398,-8.541,4.694,-0.214,-0.173,-0.012,46.624,33.923,93.584
1,150283,159,0.398,-8.541,4.694,-0.214,-0.173,-0.012,46.960,33.835,93.584
1,150287,164,0.432,-8.450,4.694,-0.206,-0.149,-0.018,46.960,33.835,93.584
1,150309,163,0.353,-8.575,4.685,-0.197,-0.125,-0.006,47.281,34.230,92.751
1,150313,160,0.353,-8.575,4.685,-0.197,-0.125,-0.006,47.281,34.230,92.751
1,150316,164,0.318,-8.553,4.688,-0.153,-0.106,-0.006,47.281,34.230,92.751
1,150339,162,0.310,-8.602,4.790,-0.101,-0.088,-0.004,47.457,34.171,92.736
1,150342,163,0.310,-8.602,4.790,-0.101,-0.088,-0.004,47.559,34.493,93.233
1,150369,165,0.317,-8.690,4.758,-0.143,-0.103,-0.023,47.369,34.230,93.555
1,150373,159,0.317,-8.690,4.758,-0.143,-0.103,-0.023,47.369,34.230,93.555
1,150376,161,0.321,-8.577,4.667,-0.133,-0.099,-0.033,47.369,34.230,93.555
1,150399,167,0.293,-8.672,4.622,-0.045,-0.081,-0.017,47.398,34.581,93.306
1,150403,163,0.300,-8.709,4.662,-0.045,-0.081,-0.012,47.398,34.581,93.306
1,150406,163,0.300,-8.709,4.662,-0.001,-0.065,-0.012,47.442,34.654,93.321
1,150428,166,0.270,-8.548,4.630,0.061,-0.048,-0.005,46.916,34.697,92.809
1,150432,167,0.286,-8.631,4.616,0.033,-0.033,0.013,47.603,34.814,93.379
1,150458,170,0.261,-8.619,4.715,0.114,-0.001,0.027,47.457,34.800,93.248
1,150462,167,0.240,-8.575,4.679,0.173,0.000,0.026,47.457,34.800,93.248
1,150466,166,0.240,-8.575,4.679,0.173,0.000,0.026,47.457,34.800,93.248
1,150489,168,0.243,-8.596,4.674,0.167,-0.028,0.020,47.384,34.858,92.122
1,150493,168,0.199,-8.617,4.530,0.140,-0.034,0.016,47.486,35.662,92.400
1,150497,165,0.199,-8.617,4.530,0.140,-0.034,0.016,47.486,35.662,92.400
1,150519,166,-0.122,-8.722,5.663,0.098,-0.013,0.007,47.165,35.370,92.575
1,150523,173,-0.306,-8.722,5.663,0.154,0.018,0.000,47.165,35.370,92.575
1,150526,171,-0.306,-8.722,5.663,0.154,0.018,0.000,47.165,35.370,92.575
1,150549,173,0.382,-8.524,4.191,0.186,-0.049,0.018,47.311,35.647,92.371
1,150552,172,0.382,-8.524,4.191,0.186,-0.049,0.018,47.311,35.647,92.371
1,150556,172,0.382,-8.524,4.191,0.186,-0.049,0.018,47.208,36.188,92.721
1,150579,169,0.187,-8.534,4.755,0.160,0.050,0.016,47.267,35.808,91.698
1,150583,170,0.187,-8.534,4.755,0.160,0.050,0.016,47.106,35.852,91.786
1,150586,167,0.187,-8.534,4.755,0.160,0.050,0.016,47.106,35.852,91.786
1,150609,164,0.145,-8.559,4.875,0.177,-0.006,0.004,46.858,35.881,90.734
1,150613,171,0.145,-8.559,4.875,0.177,-0.006,0.004,46.858,35.881,90.734
1,150616,168,0.145,-8.554,4.794,0.177,-0.006,0.004,46.858,35.881,90.734
1,150639,168,0.102,-8.532,4.810,0.084,-0.053,-0.002,46.668,35.545,91.128
1,150643,164,0.102,-8.532,4.810,0.084,-0.053,-0.002,46.741,36.510,92.049
1,150646,166,0.121,-8.523,4.763,0.071,-0.071,-0.007,46.741,36.510,92.049
1,150668,172,0.080,-8.498,4.786,0.094,-0.077,-0.010,46.346,36.393,91.377
1,150672,166,0.080,-8.498,4.786,0.094,-0.077,-0.010,46.346,36.393,91.377
1,150676,168,0.096,-8.544,4.806,0.120,-0.075,-0.011,46.346,36.393,91.377
1,150699,171,0.096,-8.522,4.761,0.137,-0.060,-0.017,46.478,35.940,91.114
1,150703,172,0.096,-8.522,4.761,0.137,-0.060,-0.017,46.478,35.940,91.114
1,150707,171,0.100,-8.495,4.794,0.122,-0.050,-0.016,46.931,36.451,91.742
1,150729,171,0.067,-8.497,5.014,0.123,-0.066,-0.015,46.361,36.451,90.748
1,150733,172,0.067,-8.497,5.103,0.123,-0.066,-0.015,46.580,36.568,91.333
1,150736,174,0.089,-8.508,5.103,0.122,-0.092,-0.015,46.580,36.568,91.333
1,150759,174,0.080,-8.522,4.830,0.097,-0.143,-0.015,46.945,36.393,90.661
1,150762,177,0.087,-8.515,4.789,0.097,-0.148,-0.022,46.945,36.393,90.661
1,150766,174,0.087,-8.515,4.789,0.105,-0.148,-0.022,46.945,36.393,90.661
1,150789,176,0.075,-8.430,4.812,0.137,-0.128,-0.022,46.858,36.320,90.894
1,150792,177,0.093,-8.441,4.666,0.134,-0.119,-0.015,46.858,36.320,90.982
1,150796,175,0.093,-8.441,4.666,0.134,-0.119,-0.015,47.033,36.217,90.982
1,150819,171,0.089,-8.483,4.757,0.035,-0.077,-0.016,46.595,36.407,90.836
1,150823,171,0.085,-8.401,4.911,0.054,-0.061,-0.018,46.595,36.407,90.836
1,150826,168,0.085,-8.401,4.911,0.054,-0.061,-0.018,46.595,36.407,90.836
1,150849,164,0.065,-8.510,4.947,0.167,-0.066,0.001,47.135,36.115,90.661
1,150853,168,0.067,-8.450,4.934,0.206,-0.075,-0.002,47.135,36.115,90.661
1,150856,167,0.067,-8.450,4.934,0.206,-0.075,-0.002,47.208,36.349,90.427
1,150879,168,0.056,-8.504,4.969,0.132,-0.066,-0.001,47.223,36.861,90.427
1,150882,169,0.056,-8.504,4.969,0.097,-0.059,-0.012,46.770,36.875,90.485
1,150886,167,0.056,-8.504,4.969,0.097,-0.059,-0.012,46.770,36.875,90.485
1,150909,169,0.033,-8.481,4.997,0.160,-0.106,-0.021,46.901,36.787,90.295
1,150913,168,0.033,-8.481,4.997,0.160,-0.106,-0.021,46.901,36.787,90.295
1,150916,166,0.033,-8.481,4.997,0.160,-0.106,-0.021,46.901,36.787,90.295
1,150939,165,0.045,-8.460,4.877,0.072,-0.098,-0.032,46.843,37.094,89.579
1,150943,166,0.045,-8.460,4.877,0.072,-0.098,-0.032,46.843,37.094,89.579
1,150946,164,0.045,-8.460,4.877,0.072,-0.098,-0.032,47.194,37.314,89.184
1,150969,170,0.029,-8.402,4.916,0.206,-0.088,-0.011,46.916,37.226,89.754
1,150972,173,0.029,-8.402,4.916,0.206,-0.088,-0.011,46.916,37.226,89.754
1,150976,170,0.063,-8.515,4.875,0.206,-0.088,-0.011,46.916,37.226,89.754
1,150999,170,0.029,-8.390,5.043,0.136,-0.078,-0.026,46.785,36.948,89.316
1,151002,173,0.029,-8.390,5.043,0.136,-0.078,-0.026,46.785,36.948,89.316
1,151006,175,0.000,-8.399,5.027,0.112,-0.078,-0.021,46.785,37.401,89.170
1,151029,174,0.025,-8.396,4.996,0.098,-0.101,-0.017,46.609,37.226,89.097
1,151033,179,0.025,-8.396,4.996,0.098,-0.101,-0.017,47.077,37.431,89.009
1,151037,177,-0.004,-8.380,4.978,0.094,-0.111,-0.017,47.077,37.431,89.009
1,151059,172,0.019,-8.400,4.944,0.122,-0.092,-0.005,46.872,37.138,88.600
1,151063,173,0.019,-8.400,4.944,0.122,-0.092,-0.005,46.872,37.138,88.600
1,151066,174,0.006,-8.404,5.007,0.133,-0.084,-0.007,46.872,37.138,88.600
1,151089,172,-0.002,-8.453,5.009,0.104,-0.076,-0.013,46.916,36.948,88.673
1,151092,170,-0.002,-8.453,5.087,0.104,-0.076,-0.013,46.916,36.948,88.673
1,151096,169,0.037,-8.394,5.087,0.084,-0.073,-0.021,47.238,37.387,88.220
1,151119,174,0.019,-8.375,5.029,0.081,-0.077,-0.022,46.434,37.226,89.009
1,151123,176,-0.005,-8.390,4.924,0.081,-0.077,-0.022,46.434,37.226,89.009
1,151126,175,-0.005,-8.390,4.924,0.081,-0.077,-0.022,46.434,37.226,89.009
1,151149,175,-0.010,-8.335,4.971,0.092,-0.060,-0.023,46.901,37.357,88.483
1,151153,173,0.006,-8.322,5.072,0.115,-0.051,-0.020,46.901,37.357,88.483
1,151156,171,0.006,-8.322,5.072,0.115,-0.051,-0.020,47.267,37.621,89.038
1,151179,173,-0.031,-8.328,5.112,0.145,-0.060,-0.004,46.916,37.460,88.132
1,151183,172,-0.013,-8.331,5.130,0.153,-0.068,0.002,46.551,38.118,88.439
1,151186,175,-0.013,-8.331,5.130,0.153,-0.068,0.002,46.551,38.118,88.439
1,151208,174,-0.033,-8.437,5.018,0.166,-0.077,0.004,47.135,37.650,87.913
1,151212,172,0.013,-8.453,5.066,0.164,-0.070,-0.005,47.135,37.650,87.913
1,151216,170,0.013,-8.453,5.066,0.164,-0.070,-0.005,47.135,37.650,87.913
1,151239,169,-0.051,-8.449,5.192,0.151,-0.068,-0.028,46.858,37.694,86.568
1,151243,172,-0.051,-8.449,5.192,0.151,-0.077,-0.022,46.858,37.694,86.568
1,151247,168,-0.051,-8.449,5.192,0.151,-0.077,-0.022,47.062,38.658,86.904
1,151269,169,-0.066,-8.120,4.903,0.120,-0.099,-0.055,46.551,38.454,87.153
1,151273,170,-0.066,-8.120,4.903,0.120,-0.099,-0.055,46.551,38.454,87.153
1,151299,169,-0.041,-8.182,5.011,-0.035,-0.086,-0.045,46.463,38.848,86.934
1,151302,168,-0.041,-8.182,5.011,-0.035,-0.086,-0.045,46.463,38.848,86.934
1,151306,168,-0.041,-8.182,5.011,-0.035,-0.086,-0.045,46.463,38.717,87.591
1,151329,167,-0.018,-8.186,5.215,0.045,-0.123,-0.028,46.799,38.819,87.036
1,151333,167,-0.018,-8.186,5.215,0.045,-0.123,-0.028,46.945,39.316,87.036
1,151336,169,-0.077,-8.131,5.226,0.045,-0.123,-0.028,46.945,39.316,87.036
1,151359,171,-0.042,-8.169,5.121,0.109,-0.220,0.015,47.121,38.848,86.364
1,151363,171,-0.042,-8.169,5.121,0.109,-0.220,0.015,47.121,38.848,86.364
1,151366,169,-0.031,-8.227,5.032,0.099,-0.230,0.032,47.121,38.848,86.364
1,151389,174,0.007,-8.426,4.965,0.016,-0.230,0.034,47.062,38.249,85.267
1,151393,174,0.007,-8.426,4.965,0.016,-0.230,0.034,47.062,38.249,85.267
1,151396,171,-0.120,-8.310,5.448,0.020,-0.127,-0.009,47.077,38.892,86.013
1,151418,171,0.511,-8.588,5.293,0.073,-0.198,0.035,47.062,37.869,86.276
1,151422,169,0.511,-8.588,5.293,0.073,-0.198,0.035,47.062,37.869,86.276
1,151426,166,-0.412,-8.395,4.653,0.094,-0.105,-0.026,47.062,37.869,86.276
1,151449,171,-0.035,-8.400,5.031,-0.001,-0.145,-0.017,47.165,37.898,84.829
1,151453,171,-0.035,-8.362,5.240,-0.001,-0.145,-0.017,47.165,37.898,84.829
1,151457,172,-0.050,-8.362,5.240,-0.022,-0.133,-0.018,47.165,37.898,84.829
1,151479,170,0.447,-8.211,5.289,0.031,-0.132,-0.001,47.296,38.512,84.376
1,151483,176,-0.468,-8.272,4.916,0.070,-0.071,-0.013,47.545,38.892,84.683
1,151486,169,-0.468,-8.272,4.916,0.070,-0.071,-0.013,47.545,38.892,84.683
1,151509,168,0.303,-8.463,5.204,0.087,-0.114,0.011,47.223,38.278,84.814
1,151512,172,-0.316,-8.401,5.155,0.064,-0.081,-0.009,47.223,38.278,84.814
1,151516,173,-0.316,-8.401,5.155,0.064,-0.081,-0.009,47.223,38.278,84.814
1,151539,171,-0.051,-8.530,5.045,0.060,-0.100,0.000,47.018,38.088,85.136
1,151542,167,-0.054,-8.408,5.019,0.087,-0.082,-0.022,47.018,38.088,85.136
1,151546,168,-0.054,-8.408,5.019,0.087,-0.082,-0.022,47.091,38.556,84.624
1,151569,171,-0.068,-8.247,5.067,0.106,-0.076,-0.027,46.858,38.337,85.034
1,151573,170,-0.062,-8.338,5.066,0.094,-0.084,-0.016,46.434,38.571,85.034
1,151576,175,-0.062,-8.338,5.066,0.094,-0.084,-0.016,46.434,38.571,85.034
1,151599,174,-0.077,-8.203,5.173,0.103,-0.083,-0.020,46.931,38.293,84.142
1,151603,174,-0.077,-8.203,5.173,0.134,-0.075,-0.020,46.931,38.293,84.142
1,151606,171,-0.077,-8.203,5.173,0.134,-0.075,-0.020,46.931,38.293,84.142
1,151629,171,-0.081,-8.420,5.052,0.065,-0.071,0.010,46.975,38.468,84.449
1,151632,172,-0.081,-8.420,5.052,0.065,-0.071,0.010,47.165,39.082,84.098
1,151636,169,-0.081,-8.420,5.052,0.065,-0.071,0.010,47.165,39.082,84.098
1,151659,166,-0.086,-8.356,5.012,0.065,-0.062,-0.006,47.296,38.439,83.733
1,151663,166,-0.086,-8.356,5.012,0.065,-0.062,-0.006,47.296,38.439,83.733
1,151666,165,-0.086,-8.356,5.012,0.065,-0.062,-0.006,47.296,38.439,83.733
1,151689,171,-0.098,-8.395,5.054,-0.016,-0.009,-0.022,47.179,38.571,83.981
1,151693,169,-0.098,-8.395,5.054,-0.016,-0.009,-0.022,47.179,38.571,83.981
1,151696,170,-0.099,-8.387,5.121,-0.016,0.304,-0.026,47.852,38.688,84.347
1,151719,169,-0.091,-8.475,5.373,0.067,-0.016,-0.053,47.223,38.863,84.391
1,151722,171,-0.091,-8.475,5.373,0.067,-0.016,-0.053,47.135,39.360,84.654
1,151726,170,-0.097,-8.374,5.347,0.065,-0.045,-0.066,47.135,39.360,84.654
1,151749,165,-0.105,-8.412,5.232,-0.029,-0.120,-0.078,47.077,38.863,84.814
1,151752,165,-0.105,-8.412,5.232,-0.029,-0.120,-0.078,47.077,38.863,84.814
1,151756,162,-0.097,-8.294,5.116,-0.039,-0.140,-0.083,47.077,38.863,84.814
1,151779,154,-0.129,-8.224,4.906,-0.133,-0.139,-0.053,46.551,39.258,85.399
1,151783,154,-0.129,-8.224,4.906,-0.133,-0.139,-0.053,46.828,39.126,85.443
1,151787,154,-0.164,-8.171,4.819,-0.187,-0.128,-0.033,46.828,39.126,85.443
1,151809,155,-1.206,-8.569,5.115,-0.094,-0.070,0.021,47.135,38.863,85.691
1,151813,154,-0.123,-8.697,5.014,-0.094,-0.070,0.021,47.135,38.863,85.691
1,151816,154,-0.123,-8.697,5.014,0.054,0.018,0.006,47.135,38.863,85.691
1,151839,159,0.306,-8.161,4.436,0.006,0.079,-0.020,46.828,38.819,86.130
1,151842,162,-0.014,-8.339,4.638,-0.070,0.078,0.012,46.828,38.819,86.130
1,151846,161,-0.014,-8.339,4.638,-0.070,0.078,0.012,47.515,38.980,86.174
1,151869,161,-0.150,-8.412,5.310,0.037,0.109,0.009,47.135,39.038,86.568
1,151873,165,-0.185,-8.380,5.329,0.045,0.075,0.009,46.668,39.126,86.481
1,151876,161,-0.185,-8.380,5.329,0.045,0.075,0.009,46.668,39.126,86.481
1,151899,165,-0.178,-8.503,4.984,-0.067,-0.028,0.013,46.858,38.921,85.677
1,151903,166,-0.211,-8.493,4.905,-0.078,-0.045,0.005,46.858,38.921,85.677
1,151906,160,-0.211,-8.493,4.905,-0.078,-0.045,0.005,46.858,38.921,85.677
1,151928,165,-0.226,-8.334,4.847,-0.005,-0.055,0.004,47.062,39.258,85.721
1,151933,167,-0.232,-8.497,4.771,-0.017,-0.050,0.013,46.814,39.623,86.407
1,151936,167,-0.232,-8.497,4.771,-0.017,-0.050,0.013,46.814,39.623,86.407
1,151958,164,-0.248,-8.435,4.895,-0.018,-0.006,0.000,46.828,39.462,86.407
1,151962,166,-0.248,-8.435,4.895,-0.018,-0.006,0.000,46.828,39.462,86.407
1,151966,160,-0.248,-8.435,4.895,-0.018,-0.006,0.000,46.828,39.462,86.407
1,151989,161,-0.294,-8.419,4.865,-0.082,-0.024,0.001,46.828,39.608,86.831
1,151993,163,-0.294,-8.419,4.865,-0.082,-0.024,0.001,46.828,39.608,86.831
1,151997,159,-0.294,-8.419,4.865,-0.082,-0.024,0.001,46.872,39.769,87.343
1,152019,164,-0.349,-8.691,4.898,-0.056,-0.035,0.009,47.091,39.550,86.612
1,152023,161,-0.349,-8.691,4.898,-0.056,-0.035,0.009,46.901,39.681,87.357
1,152026,158,-0.349,-8.691,4.647,-0.056,-0.035,0.009,46.901,39.681,87.357
1,152049,163,-0.298,-8.477,4.924,-0.076,-0.031,-0.017,46.945,39.068,87.489
1,152052,166,-0.298,-8.477,4.924,-0.076,-0.031,-0.017,46.945,39.068,87.489
1,152056,162,-0.278,-8.460,4.927,-0.076,-0.050,-0.012,46.945,39.068,87.489
1,152079,167,-0.711,-8.563,4.966,0.020,-0.081,0.000,47.106,39.374,86.451
1,152083,167,-0.711,-8.563,4.966,0.020,-0.081,0.000,47.106,39.374,86.451
1,152109,169,-0.280,-8.527,4.490,-0.090,-0.028,-0.013,46.858,39.638,87.401
1,152113,170,-0.280,-8.527,4.490,-0.090,-0.028,-0.013,46.858,39.638,87.401
1,152116,167,-0.303,-8.509,4.823,-0.105,0.004,-0.017,46.858,39.638,87.401
1,152139,167,-0.358,-8.611,4.903,-0.089,-0.018,-0.012,46.741,39.725,87.928
1,152143,170,-0.358,-8.611,4.903,-0.089,-0.018,-0.012,46.741,39.725,87.928
1,152146,170,-0.300,-8.578,4.926,-0.057,-0.042,-0.015,46.828,39.828,88.688
1,152168,167,-0.412,-8.569,4.652,0.023,-0.076,0.000,46.595,39.506,88.878
1,152172,164,-0.238,-8.645,4.648,0.023,-0.076,0.000,46.697,39.871,88.907
1,152176,161,-0.238,-8.645,4.648,0.012,-0.079,-0.004,46.697,39.871,88.907
1,152199,155,-0.322,-8.577,4.753,0.034,-0.073,-0.007,46.682,39.740,87.548
1,152203,152,-0.376,-8.611,4.788,0.078,-0.077,-0.007,46.682,39.740,87.548
1,152207,160,-0.376,-8.611,4.788,0.078,-0.077,-0.007,46.682,39.740,87.548
1,152229,143,-0.966,-8.636,4.695,0.087,-0.095,-0.011,46.989,39.813,87.518
1,152233,148,-0.178,-8.707,4.694,0.070,-0.106,-0.010,46.989,39.813,87.518
1,152236,146,-0.178,-8.707,4.694,0.070,-0.106,-0.010,47.179,40.251,88.293
1,152259,139,-0.349,-8.511,4.765,0.077,-0.116,-0.024,46.843,39.828,88.439
1,152262,141,-0.354,-8.595,4.737,0.084,-0.117,-0.021,46.843,39.828,88.439
1,152266,144,-0.354,-8.595,4.737,0.084,-0.117,-0.021,46.843,39.828,88.439
1,152289,136,-0.322,-8.846,4.859,0.126,-0.154,-0.027,46.551,39.901,87.708
1,152292,138,-0.412,-8.585,4.859,0.172,-0.191,-0.024,46.551,39.901,87.708
1,152296,138,-0.412,-8.585,4.859,0.172,-0.191,-0.024,46.361,40.266,88.381
1,152319,137,-0.363,-8.473,4.749,0.213,-0.198,-0.045,46.770,39.930,88.483
1,152323,140,-0.363,-8.473,4.749,0.213,-0.198,-0.045,46.887,40.412,88.278
1,152327,139,-0.363,-8.473,4.749,0.213,-0.198,-0.045,46.887,40.412,88.278
1,152349,144,-0.328,-8.410,5.029,0.398,-0.235,-0.032,46.624,39.623,86.817
1,152353,142,-0.328,-8.410,5.029,0.398,-0.235,-0.032,46.624,39.623,86.817
1,152356,141,-0.328,-8.410,5.029,0.398,-0.235,-0.032,46.624,39.623,86.817
1,152379,141,-0.329,-8.136,4.948,0.622,-0.302,0.020,46.975,40.047,86.086
1,152382,141,-0.329,-8.136,4.948,0.622,-0.302,0.020,46.975,40.047,86.086
1,152386,141,-0.329,-8.136,4.910,0.622,-0.302,0.020,47.384,40.295,84.800
1,152409,145,-0.325,-8.417,4.863,0.615,-0.248,0.100,47.252,39.828,83.937
1,152413,143,-0.325,-8.417,4.863,0.615,-0.248,0.100,47.252,39.828,83.937
1,152416,142,-0.323,-8.078,4.910,0.564,-0.215,0.104,47.252,39.828,83.937
1,152439,143,0.184,-7.720,5.174,0.546,-0.150,0.165,47.486,39.638,82.242
1,152443,142,0.184,-7.720,5.174,0.546,-0.150,0.165,47.486,39.638,82.242
1,152446,145,-1.061,-8.051,4.727,0.660,0.056,0.136,48.042,39.374,81.175
1,152469,142,-0.357,-8.314,5.476,0.671,-0.094,0.209,48.158,38.980,80.269
1,152472,145,-0.357,-8.314,5.476,0.671,-0.094,0.209,48.275,39.404,79.874
1,152476,142,-0.585,-8.058,5.672,0.509,-0.088,0.178,48.275,39.404,79.874
1,152499,143,-0.430,-7.974,5.833,0.389,-0.204,0.239,49.035,38.951,77.740
1,152502,143,-0.430,-7.974,5.833,0.389,-0.204,0.239,49.035,38.951,77.740
1,152506,143,-0.724,-7.924,6.219,0.472,-0.199,0.241,49.035,38.951,77.740
1,152529,143,-0.731,-8.180,6.245,0.755,-0.188,0.216,49.415,37.942,77.010
1,152533,143,-0.634,-8.010,6.363,0.755,-0.188,0.171,49.415,37.942,77.010
1,152537,143,-0.634,-8.010,6.363,1.081,-0.158,0.171,49.459,37.694,75.256
1,152559,143,-0.237,-7.917,6.224,1.481,-0.230,0.148,49.664,36.948,72.099
1,152563,141,-0.367,-7.596,6.294,1.811,-0.324,0.149,49.664,36.948,72.099
1,152566,142,-0.367,-7.596,6.294,1.811,-0.324,0.149,49.664,36.948,72.099
1,152589,141,-0.568,-7.186,6.707,2.720,-0.307,0.167,50.380,36.159,66.033
1,152592,145,-0.810,-6.608,7.530,2.954,-0.288,0.184,50.380,36.159,66.033
1,152596,143,-0.810,-6.608,7.530,2.954,-0.288,0.184,50.380,35.911,62.759
1,152619,143,-0.129,-6.633,7.049,2.952,-0.176,0.257,50.512,35.370,59.632
1,152623,148,-0.434,-7.218,6.366,2.908,-0.155,0.286,50.716,34.873,57.337
1,152626,143,-0.434,-7.218,6.366,2.908,-0.155,0.286,50.716,34.873,57.337
1,152649,142,-0.759,-6.906,8.568,2.810,-0.246,0.244,51.315,32.578,51.710
1,152653,144,-0.636,-6.906,8.568,2.528,-0.341,0.178,51.315,32.578,51.710
1,152679,139,-0.274,-6.298,7.159,1.836,-0.604,0.067,51.008,31.160,47.749
1,152683,139,-0.274,-6.298,7.159,1.836,-0.604,0.067,51.008,31.160,47.749
1,152686,142,-0.274,-6.298,7.159,1.836,-0.604,0.067,50.906,30.956,47.033
1,152708,140,-0.311,-5.410,7.889,1.819,-0.473,0.077,51.359,29.684,43.555
1,152712,136,-0.311,-5.410,7.889,1.819,-0.473,0.077,51.359,29.684,43.555
1,152716,142,-0.311,-5.410,7.889,1.819,-0.473,0.077,51.359,29.684,43.555
1,152739,136,-0.609,-4.694,5.210,2.143,0.071,0.150,51.184,27.901,39.608
1,152743,133,-0.609,-4.694,5.210,2.143,0.071,0.150,51.184,27.901,39.608
1,152747,140,-0.609,-4.500,5.500,2.143,0.071,0.150,51.184,27.901,37.679
1,152769,138,0.085,-5.626,7.840,1.892,1.115,0.162,52.148,27.068,35.735
1,152773,135,0.085,-5.626,7.840,1.892,1.115,0.162,52.894,26.907,32.987
1,152776,136,0.164,-5.532,10.091,2.054,1.191,-0.045,52.894,26.907,32.987
1,152799,142,-2.554,-4.181,13.225,0.274,0.415,-0.226,52.835,26.454,31.160
1,152802,136,-2.554,-4.181,13.225,0.274,0.415,-0.226,52.835,26.454,31.160
1,152806,137,-1.010,-3.375,10.601,-0.525,0.035,-0.285,52.835,26.454,31.160
1,152829,138,-1.327,-2.786,9.966,-0.401,-0.535,0.068,52.295,27.127,32.827
1,152833,141,-1.327,-2.786,9.966,-0.401,-0.535,0.068,52.295,27.127,32.827
1,152836,135,-0.858,-3.467,9.259,0.100,-0.568,0.197,52.236,26.776,32.929
1,152859,130,-0.725,-4.445,9.917,1.346,-0.428,0.439,52.689,25.212,30.912
1,152863,130,-0.725,-4.445,8.998,1.346,-0.428,0.439,52.894,25.212,30.912
1,152867,131,-0.669,-4.831,9.101,2.000,-0.349,0.386,52.894,25.212,30.912
1,152889,129,-0.894,-3.172,8.229,1.318,-0.637,0.282,53.011,23.780,27.580
1,152893,132,-0.742,-3.141,7.408,1.318,-0.560,0.332,53.011,23.780,27.580
1,152896,127,-0.742,-3.141,7.408,1.267,-0.560,0.332,53.011,23.780,27.580
1,152919,131,-0.675,-4.472,7.226,1.542,0.054,0.123,53.362,22.289,26.001
1,152922,129,0.272,-4.979,8.556,0.740,0.200,0.051,53.493,21.953,25.037
1,152926,132,0.272,-4.979,8.556,0.740,0.200,0.051,53.493,21.953,25.037
1,152949,124,-0.834,-2.788,9.649,0.358,0.292,-0.061,53.990,20.959,23.341
1,152953,122,-0.877,-4.158,9.287,0.393,0.266,-0.018,53.990,20.959,23.341
1,152957,127,-0.877,-4.158,9.287,0.393,0.266,-0.018,53.990,20.959,23.341
1,152979,117,-1.111,-3.240,8.322,0.985,0.415,-0.274,54.355,21.003,21.938
1,152983,119,-1.126,-3.635,8.285,0.820,0.577,-0.343,54.355,21.003,21.938
1,152986,117,-1.126,-3.635,8.285,0.820,0.577,-0.343,54.151,21.061,22.172
1,153009,118,-1.389,-2.882,9.613,0.200,0.742,-0.538,53.873,21.236,20.725
1,153012,116,-1.389,-2.882,9.613,0.522,0.776,-0.742,54.151,21.953,20.257
1,153016,113,-1.389,-2.882,9.613,0.522,0.776,-0.742,54.151,21.953,20.257
1,153039,118,-1.511,-1.926,9.768,0.946,0.770,-0.628,53.727,22.391,17.729
1,153042,117,-1.511,-1.926,9.768,0.946,0.770,-0.628,53.727,22.391,17.729
1,153046,112,-1.511,-1.926,9.768,0.946,0.770,-0.628,53.727,22.391,17.729
1,153069,113,-1.437,-1.053,10.951,0.456,0.512,-0.398,53.756,22.333,15.493
1,153073,113,-1.437,-1.053,10.951,0.456,0.512,-0.398,53.639,22.625,15.273
1,153077,112,-1.437,-1.053,10.951,0.456,0.512,-0.398,53.639,22.625,15.273
1,153099,116,-1.909,0.727,11.023,-0.472,-0.571,0.635,54.122,22.026,17.597
1,153103,117,-1.909,0.727,11.023,-0.472,-0.571,0.635,54.122,22.026,17.597
1,153106,109,-2.205,0.079,9.052,-0.472,-0.571,0.948,54.122,22.026,17.597
1,153129,120,-0.763,-4.683,7.990,2.290,-0.351,1.196,55.788,18.635,14.791
1,153132,124,-0.763,-4.683,7.990,2.290,-0.351,1.196,55.788,18.635,14.791
1,153136,124,-1.561,-5.250,9.008,2.254,-0.230,1.106,56.504,16.194,14.031
1,153159,116,-1.491,-4.057,9.051,1.416,-0.020,0.358,56.767,14.835,12.686
1,153163,115,-1.491,-4.057,9.051,1.416,-0.020,0.358,57.702,14.630,12.409
1,153166,115,-1.462,-3.376,9.417,0.837,0.033,0.051,57.702,14.630,12.409
1,153189,120,-1.650,-1.055,9.150,0.514,0.167,-0.343,57.132,14.265,10.436
1,153193,119,-1.650,-1.055,9.150,0.514,0.167,-0.343,57.132,14.265,10.436
1,153196,119,-1.612,-0.820,9.527,0.518,0.246,-0.296,57.132,14.265,10.436
1,153218,124,-1.444,-0.592,10.341,0.621,0.151,-0.068,57.410,13.476,9.602
1,153223,122,-1.444,-0.899,10.326,0.621,0.151,-0.068,57.776,13.403,10.348
1,153226,124,-2.474,-0.703,10.326,0.806,0.048,0.078,57.776,13.403,10.348
1,153249,120,-2.395,-1.943,9.972,0.913,-0.033,0.093,57.659,12.219,9.208
1,153252,121,-1.730,-2.122,9.507,0.913,-0.043,0.015,57.659,12.219,9.208
1,153256,122,-1.730,-2.122,9.507,0.841,-0.043,0.015,57.659,12.219,9.208
1,153279,120,-1.743,-1.979,8.974,0.595,0.078,-0.269,58.331,11.809,7.279
1,153283,122,-1.610,-1.693,9.520,0.475,0.160,-0.411,58.331,11.809,7.279
1,153287,120,-1.610,-1.693,9.520,0.475,0.160,-0.411,57.878,12.175,6.255
1,153309,119,-2.367,-1.041,9.246,0.286,0.219,-0.507,57.410,11.532,5.773
1,153313,119,-2.388,-0.992,9.680,0.280,0.297,-0.560,57.410,12.058,5.744
1,153316,122,-2.388,-0.992,9.680,0.280,0.297,-0.560,57.410,12.058,5.744
1,153339,125,-2.042,-1.385,9.753,0.225,0.378,-0.650,57.556,12.379,4.560
1,153342,128,-2.042,-1.968,10.219,0.192,0.374,-0.704,57.556,12.379,4.560
1,153346,122,-2.042,-1.968,10.219,0.192,0.374,-0.704,57.556,12.379,4.560
1,153369,126,-2.515,-1.547,9.108,0.164,0.195,-1.054,57.132,13.490,3.128
1,153373,125,-2.515,-1.547,9.108,0.067,0.216,-0.942,57.132,14.776,2.952
1,153376,124,-2.515,-1.547,9.108,0.067,0.216,-0.942,56.957,14.776,2.952
1,153399,127,-2.140,-0.701,9.833,-0.783,0.358,-0.920,56.314,16.267,2.660
1,153403,125,-2.140,-0.701,9.833,-0.783,0.358,-0.920,56.314,16.267,2.660
1,153406,127,-2.140,-0.701,9.833,-0.783,0.358,-0.920,56.314,16.267,2.660
1,153429,129,-2.552,1.004,9.845,-0.145,0.428,-0.358,55.759,17.480,2.412
1,153433,127,-2.552,1.004,9.845,-0.145,0.428,-0.358,55.759,17.480,2.412
1,153436,126,-2.552,1.004,9.845,-0.145,0.428,-0.358,56.445,16.983,1.301
1,153458,128,-2.189,-1.364,8.669,2.552,0.595,0.133,56.329,15.127,-0.950
1,153462,125,-2.189,-1.364,8.669,2.552,0.595,0.133,56.928,13.183,-1.885
1,153489,127,-2.798,-1.364,9.997,-0.527,0.408,0.142,58.594,11.707,-2.792
1,153493,128,-2.798,-1.364,9.997,-0.527,0.408,0.142,58.594,11.707,-2.792
1,153497,127,-4.094,0.292,10.932,-1.142,0.286,0.204,58.594,11.707,-2.792
1,153519,130,-2.956,0.477,10.993,-0.498,0.227,0.122,59.369,11.766,-1.257
1,153523,135,-2.956,0.477,10.993,-0.498,0.227,0.122,59.369,11.766,-1.257
1,153526,135,-2.844,0.148,9.803,0.321,0.145,0.206,59.836,11.576,-1.213
1,153549,142,-2.618,-1.557,9.438,1.646,0.079,0.336,60.626,8.813,-2.558
1,153552,142,-2.618,-1.557,9.438,1.646,0.079,0.336,60.626,8.813,-2.558
1,153556,142,-1.590,-1.653,8.907,1.919,0.083,0.217,60.626,8.813,-2.558
1,153579,141,-3.281,-0.711,9.062,1.360,0.116,-0.092,60.801,6.811,-5.481
1,153583,139,-3.281,-0.711,9.495,1.360,0.116,-0.092,60.801,6.811,-5.481
1,153586,143,-3.273,-0.692,9.495,0.859,0.128,-0.109,60.932,6.489,-5.729
1,153609,141,-2.867,-0.566,9.187,0.437,0.060,-0.197,60.465,5.174,-5.379
1,153613,139,-2.791,-0.769,9.160,0.539,0.040,-0.269,60.889,5.174,-6.416
1,153616,142,-2.791,-0.769,9.160,0.539,0.040,-0.269,60.889,5.174,-6.416
1,153639,143,-3.001,0.461,8.627,1.113,0.093,-0.401,61.210,3.829,-8.842
1,153643,144,-3.022,1.133,8.623,1.172,0.160,-0.337,61.210,3.829,-8.842
1,153646,143,-3.022,1.133,8.623,1.172,0.160,-0.337,61.210,3.829,-8.842
1,153669,146,-1.804,0.967,8.288,0.695,0.224,-0.106,61.780,1.739,-10.362
1,153672,144,-3.525,1.066,9.072,0.599,0.252,-0.051,61.780,1.739,-10.362
1,153676,144,-3.525,1.066,9.072,0.599,0.252,-0.051,62.569,0.512,-10.611
1,153699,143,-3.216,-0.992,10.141,0.812,0.233,0.100,63.666,-2.412,-10.845
1,153703,143,-3.494,-1.619,10.128,0.841,0.120,-0.004,63.666,-2.412,-10.845
1,153729,144,-3.005,-0.928,9.887,0.683,-0.097,-0.506,63.724,-3.610,-13.125
1,153733,143,-3.005,-0.928,9.887,0.401,-0.188,-0.506,63.724,-3.610,-13.125
1,153736,146,-3.005,-0.928,9.887,0.401,-0.188,-0.506,63.709,-3.829,-13.943
1,153759,144,-3.168,1.184,9.480,-0.226,-0.291,-0.814,63.329,-4.429,-16.282
1,153763,138,-3.168,1.184,9.480,-0.226,-0.291,-0.814,63.461,-4.253,-15.683
1,153766,136,-3.168,1.184,9.480,-0.226,-0.291,-0.814,63.461,-4.253,-15.683
1,153789,134,-3.010,0.245,9.849,-0.679,-0.518,-0.476,62.716,-4.268,-16.837
1,153792,133,-3.010,0.245,9.849,-0.679,-0.518,-0.476,62.716,-4.268,-16.837
1,153796,132,-3.010,0.245,9.849,-0.679,-0.518,-0.476,62.716,-4.268,-16.837
1,153819,125,-3.003,0.942,9.765,-0.547,-0.689,-0.330,62.262,-4.180,-18.474
1,153823,126,-3.003,0.942,9.765,-0.547,-0.689,-0.330,62.262,-4.180,-18.474
1,153827,125,-2.885,0.943,9.795,-0.547,-0.689,-0.209,62.146,-3.873,-18.825
1,153849,119,-2.783,0.237,9.464,-0.303,-0.729,0.033,61.079,-4.282,-19.892
1,153853,121,-2.783,0.237,9.464,-0.303,-0.729,0.033,61.079,-4.282,-19.892
1,153856,120,-2.754,-0.071,9.757,-0.430,-0.713,0.104,61.079,-4.282,-19.892
1,153879,126,-2.713,0.096,9.846,-0.794,-0.749,0.150,61.225,-4.706,-21.046
1,153882,125,-2.713,0.096,9.846,-0.794,-0.749,0.150,61.225,-4.706,-21.046
1,153886,121,-2.670,0.164,9.783,-0.891,-0.767,0.186,60.932,-4.297,-21.543
1,153909,121,-2.463,-0.335,10.022,-0.604,-0.761,0.246,60.275,-4.619,-21.163
1,153913,118,-2.463,-0.335,10.022,-0.604,-0.761,0.246,60.129,-4.078,-21.397
1,153916,128,-2.437,-0.321,10.077,-0.318,-0.756,0.231,60.129,-4.078,-21.397
1,153939,120,-2.359,-0.718,9.885,0.197,-0.789,0.166,59.749,-4.984,-23.823
1,153943,119,-2.270,-0.530,9.753,0.197,-0.789,0.166,59.749,-4.984,-23.823
1,153946,120,-2.270,-0.530,9.753,0.269,-0.781,0.112,59.749,-4.984,-23.823
1,153968,120,-2.127,0.005,9.716,-0.094,-0.716,0.087,58.696,-5.934,-24.920
1,153972,123,-2.102,-0.050,9.836,-0.308,-0.681,0.119,58.696,-5.934,-24.920
1,153976,124,-2.102,-0.050,9.836,-0.308,-0.681,0.119,58.930,-5.802,-25.475
1,153999,121,-2.033,-0.173,9.659,-0.374,-0.630,0.165,58.477,-6.124,-26.659
1,154002,118,-1.987,-0.223,9.614,-0.296,-0.583,0.177,58.477,-6.124,-26.659
1,154006,115,-1.987,-0.223,9.614,-0.296,-0.583,0.177,58.477,-6.124,-26.659
1,154029,115,-1.886,-0.359,9.576,-0.202,-0.472,0.175,58.229,-6.358,-27.024
1,154033,113,-1.853,-0.343,9.398,-0.186,-0.400,0.176,58.229,-6.358,-27.024
1,154037,113,-1.853,-0.343,9.398,-0.186,-0.400,0.176,58.229,-6.358,-27.682
1,154059,116,-1.887,-0.475,9.488,-0.331,-0.219,0.169,58.170,-6.738,-26.893
1,154063,116,-1.850,-0.266,9.260,-0.381,-0.125,0.164,58.272,-6.402,-26.469
1,154066,119,-1.850,-0.266,9.260,-0.381,-0.125,0.164,58.272,-6.402,-26.469
1,154089,113,-2.303,-0.670,10.032,-0.236,0.018,0.226,58.711,-8.199,-26.323
1,154092,112,-2.303,-0.670,10.032,-0.111,0.018,0.226,58.711,-8.199,-26.323
1,154096,116,-2.303,-0.670,10.032,-0.111,0.018,0.226,58.711,-8.199,-26.323
1,154119,121,-1.753,-1.043,10.721,0.071,-0.114,0.232,59.486,-9.427,-26.293
1,154123,120,-1.753,-1.043,10.721,0.071,-0.114,0.232,59.486,-9.427,-26.293
1,154126,118,-1.753,-1.043,10.721,0.071,-0.114,0.232,59.705,-9.515,-26.776
1,154149,118,-1.631,-1.077,10.276,0.134,-0.484,0.068,59.690,-10.713,-27.097
1,154153,119,-1.631,-1.077,10.276,0.134,-0.484,0.068,58.813,-10.713,-27.097
1,154156,119,-1.631,-1.077,10.276,0.134,-0.484,0.068,58.813,-10.713,-27.097
1,154179,120,-1.580,-0.698,10.034,-0.062,-0.571,-0.006,58.769,-11.152,-29.377
