1,112954,532,-1.230,0.569,9.945,0.050,-0.103,-0.017,13.198,-36.013,135.677
1,112958,534,-1.230,0.569,9.945,0.050,-0.103,-0.017,13.198,-36.013,135.531
1,112961,530,-1.281,0.550,9.911,0.056,-0.122,-0.026,13.476,-36.393,135.531
1,112965,530,-1.281,0.550,9.911,0.056,-0.122,-0.026,13.476,-36.393,135.531
1,112988,535,-1.249,0.526,9.894,0.060,-0.110,-0.018,13.344,-36.510,135.253
1,112992,533,-1.287,0.572,9.894,0.067,-0.114,-0.018,13.344,-36.510,135.253
1,112995,533,-1.287,0.572,9.894,0.067,-0.114,-0.018,13.344,-36.510,135.253
1,113017,532,-1.268,0.580,9.907,0.067,-0.117,-0.018,13.680,-35.984,134.917
1,113020,531,-1.275,0.561,9.884,0.060,-0.114,-0.017,13.680,-35.984,134.917
1,113024,533,-1.275,0.561,9.884,0.060,-0.114,-0.017,14.206,-35.618,135.311
1,113046,534,-1.260,0.581,9.925,0.065,-0.112,-0.020,13.783,-36.013,135.165
1,113050,530,-1.260,0.581,9.925,0.066,-0.115,-0.020,13.783,-36.013,135.165
1,113054,531,-1.260,0.581,9.925,0.066,-0.115,-0.020,13.783,-36.013,135.165
1,113077,530,-1.239,0.543,9.886,0.056,-0.112,-0.018,13.987,-36.305,134.712
1,113081,536,-1.239,0.543,9.886,0.056,-0.112,-0.018,13.987,-36.305,134.712
1,113083,533,-1.239,0.543,9.886,0.056,-0.112,-0.018,13.856,-35.954,134.844
1,113106,531,-1.248,0.597,9.924,0.060,-0.111,-0.020,13.680,-36.510,134.712
1,113110,531,-1.248,0.597,9.924,0.060,-0.111,-0.020,13.768,-35.808,135.779
1,113114,533,-1.248,0.597,9.924,0.060,-0.111,-0.020,13.768,-35.808,135.779
1,113136,529,-1.259,0.568,9.912,0.055,-0.111,-0.021,13.446,-36.203,135.633
1,113140,534,-1.259,0.568,9.912,0.055,-0.111,-0.021,13.446,-36.203,135.633
1,113144,534,-1.212,0.584,9.880,0.055,-0.111,-0.023,13.446,-36.203,135.633
1,113166,533,-1.253,0.556,9.913,0.048,-0.112,-0.021,13.578,-36.597,135.662
1,113170,531,-1.253,0.556,9.913,0.048,-0.112,-0.021,13.578,-36.597,135.662
1,113174,531,-1.267,0.523,9.892,0.048,-0.110,-0.020,13.622,-35.867,135.735
1,113197,531,-1.257,0.562,9.916,0.057,-0.111,-0.021,13.300,-35.779,135.837
1,113201,531,-1.257,0.562,9.916,0.057,-0.111,-0.021,13.300,-35.779,135.837
1,113204,531,-1.303,0.566,9.874,0.056,-0.110,-0.022,13.300,-35.779,135.837
1,113227,534,-1.255,0.540,9.906,0.054,-0.109,-0.022,13.856,-35.560,135.107
1,113230,532,-1.255,0.540,9.906,0.054,-0.109,-0.022,13.856,-35.560,135.107
1,113234,534,-1.238,0.555,9.913,0.059,-0.110,-0.021,13.680,-35.867,135.735
1,113256,531,-1.245,0.574,9.903,0.056,-0.111,-0.022,13.373,-35.779,135.501
1,113260,536,-1.243,0.567,9.866,0.056,-0.111,-0.022,13.622,-35.092,135.867
1,113264,529,-1.243,0.567,9.866,0.053,-0.112,-0.022,13.622,-35.092,135.867
1,113287,531,-1.249,0.562,9.922,0.060,-0.114,-0.020,13.227,-35.794,135.267
1,113291,530,-1.261,0.586,9.868,0.064,-0.116,-0.020,13.227,-35.794,135.267
1,113293,530,-1.261,0.586,9.868,0.064,-0.116,-0.020,13.227,-35.794,135.267
1,113317,534,-1.262,0.561,9.893,0.060,-0.116,-0.020,13.446,-36.291,134.668
1,113321,529,-1.272,0.529,9.884,0.064,-0.115,-0.016,13.446,-36.291,134.668
1,113324,533,-1.272,0.529,9.884,0.064,-0.115,-0.016,13.344,-35.852,135.560
1,113347,529,-1.269,0.566,9.929,0.067,-0.114,-0.016,13.446,-35.911,134.683
1,113350,533,-1.269,0.581,9.919,0.068,-0.115,-0.016,13.446,-35.911,134.683
1,113354,532,-1.269,0.581,9.919,0.068,-0.115,-0.016,13.446,-35.911,134.683
1,113376,529,-1.249,0.534,9.892,0.061,-0.111,-0.013,13.680,-35.867,134.873
1,113380,531,-1.253,0.560,9.917,0.067,-0.116,-0.016,13.680,-35.867,134.873
1,113384,533,-1.253,0.560,9.917,0.067,-0.116,-0.016,13.680,-35.867,134.873
1,113407,532,-1.244,0.560,9.897,0.067,-0.115,-0.016,13.490,-35.794,133.996
1,113411,534,-1.244,0.560,9.897,0.064,-0.115,-0.016,13.768,-35.574,135.282
1,113414,532,-1.244,0.560,9.897,0.064,-0.115,-0.016,13.768,-35.574,135.282
1,113437,535,-1.251,0.581,9.917,0.068,-0.114,-0.018,13.476,-36.027,134.873
1,113440,534,-1.251,0.581,9.917,0.068,-0.114,-0.018,13.476,-36.027,134.873
1,113444,534,-1.251,0.581,9.917,0.068,-0.114,-0.018,13.476,-36.027,134.873
1,113466,534,-1.245,0.569,9.902,0.056,-0.114,-0.017,13.505,-36.378,134.493
1,113470,534,-1.245,0.569,9.902,0.056,-0.114,-0.017,13.505,-36.378,134.493
1,113474,533,-1.245,0.569,9.902,0.056,-0.114,-0.017,13.388,-36.057,134.785
1,113497,530,-1.259,0.593,9.905,0.057,-0.112,-0.018,13.914,-36.261,135.165
1,113500,529,-1.259,0.593,9.905,0.057,-0.112,-0.018,13.826,-35.881,135.165
1,113504,532,-1.262,0.589,9.880,0.057,-0.112,-0.021,13.826,-35.881,135.165
1,113527,532,-1.256,0.561,9.906,0.059,-0.111,-0.021,13.315,-35.969,134.697
1,113531,536,-1.256,0.561,9.906,0.059,-0.111,-0.021,13.315,-35.969,134.697
1,113534,535,-1.271,0.566,9.946,0.061,-0.114,-0.020,13.315,-35.969,134.697
1,113557,530,-1.248,0.572,9.915,0.056,-0.112,-0.021,13.315,-36.159,134.814
1,113560,528,-1.248,0.572,9.915,0.056,-0.112,-0.021,13.622,-35.984,135.267
1,113564,531,-1.248,0.590,9.884,0.059,-0.116,-0.021,13.622,-35.984,135.267
1,113586,532,-1.251,0.574,9.910,0.059,-0.112,-0.020,13.388,-36.188,134.814
1,113590,534,-1.251,0.574,9.910,0.059,-0.112,-0.020,13.388,-36.188,134.814
1,113594,528,-1.236,0.578,9.943,0.059,-0.111,-0.020,13.388,-36.188,134.814
1,113617,533,-1.247,0.581,9.910,0.053,-0.112,-0.022,13.768,-36.144,135.004
1,113621,530,-1.234,0.583,9.900,0.053,-0.112,-0.022,13.768,-36.144,135.004
1,113646,533,-1.257,0.586,9.915,0.056,-0.111,-0.022,13.256,-36.013,134.668
1,113650,533,-1.250,0.579,9.937,0.054,-0.111,-0.021,13.066,-36.393,135.969
1,113654,534,-1.250,0.579,9.937,0.054,-0.111,-0.021,13.066,-36.393,135.969
1,113676,533,-1.260,0.555,9.903,0.055,-0.111,-0.021,13.227,-36.217,135.472
1,113680,533,-1.253,0.579,9.915,0.057,-0.111,-0.021,13.227,-36.217,135.472
1,113684,534,-1.253,0.579,9.915,0.057,-0.111,-0.021,13.227,-36.217,135.472
1,113707,535,-1.255,0.571,9.907,0.061,-0.111,-0.020,13.534,-36.174,135.355
1,113710,533,-1.237,0.583,9.915,0.060,-0.114,-0.020,13.914,-35.837,135.341
1,113714,531,-1.237,0.583,9.915,0.060,-0.114,-0.020,13.914,-35.837,135.341
1,113737,533,-1.261,0.564,9.915,0.062,-0.115,-0.021,13.066,-36.159,135.545
1,113741,534,-1.241,0.564,9.915,0.061,-0.114,-0.020,13.066,-36.159,135.545
1,113744,535,-1.241,0.564,9.915,0.061,-0.114,-0.020,13.066,-36.159,135.545
1,113767,531,-1.248,0.559,9.911,0.057,-0.114,-0.018,13.183,-36.130,135.341
1,113770,536,-1.248,0.559,9.911,0.057,-0.114,-0.018,13.183,-36.130,135.341
1,113774,531,-1.248,0.559,9.911,0.057,-0.114,-0.018,13.213,-35.896,134.771
1,113796,532,-1.259,0.581,9.906,0.059,-0.112,-0.020,13.432,-36.495,135.457
1,113800,533,-1.259,0.581,9.906,0.059,-0.112,-0.020,13.023,-36.042,136.086
1,113804,533,-1.259,0.581,9.906,0.059,-0.112,-0.020,13.023,-36.042,136.086
1,113827,531,-1.259,0.562,9.919,0.054,-0.111,-0.020,13.286,-35.867,135.151
1,113831,538,-1.259,0.562,9.919,0.054,-0.111,-0.020,13.286,-35.867,135.151
1,113833,531,-1.259,0.562,9.945,0.054,-0.111,-0.020,13.286,-35.867,135.151
1,113857,531,-1.267,0.590,9.902,0.056,-0.114,-0.021,13.373,-36.334,135.180
1,113861,531,-1.267,0.590,9.902,0.056,-0.114,-0.021,13.724,-36.013,135.107
1,113864,531,-1.213,0.561,9.894,0.054,-0.112,-0.021,13.724,-36.013,135.107
1,113887,535,-1.255,0.559,9.923,0.055,-0.112,-0.022,13.096,-36.261,135.428
1,113890,530,-1.255,0.559,9.923,0.055,-0.112,-0.022,13.096,-36.261,135.428
1,113894,535,-1.243,0.578,9.866,0.057,-0.115,-0.021,13.096,-36.261,135.428
1,113916,534,-1.239,0.596,9.899,0.055,-0.112,-0.020,13.373,-36.524,135.107
1,113920,532,-1.239,0.596,9.899,0.055,-0.112,-0.020,13.373,-36.524,135.107
1,113924,534,-1.205,0.566,9.907,0.057,-0.110,-0.020,13.578,-36.159,135.107
1,113947,530,-1.253,0.541,9.922,0.066,-0.112,-0.021,13.315,-36.057,134.668
1,113951,533,-1.253,0.541,9.922,0.066,-0.112,-0.021,13.826,-36.071,135.151
1,113954,534,-1.254,0.598,9.951,0.073,-0.111,-0.018,13.826,-36.071,135.151
1,113977,533,-1.251,0.593,9.903,0.079,-0.111,-0.015,13.578,-36.261,135.311
1,113980,532,-1.289,0.583,9.990,0.079,-0.111,-0.017,13.578,-36.261,135.311
1,113984,533,-1.289,0.583,9.990,0.077,-0.114,-0.017,13.578,-36.261,135.311
1,114006,531,-1.266,0.613,9.898,0.075,-0.116,-0.018,13.549,-36.057,134.756
1,114010,530,-1.226,0.653,9.882,0.067,-0.114,-0.018,13.549,-36.057,135.151
1,114014,527,-1.226,0.653,9.882,0.067,-0.114,-0.018,13.739,-36.013,135.151
1,114037,531,-1.268,0.587,9.906,0.050,-0.116,-0.021,13.300,-36.086,135.180
1,114041,535,-1.279,0.560,9.949,0.043,-0.112,-0.023,13.300,-36.086,135.180
1,114044,531,-1.279,0.560,9.949,0.043,-0.112,-0.023,13.300,-36.086,135.180
1,114067,529,-1.247,0.602,9.899,0.040,-0.111,-0.023,13.315,-36.349,135.165
1,114071,529,-1.247,0.589,9.904,0.038,-0.114,-0.023,13.315,-36.349,135.165
1,114074,533,-1.247,0.589,9.904,0.038,-0.114,-0.023,13.563,-36.276,136.013
1,114097,531,-1.250,0.564,9.928,0.039,-0.112,-0.023,13.329,-35.940,135.531
1,114100,534,-1.257,0.564,9.928,0.042,-0.114,-0.023,13.329,-35.779,136.057
1,114104,533,-1.257,0.564,9.928,0.042,-0.114,-0.023,13.329,-35.779,136.057
1,114126,531,-1.241,0.549,9.913,0.048,-0.111,-0.022,13.622,-36.101,135.180
1,114130,533,-1.241,0.549,9.913,0.048,-0.111,-0.022,13.622,-36.101,135.180
1,114134,533,-1.241,0.549,9.913,0.048,-0.111,-0.022,13.622,-36.101,135.180
1,114157,534,-1.269,0.591,9.933,0.062,-0.112,-0.021,13.286,-35.750,135.355
1,114161,531,-1.269,0.591,9.933,0.062,-0.112,-0.021,13.286,-35.750,135.355
1,114164,531,-1.269,0.591,9.933,0.062,-0.112,-0.021,13.461,-36.261,135.443
1,114186,533,-1.259,0.571,9.875,0.055,-0.112,-0.020,13.315,-36.247,134.931
1,114190,531,-1.259,0.571,9.875,0.055,-0.112,-0.020,13.315,-36.247,134.931
1,114194,532,-1.259,0.571,9.888,0.055,-0.112,-0.020,13.315,-36.247,134.931
1,114216,530,-1.259,0.567,9.923,0.051,-0.111,-0.021,13.563,-36.685,135.399
1,114220,533,-1.259,0.567,9.923,0.051,-0.111,-0.021,13.563,-36.685,135.399
1,114224,531,-1.274,0.580,9.910,0.048,-0.111,-0.021,13.812,-36.422,135.019
1,114247,532,-1.260,0.558,9.907,0.051,-0.110,-0.022,13.651,-36.291,134.887
1,114250,530,-1.260,0.558,9.907,0.051,-0.110,-0.022,13.432,-36.057,135.370
1,114254,533,-1.235,0.540,9.946,0.055,-0.111,-0.024,13.432,-36.057,135.370
1,114277,535,-1.237,0.562,9.904,0.053,-0.111,-0.021,13.359,-36.057,135.311
1,114281,536,-1.237,0.562,9.904,0.053,-0.111,-0.021,13.359,-36.057,135.311
1,114285,534,-1.243,0.595,9.890,0.055,-0.112,-0.021,13.359,-36.057,135.311
1,114307,531,-1.249,0.568,9.923,0.060,-0.112,-0.020,13.388,-36.247,134.990
1,114310,533,-1.249,0.568,9.923,0.060,-0.112,-0.020,13.388,-36.247,134.990
1,114314,529,-1.295,0.529,9.918,0.059,-0.111,-0.018,14.206,-36.144,135.121
1,114337,530,-1.235,0.568,9.890,0.060,-0.115,-0.020,13.636,-36.334,135.867
1,114340,532,-1.235,0.599,9.860,0.060,-0.112,-0.020,13.636,-36.334,135.867
1,114344,533,-1.235,0.599,9.860,0.061,-0.112,-0.020,13.636,-36.334,135.867
1,114367,534,-1.265,0.569,9.924,0.060,-0.111,-0.017,13.329,-36.305,135.428
1,114371,532,-1.287,0.556,9.969,0.057,-0.112,-0.018,13.329,-36.305,135.428
1,114374,534,-1.287,0.556,9.969,0.057,-0.112,-0.018,13.329,-36.305,135.545
1,114397,531,-1.261,0.575,9.885,0.059,-0.108,-0.015,13.300,-35.925,134.771
1,114401,535,-1.253,0.587,9.880,0.064,-0.112,-0.018,13.286,-35.384,135.837
1,114404,535,-1.253,0.587,9.880,0.064,-0.112,-0.018,13.286,-35.384,135.837
1,114427,531,-1.255,0.544,9.929,0.060,-0.114,-0.016,13.373,-35.823,135.414
1,114430,531,-1.231,0.562,9.902,0.064,-0.114,-0.018,13.373,-35.823,135.414
1,114434,531,-1.231,0.562,9.902,0.064,-0.114,-0.018,13.373,-35.823,135.414
1,114458,532,-1.229,0.569,9.928,0.059,-0.112,-0.018,13.519,-36.115,135.282
1,114461,530,-1.229,0.569,9.928,0.059,-0.112,-0.018,13.519,-36.115,135.282
1,114464,537,-1.229,0.569,9.928,0.059,-0.112,-0.018,13.870,-36.071,135.048
1,114487,536,-1.255,0.560,9.903,0.056,-0.112,-0.020,13.695,-36.612,135.165
1,114491,533,-1.255,0.560,9.903,0.056,-0.112,-0.020,13.666,-36.612,135.165
1,114494,535,-1.255,0.560,9.903,0.056,-0.112,-0.020,13.666,-36.612,135.165
1,114517,533,-1.256,0.555,9.916,0.057,-0.112,-0.020,12.862,-36.188,135.750
1,114521,532,-1.256,0.555,9.916,0.057,-0.112,-0.020,12.862,-36.188,135.750
1,114524,531,-1.256,0.555,9.916,0.057,-0.112,-0.020,12.862,-36.188,135.750
1,114546,532,-1.263,0.589,9.907,0.057,-0.114,-0.020,13.110,-36.393,135.253
1,114550,531,-1.263,0.589,9.907,0.057,-0.114,-0.020,13.563,-35.267,135.545
1,114554,530,-1.269,0.601,9.936,0.057,-0.114,-0.020,13.563,-35.267,135.545
1,114577,530,-1.262,0.547,9.928,0.056,-0.114,-0.022,13.680,-35.911,135.457
1,114581,533,-1.262,0.547,9.928,0.056,-0.114,-0.022,13.680,-35.911,135.457
1,114584,530,-1.255,0.556,9.967,0.056,-0.112,-0.021,13.680,-35.911,135.457
1,114607,529,-1.245,0.585,9.905,0.057,-0.112,-0.021,13.110,-36.261,134.449
1,114611,531,-1.245,0.585,9.905,0.057,-0.112,-0.021,13.110,-36.261,134.449
1,114614,534,-1.278,0.597,9.899,0.056,-0.115,-0.022,13.359,-35.984,135.224
1,114637,533,-1.248,0.564,9.917,0.054,-0.111,-0.021,13.110,-36.130,135.779
1,114640,533,-1.248,0.564,9.917,0.054,-0.111,-0.021,13.154,-36.174,135.618
1,114644,531,-1.243,0.559,9.912,0.054,-0.111,-0.021,13.154,-36.174,135.618
1,114666,534,-1.250,0.572,9.907,0.054,-0.112,-0.021,13.066,-36.057,135.165
1,114670,533,-1.250,0.572,9.907,0.054,-0.112,-0.021,13.066,-36.057,135.165
1,114674,533,-1.309,0.554,9.907,0.051,-0.110,-0.020,13.066,-36.057,135.165
1,114697,532,-1.269,0.572,9.925,0.059,-0.115,-0.023,13.227,-35.837,134.683
1,114701,533,-1.248,0.583,9.930,0.059,-0.114,-0.021,13.139,-35.472,134.990
1,114704,534,-1.248,0.583,9.930,0.060,-0.114,-0.021,13.139,-35.472,134.990
1,114727,535,-1.265,0.564,9.909,0.056,-0.112,-0.020,13.388,-36.027,135.721
1,114730,533,-1.274,0.549,9.905,0.057,-0.114,-0.021,13.388,-36.027,135.721
1,114734,534,-1.274,0.549,9.905,0.057,-0.114,-0.021,13.388,-36.027,135.721
1,114756,532,-1.267,0.578,9.910,0.061,-0.115,-0.021,13.037,-35.998,135.823
1,114760,534,-1.253,0.584,9.946,0.057,-0.111,-0.020,13.037,-35.998,135.823
1,114764,534,-1.253,0.584,9.946,0.057,-0.111,-0.020,12.789,-35.867,135.604
1,114787,532,-1.239,0.554,9.919,0.057,-0.112,-0.020,13.344,-36.305,136.232
1,114791,533,-1.255,0.569,9.919,0.057,-0.114,-0.020,12.949,-36.159,136.115
1,114794,531,-1.255,0.569,9.919,0.057,-0.114,-0.020,12.949,-36.159,136.115
1,114817,533,-1.256,0.581,9.913,0.060,-0.112,-0.018,13.286,-36.671,135.691
1,114821,534,-1.256,0.581,9.913,0.057,-0.114,-0.018,13.286,-36.671,135.691
1,114825,534,-1.256,0.581,9.913,0.057,-0.114,-0.018,13.286,-36.671,135.691
1,114847,534,-1.243,0.579,9.913,0.059,-0.112,-0.021,12.979,-36.086,135.545
1,114850,534,-1.243,0.579,9.913,0.059,-0.112,-0.021,12.979,-35.545,135.662
1,114854,532,-1.243,0.579,9.913,0.059,-0.112,-0.021,13.403,-35.545,135.662
1,114876,532,-1.244,0.532,9.894,0.056,-0.112,-0.021,13.213,-36.144,135.633
1,114880,530,-1.244,0.532,9.894,0.056,-0.112,-0.021,13.213,-36.144,135.633
1,114884,535,-1.244,0.532,9.894,0.056,-0.112,-0.021,13.213,-36.144,135.633
1,114907,527,-1.284,0.500,9.966,0.089,-0.109,-0.015,13.651,-35.998,135.180
1,114911,527,-1.284,0.500,9.966,0.089,-0.109,-0.015,13.651,-35.998,135.180
1,114937,523,-1.259,0.664,9.852,0.114,-0.112,-0.006,12.920,-36.247,135.209
1,114941,524,-1.259,0.664,9.852,0.114,-0.112,-0.006,13.110,-35.604,136.261
1,114944,521,-1.195,0.638,9.671,0.090,-0.115,-0.010,13.110,-35.604,136.261
1,114967,515,-1.257,0.669,9.961,0.089,-0.106,-0.022,13.490,-36.364,135.282
1,114970,512,-1.257,0.669,9.961,0.089,-0.106,-0.022,13.490,-36.364,135.282
1,114974,512,-1.327,0.717,10.149,0.086,-0.105,-0.027,13.490,-36.364,135.282
1,114997,512,-1.237,0.641,9.771,-0.035,-0.108,-0.029,13.563,-36.174,136.554
1,115000,514,-1.237,0.641,9.771,-0.035,-0.108,-0.029,13.563,-36.174,136.554
1,115004,511,-1.228,0.619,9.715,-0.060,-0.108,-0.034,14.148,-35.633,135.326
1,115027,509,-1.298,0.621,10.156,-0.032,-0.109,-0.042,13.622,-36.013,135.881
1,115031,501,-1.298,0.315,10.132,-0.032,-0.109,-0.042,13.622,-36.013,135.881
1,115034,504,-1.332,0.445,10.132,-0.034,-0.112,-0.040,13.622,-36.013,135.881
1,115057,497,-1.269,0.237,9.835,-0.023,-0.104,-0.017,13.461,-35.794,135.282
1,115061,497,-1.207,0.422,9.748,0.045,-0.089,-0.011,13.461,-35.794,135.282
1,115064,498,-1.207,0.422,9.748,0.045,-0.089,-0.011,13.534,-36.042,134.449
1,115086,496,-1.310,0.671,10.092,0.150,-0.108,-0.022,13.519,-35.779,135.501
1,115090,493,-1.330,0.658,9.873,0.123,-0.114,-0.029,13.607,-35.677,135.852
1,115094,498,-1.330,0.658,9.873,0.123,-0.114,-0.029,13.607,-35.677,135.852
1,115117,500,-1.220,0.495,9.805,-0.009,-0.104,-0.018,13.417,-36.334,135.487
1,115121,497,-1.248,0.517,9.955,0.023,-0.108,-0.017,13.417,-36.334,135.487
1,115125,498,-1.248,0.517,9.955,0.023,-0.108,-0.017,13.417,-36.334,135.487
1,115177,494,-1.287,0.619,9.949,0.055,-0.112,-0.023,13.593,-36.276,135.501
1,115180,495,-1.287,0.619,9.949,0.068,-0.114,-0.023,13.593,-36.276,135.501
1,115184,498,-1.287,0.619,9.949,0.068,-0.114,-0.023,13.593,-36.276,135.501
1,115207,494,-1.237,0.547,9.873,0.050,-0.112,-0.021,13.096,-35.969,135.121
1,115210,496,-1.237,0.547,9.873,0.050,-0.112,-0.021,13.096,-35.969,135.121
1,115214,497,-1.237,0.547,9.873,0.050,-0.112,-0.021,13.096,-35.808,135.721
1,115237,500,-1.283,0.476,9.917,0.027,-0.112,-0.024,13.359,-35.969,134.697
1,115241,501,-1.283,0.476,9.917,0.027,-0.112,-0.024,13.286,-35.721,135.414
1,115245,501,-1.283,0.476,9.917,0.027,-0.112,-0.024,13.286,-35.721,135.414
1,115267,504,-1.261,0.550,9.897,0.093,-0.110,-0.018,13.139,-36.291,134.814
1,115271,497,-1.261,0.550,9.897,0.093,-0.110,-0.018,13.139,-36.291,134.814
1,115274,497,-1.286,0.587,10.027,0.093,-0.110,-0.020,13.139,-36.291,134.814
1,115296,499,-1.262,0.620,9.917,0.054,-0.111,-0.020,13.695,-36.276,135.823
1,115300,499,-1.262,0.620,9.917,0.054,-0.111,-0.020,13.695,-36.276,135.823
1,115304,501,-1.210,0.556,9.887,0.048,-0.112,-0.020,13.899,-35.911,135.487
1,115327,498,-1.266,0.512,9.916,0.061,-0.111,-0.020,13.885,-36.203,136.451
1,115331,501,-1.266,0.512,9.916,0.061,-0.111,-0.020,13.885,-36.203,136.451
1,115334,500,-1.269,0.554,9.876,0.067,-0.115,-0.020,13.885,-36.203,136.451
1,115357,505,-1.286,0.504,9.909,0.044,-0.112,-0.020,13.388,-36.203,135.341
1,115361,501,-1.286,0.504,9.909,0.044,-0.112,-0.020,13.388,-36.203,135.341
1,115364,502,-1.287,0.505,9.939,0.057,-0.111,-0.017,13.388,-36.203,135.911
1,115387,501,-1.257,0.564,9.911,0.094,-0.115,-0.015,13.607,-36.261,135.574
1,115390,505,-1.257,0.596,9.928,0.094,-0.115,-0.015,13.695,-35.647,136.291
1,115394,502,-1.312,0.596,9.928,0.101,-0.111,-0.011,13.695,-35.647,136.291
1,115416,500,-1.274,0.535,9.903,0.100,-0.112,-0.012,13.286,-36.568,135.077
1,115420,503,-1.273,0.548,9.898,0.100,-0.111,-0.013,13.286,-36.568,135.077
1,115424,503,-1.273,0.548,9.898,0.100,-0.111,-0.013,13.286,-36.568,135.077
1,115447,509,-1.273,0.654,9.898,0.110,-0.115,-0.016,13.344,-36.057,135.545
1,115451,507,-1.280,0.686,9.860,0.103,-0.115,-0.015,13.344,-36.057,135.545
1,115455,511,-1.280,0.686,9.860,0.103,-0.115,-0.015,13.534,-35.837,135.560
1,115477,509,-1.260,0.569,9.922,0.065,-0.112,-0.017,13.432,-36.422,135.355
1,115481,512,-1.298,0.604,9.931,0.066,-0.111,-0.018,13.344,-36.027,135.355
1,115484,509,-1.298,0.604,9.931,0.066,-0.111,-0.018,13.344,-36.027,135.355
1,115507,508,-1.255,0.626,9.885,0.045,-0.115,-0.022,12.964,-36.203,135.194
1,115510,510,-1.256,0.578,9.856,0.038,-0.112,-0.021,12.964,-36.203,135.194
1,115514,511,-1.256,0.578,9.856,0.038,-0.112,-0.021,12.964,-36.203,135.194
1,115537,513,-1.289,0.625,9.937,0.054,-0.108,-0.021,13.461,-36.334,135.311
1,115541,512,-1.289,0.625,9.937,0.060,-0.114,-0.021,13.403,-35.501,135.501
1,115544,512,-1.289,0.625,9.937,0.060,-0.114,-0.021,13.403,-35.501,135.501
1,115567,513,-1.250,0.556,9.876,0.042,-0.112,-0.023,13.446,-36.495,134.902
1,115571,515,-1.250,0.556,9.876,0.042,-0.112,-0.023,13.446,-36.495,134.902
1,115574,514,-1.250,0.556,9.876,0.042,-0.112,-0.023,13.446,-36.495,134.902
1,115597,517,-1.287,0.620,9.922,0.065,-0.114,-0.020,13.373,-36.305,135.311
1,115601,515,-1.287,0.620,9.922,0.065,-0.114,-0.020,13.373,-36.305,135.311
1,115604,515,-1.287,0.620,9.922,0.065,-0.114,-0.020,13.256,-36.115,135.370
1,115626,511,-1.279,0.561,9.909,0.062,-0.111,-0.018,13.300,-36.291,135.691
1,115630,512,-1.279,0.561,9.909,0.062,-0.111,-0.018,13.110,-36.495,135.414
1,115634,518,-1.304,0.717,9.977,0.062,-0.111,-0.023,13.110,-36.495,135.414
1,115657,520,-1.242,0.761,9.848,0.046,-0.115,-0.022,13.549,-36.144,135.531
1,115661,515,-1.242,0.761,9.848,0.046,-0.115,-0.022,13.549,-36.144,135.531
1,115687,513,-1.297,0.560,10.010,-0.040,-0.112,-0.035,12.979,-35.911,135.589
1,115691,506,-1.297,0.560,10.010,-0.040,-0.112,-0.035,13.724,-35.574,135.589
1,115694,507,-1.305,0.524,9.971,-0.037,-0.114,-0.038,13.724,-35.574,135.589
1,115717,506,-1.232,0.485,9.867,-0.034,-0.114,-0.031,12.906,-36.188,135.531
1,115720,504,-1.232,0.485,9.867,-0.034,-0.114,-0.031,12.906,-36.188,135.531
1,115724,506,-1.188,0.437,9.846,-0.022,-0.111,-0.029,12.906,-36.188,135.531
1,115747,501,-1.329,0.497,10.030,-0.017,-0.110,-0.033,12.803,-36.057,135.355
1,115750,502,-1.329,0.668,9.879,-0.017,-0.110,-0.033,12.803,-36.057,135.355
1,115754,505,-1.316,0.668,9.879,-0.023,-0.115,-0.035,13.432,-35.925,136.130
1,115777,506,-1.236,0.425,9.825,-0.046,-0.111,-0.031,13.183,-36.261,135.457
1,115781,507,-1.266,0.382,9.888,-0.035,-0.111,-0.034,13.256,-35.969,136.159
1,115785,506,-1.266,0.382,9.888,-0.035,-0.111,-0.034,13.256,-35.969,136.159
1,115807,508,-1.287,0.474,10.035,-0.016,-0.114,-0.037,13.081,-36.276,135.238
1,115811,510,-1.262,0.418,9.852,-0.024,-0.114,-0.033,13.081,-36.276,135.238
1,115814,507,-1.262,0.418,9.852,-0.024,-0.114,-0.033,13.081,-36.276,135.238
1,115836,515,-1.224,0.246,9.854,0.024,-0.111,-0.020,12.979,-36.042,135.341
1,115840,516,-1.262,0.268,9.952,0.077,-0.110,-0.016,12.979,-36.042,135.267
1,115844,513,-1.262,0.268,9.952,0.077,-0.110,-0.016,13.446,-36.071,135.267
1,115867,513,-1.289,0.400,10.000,0.145,-0.111,-0.009,13.183,-36.232,135.370
1,115871,516,-1.269,0.464,9.896,0.149,-0.112,-0.005,13.183,-36.232,135.370
1,115875,514,-1.269,0.464,9.896,0.149,-0.112,-0.005,13.183,-36.232,135.370
1,115897,511,-1.279,0.487,9.924,0.189,-0.110,0.007,12.833,-35.940,135.326
1,115901,512,-1.279,0.487,9.924,0.205,-0.110,0.007,12.833,-35.940,135.326
1,115904,511,-1.279,0.487,9.924,0.205,-0.110,0.007,13.242,-36.101,136.071
1,115927,510,-1.275,0.609,9.907,0.162,-0.114,-0.006,13.008,-36.144,135.633
1,115930,507,-1.275,0.609,9.907,0.162,-0.114,-0.006,13.052,-36.027,135.823
1,115934,511,-1.275,0.609,9.907,0.162,-0.114,-0.006,13.052,-36.027,135.823
1,115957,514,-1.296,0.765,9.951,0.123,-0.112,-0.013,13.403,-36.144,134.230
1,115960,513,-1.296,0.765,9.951,0.123,-0.112,-0.013,13.403,-36.144,134.230
1,115964,512,-1.296,0.765,9.951,0.123,-0.112,-0.013,13.403,-36.144,134.230
1,115987,520,-1.237,0.714,9.855,-0.059,-0.111,-0.035,13.300,-36.027,135.034
1,115991,518,-1.237,0.714,9.855,-0.059,-0.111,-0.035,13.300,-36.027,135.034
1,115995,515,-1.248,0.668,9.845,-0.059,-0.108,-0.043,13.899,-35.589,135.165
1,116017,508,-1.263,0.832,9.905,-0.111,-0.114,-0.054,13.139,-36.086,135.940
1,116021,500,-1.263,0.832,9.905,-0.111,-0.114,-0.054,13.139,-36.086,135.940
1,116047,499,-1.274,0.597,9.879,-0.302,-0.109,-0.081,12.862,-35.911,135.881
1,116050,504,-1.274,0.597,9.879,-0.302,-0.109,-0.081,12.862,-35.911,135.881
1,116054,504,-1.274,0.571,9.905,-0.354,-0.110,-0.090,12.540,-35.677,135.472
1,116077,498,-1.286,0.397,9.886,-0.425,-0.115,-0.105,12.876,-35.516,135.414
1,116081,501,-1.286,0.397,9.886,-0.425,-0.115,-0.105,12.613,-35.048,135.677
1,116084,500,-1.244,0.261,9.874,-0.451,-0.117,-0.104,12.613,-35.048,135.677
1,116107,502,-1.292,-0.115,9.922,-0.434,-0.110,-0.097,12.979,-35.355,134.873
1,116111,503,-1.340,-0.252,10.086,-0.434,-0.110,-0.097,12.979,-35.355,134.873
1,116114,502,-1.340,-0.252,10.086,-0.384,-0.114,-0.094,12.979,-35.355,134.873
1,116136,504,-1.267,-0.447,9.904,-0.220,-0.116,-0.067,12.803,-35.311,135.136
1,116141,505,-1.224,-0.536,9.867,-0.122,-0.111,-0.040,12.803,-35.311,135.136
1,116144,507,-1.224,-0.536,9.867,-0.122,-0.111,-0.040,12.964,-35.326,135.209
1,116166,509,-1.263,-0.278,9.961,0.156,-0.119,-0.005,13.052,-35.516,135.311
1,116170,508,-1.254,-0.109,10.094,0.270,-0.115,0.007,13.052,-35.516,135.311
1,116174,505,-1.254,-0.109,10.094,0.270,-0.115,0.007,13.052,-35.516,135.311
1,116197,495,-1.278,0.000,9.882,0.374,-0.117,0.026,12.949,-35.516,134.844
1,116201,499,-1.184,0.170,9.814,0.349,-0.111,0.024,12.949,-35.516,134.844
1,116205,504,-1.184,0.170,9.814,0.349,-0.111,0.024,12.949,-35.165,135.092
1,116227,513,-1.280,0.385,10.031,0.290,-0.110,0.017,13.008,-35.297,134.449
1,116231,513,-1.312,0.470,10.031,0.282,-0.112,0.012,13.023,-34.581,135.194
1,116234,511,-1.312,0.470,10.031,0.282,-0.112,0.012,13.023,-34.581,135.194
1,116257,516,-1.232,0.544,9.765,0.094,-0.114,-0.011,13.154,-35.151,134.800
1,116260,519,-1.232,0.544,9.765,0.094,-0.114,-0.011,13.154,-35.151,134.800
1,116264,513,-1.232,0.544,9.765,0.094,-0.114,-0.011,13.154,-35.151,134.800
1,116287,521,-1.286,0.263,10.001,-0.059,-0.114,-0.042,12.847,-34.975,134.917
1,116291,516,-1.286,0.263,10.001,-0.059,-0.114,-0.042,12.847,-34.975,134.917
1,116294,515,-1.286,0.263,10.001,-0.059,-0.114,-0.042,13.300,-34.624,135.501
1,116318,512,-1.242,0.171,9.868,-0.097,-0.110,-0.037,13.169,-35.414,135.984
1,116322,514,-1.242,0.171,9.868,-0.097,-0.110,-0.037,13.169,-35.414,135.984
1,116325,513,-1.265,0.145,9.972,-0.050,-0.114,-0.040,13.169,-35.414,135.984
1,116347,508,-1.256,0.001,9.893,-0.011,-0.111,-0.038,13.096,-35.326,135.311
1,116351,507,-1.256,0.001,9.893,-0.011,-0.111,-0.038,13.096,-35.326,135.311
1,116354,510,-1.254,-0.028,9.888,-0.004,-0.111,-0.026,13.096,-35.326,135.180
1,116377,512,-1.263,0.019,9.922,0.116,-0.111,-0.013,12.745,-35.194,135.151
1,116380,515,-1.263,0.019,9.922,0.116,-0.111,-0.013,13.008,-35.384,135.092
1,116384,512,-1.236,0.102,10.012,0.165,-0.111,-0.010,13.008,-35.384,135.092
1,116407,513,-1.283,0.172,9.957,0.159,-0.110,-0.001,13.110,-35.472,135.194
1,116411,515,-1.283,0.172,9.957,0.159,-0.110,-0.001,13.110,-35.472,135.194
1,116415,510,-1.290,0.226,9.931,0.173,-0.114,0.000,13.110,-35.472,135.194
1,116437,511,-1.281,0.223,9.890,0.159,-0.112,0.006,12.876,-35.721,135.092
1,116441,508,-1.281,0.223,9.890,0.159,-0.112,0.006,12.876,-35.721,135.092
1,116444,507,-1.308,0.232,9.878,0.181,-0.114,0.002,13.066,-35.428,135.443
1,116467,512,-1.281,0.303,9.874,0.194,-0.112,0.000,12.920,-35.355,138.381
1,116470,513,-1.253,0.268,9.858,0.194,-0.112,-0.313,12.628,-35.604,135.384
1,116474,512,-1.253,0.268,9.858,0.189,-0.114,-0.001,12.628,-35.604,135.384
1,116497,515,-1.272,0.287,9.933,0.169,-0.117,-0.002,12.701,-35.604,134.303
1,116500,515,-1.281,0.293,9.906,0.180,-0.114,-0.002,12.701,-35.604,134.303
1,116504,516,-1.281,0.293,9.906,0.180,-0.114,-0.002,12.701,-35.604,134.303
1,116527,521,-1.253,0.386,9.897,0.194,-0.111,0.002,12.628,-35.472,135.136
1,116531,520,-1.247,0.518,9.892,0.202,-0.112,0.000,13.329,-35.151,135.121
1,116535,519,-1.247,0.518,9.892,0.202,-0.112,0.000,13.329,-35.151,135.121
1,116557,521,-1.262,0.708,9.921,0.147,-0.114,-0.021,12.803,-35.531,134.785
1,116561,524,-1.267,0.678,9.811,0.051,-0.114,-0.032,12.803,-35.531,134.785
1,116564,523,-1.267,0.678,9.811,0.051,-0.114,-0.032,12.803,-35.531,134.785
1,116587,512,-1.305,0.506,10.068,-0.155,-0.106,-0.044,12.496,-35.823,135.428
1,116590,505,-1.321,0.506,10.068,-0.182,-0.115,-0.054,12.496,-35.823,135.428
1,116594,502,-1.321,0.506,10.068,-0.182,-0.115,-0.054,13.110,-35.560,135.867
1,116617,504,-1.256,0.329,9.766,-0.305,-0.117,-0.070,12.526,-35.589,135.531
1,116621,505,-1.256,0.329,9.766,-0.305,-0.117,-0.070,12.643,-35.092,135.779
1,116625,506,-1.256,0.329,9.766,-0.305,-0.117,-0.070,12.643,-35.092,135.779
1,116648,509,-1.318,0.133,10.008,-0.385,-0.119,-0.090,12.657,-35.165,135.706
1,116651,510,-1.318,0.133,10.008,-0.385,-0.119,-0.090,12.657,-35.165,135.706
1,116655,510,-1.318,0.133,10.016,-0.385,-0.119,-0.090,12.657,-35.165,135.706
1,116676,512,-1.214,-0.225,9.745,-0.370,-0.119,-0.082,12.818,-34.771,135.662
1,116681,513,-1.214,-0.225,9.745,-0.370,-0.119,-0.082,13.300,-34.858,135.063
1,116684,509,-1.237,-0.401,9.866,-0.370,-0.119,-0.082,13.300,-34.858,135.063
1,116707,512,-1.273,-0.349,10.075,-0.159,-0.120,-0.059,13.227,-34.961,135.589
1,116710,512,-1.273,-0.349,10.075,-0.159,-0.120,-0.059,13.227,-34.961,135.589
1,116714,514,-1.257,-0.363,9.967,-0.088,-0.117,-0.044,13.227,-34.961,135.589
1,116737,516,-1.208,-0.623,9.842,0.023,-0.112,-0.015,12.920,-34.785,135.121
1,116741,517,-1.208,-0.623,9.842,0.023,-0.112,-0.015,12.920,-34.785,135.121
1,116745,517,-1.285,-0.368,9.953,0.149,-0.114,-0.004,13.563,-34.595,135.545
1,116767,498,-1.334,-0.214,10.089,0.305,-0.114,0.006,13.286,-34.668,135.107
1,116771,500,-1.334,-0.214,10.089,0.305,-0.114,0.006,12.949,-34.332,136.466
1,116797,499,-1.230,-0.231,9.844,0.313,-0.106,0.034,12.964,-34.756,135.545
1,116800,501,-1.230,-0.231,9.844,0.313,-0.106,0.034,12.964,-34.756,135.545
1,116804,498,-1.310,-0.014,9.989,0.413,-0.108,0.033,12.964,-34.756,135.545
1,116827,508,-1.303,0.124,9.935,0.480,-0.111,0.037,12.818,-34.741,135.253
1,116831,504,-1.226,0.126,9.878,0.480,-0.111,0.045,12.818,-34.741,135.911
1,116834,507,-1.226,0.126,9.878,0.437,-0.111,0.045,13.256,-34.098,135.911
1,116857,508,-1.245,0.328,9.894,0.391,-0.104,0.034,12.833,-35.209,135.501
1,116861,511,-1.253,0.505,10.003,0.398,-0.109,0.024,12.833,-35.209,135.501
1,116865,509,-1.253,0.505,10.003,0.398,-0.109,0.024,12.833,-35.209,135.501
1,116887,511,-1.267,0.610,9.907,0.301,-0.106,0.015,12.949,-35.238,135.297
1,116891,511,-1.231,0.665,9.815,0.219,-0.108,0.007,12.949,-35.238,135.297
1,116894,514,-1.231,0.665,9.815,0.219,-0.108,0.007,13.052,-35.077,135.574
1,116916,516,-1.244,0.772,9.891,0.073,-0.112,-0.026,13.110,-35.341,135.224
1,116920,516,-1.283,0.628,9.902,-0.042,-0.110,-0.042,13.286,-34.961,134.975
1,116924,514,-1.283,0.628,9.902,-0.042,-0.110,-0.042,13.286,-34.961,134.975
1,116947,498,-1.267,0.507,9.992,-0.248,-0.110,-0.062,13.198,-35.180,134.727
1,116951,497,-1.267,0.507,9.992,-0.260,-0.116,-0.061,13.198,-35.180,134.727
1,116955,500,-1.267,0.507,9.992,-0.260,-0.116,-0.061,13.198,-35.180,134.727
1,116977,501,-1.306,-0.280,9.862,-0.193,-0.110,-0.059,12.482,-35.779,134.566
1,116981,504,-1.306,-0.280,9.862,-0.193,-0.110,-0.059,12.482,-35.779,134.566
1,117007,503,-1.273,-0.150,9.925,0.029,-0.114,-0.029,12.452,-35.282,135.764
1,117011,503,-1.273,-0.150,9.925,0.029,-0.114,-0.029,12.452,-35.282,135.764
1,117014,506,-1.273,-0.150,9.925,0.029,-0.114,-0.029,12.452,-35.282,135.764
1,117037,500,-1.318,-0.121,10.014,0.253,-0.110,0.009,12.876,-35.253,134.507
1,117041,497,-1.318,-0.121,10.014,0.253,-0.110,0.009,12.876,-35.253,134.507
1,117044,495,-1.292,0.164,10.189,0.253,-0.110,0.009,12.730,-35.297,135.019
1,117067,492,-1.219,0.092,9.778,0.368,-0.119,0.023,12.833,-35.077,134.668
1,117097,503,-1.293,0.377,10.034,0.435,-0.114,0.045,12.803,-35.048,135.019
1,117101,504,-1.293,0.377,10.034,0.435,-0.114,0.045,12.803,-35.048,135.019
1,117104,503,-1.318,0.446,10.193,0.502,-0.116,0.042,12.803,-35.048,135.019
1,117127,507,-1.224,0.601,9.726,0.417,-0.106,0.038,12.613,-35.048,135.180
1,117130,504,-1.224,0.601,9.726,0.417,-0.106,0.038,12.613,-35.048,135.180
1,117134,508,-1.226,0.694,9.745,0.329,-0.104,0.033,13.023,-34.668,134.771
1,117157,514,-1.328,0.936,10.089,0.255,-0.110,0.006,13.052,-34.975,135.472
1,117161,515,-1.328,0.936,9.902,0.255,-0.110,0.006,13.052,-34.975,135.472
1,117165,514,-1.289,0.969,9.902,0.193,-0.111,-0.012,13.052,-34.975,135.472
1,117187,512,-1.234,0.721,9.673,-0.076,-0.106,-0.035,12.803,-35.457,134.639
1,117191,511,-1.289,0.580,9.924,-0.177,-0.108,-0.051,12.803,-35.457,134.639
1,117194,508,-1.289,0.580,9.924,-0.177,-0.108,-0.051,12.803,-35.618,134.946
1,117216,495,-1.283,0.841,10.053,-0.204,-0.117,-0.075,13.373,-35.297,135.063
1,117220,499,-1.248,0.668,9.787,-0.225,-0.119,-0.078,12.906,-35.136,134.858
1,117224,496,-1.248,0.668,9.787,-0.225,-0.119,-0.078,12.906,-35.136,134.858
1,117247,502,-1.245,0.227,9.794,-0.364,-0.110,-0.081,12.847,-35.516,135.224
1,117250,501,-1.312,0.162,10.136,-0.384,-0.111,-0.079,12.847,-35.516,135.224
1,117254,503,-1.312,0.162,10.136,-0.384,-0.111,-0.079,12.847,-35.516,135.224
1,117277,509,-1.286,0.184,9.945,-0.285,-0.116,-0.087,12.891,-35.180,134.902
1,117307,509,-1.351,-0.226,10.159,-0.232,-0.110,-0.050,12.949,-35.721,134.697
1,117311,509,-1.351,-0.226,10.159,-0.089,-0.112,-0.044,12.949,-35.721,134.697
1,117314,512,-1.351,-0.226,10.159,-0.089,-0.112,-0.044,12.949,-35.721,134.697
1,117337,513,-1.225,-0.215,9.736,0.105,-0.114,-0.002,12.774,-35.399,135.311
1,117367,510,-1.335,0.160,10.095,0.353,-0.116,0.001,12.716,-35.677,134.887
1,117371,509,-1.335,0.160,10.095,0.353,-0.116,0.001,12.979,-34.756,135.224
1,117375,511,-1.335,0.160,10.095,0.353,-0.116,0.001,12.979,-34.756,135.224
1,117397,511,-1.218,0.293,9.788,0.134,-0.112,-0.002,12.979,-35.604,134.917
1,117401,509,-1.218,0.293,9.788,0.134,-0.112,-0.002,12.979,-35.604,134.917
1,117405,514,-1.306,0.424,10.037,0.134,-0.112,-0.002,12.979,-35.604,134.917
1,117427,519,-1.271,0.430,9.921,0.073,-0.114,-0.024,12.964,-35.501,134.391
1,117431,520,-1.271,0.430,9.921,0.073,-0.114,-0.024,12.964,-35.501,134.391
1,117434,520,-1.208,0.514,9.657,-0.028,-0.115,-0.027,13.125,-34.990,135.004
1,117458,507,-1.290,0.372,10.051,-0.115,-0.108,-0.045,13.198,-35.823,135.837
1,117460,505,-1.290,0.372,10.051,-0.115,-0.108,-0.045,13.183,-35.794,135.837
1,117464,506,-1.334,0.802,10.161,-0.125,-0.115,-0.062,13.183,-35.794,135.837
1,117487,505,-1.237,0.808,9.653,-0.330,-0.120,-0.082,12.935,-35.194,134.347
1,117491,506,-1.237,0.808,9.653,-0.330,-0.120,-0.082,12.935,-35.194,134.347
1,117495,507,-1.202,0.358,9.748,-0.491,-0.116,-0.100,12.935,-35.194,134.347
1,117517,506,-1.321,0.173,10.053,-0.720,-0.116,-0.137,13.183,-35.019,134.522
1,117521,511,-1.321,0.050,9.935,-0.720,-0.116,-0.137,13.373,-34.332,134.961
1,117524,512,-1.339,0.050,9.935,-0.751,-0.121,-0.150,13.373,-34.332,134.961
1,117547,513,-1.201,-0.437,9.726,-0.751,-0.130,-0.150,13.037,-34.449,134.961
1,117551,512,-1.207,-0.605,9.821,-0.739,-0.128,-0.150,13.037,-34.449,134.961
1,117554,516,-1.207,-0.605,9.821,-0.739,-0.128,-0.150,13.037,-34.449,134.961
1,117577,516,-1.277,-0.670,10.022,-0.566,-0.134,-0.140,12.526,-33.733,134.741
1,117581,514,-1.247,-0.877,9.949,-0.456,-0.136,-0.143,12.526,-33.733,134.741
1,117584,518,-1.247,-0.877,9.949,-0.456,-0.136,-0.143,12.833,-33.426,135.501
1,117637,516,-1.272,-1.395,10.018,-0.109,-0.103,-0.035,12.789,-33.309,134.873
1,117641,509,-1.196,-1.198,9.770,0.035,-0.095,-0.007,12.789,-33.309,134.873
1,117644,508,-1.196,-1.198,9.770,0.035,-0.095,-0.007,12.789,-33.309,134.873
1,117667,500,-1.303,-0.860,10.015,0.235,-0.099,0.026,12.716,-33.514,135.414
1,117670,505,-1.303,-0.860,10.015,0.294,-0.101,0.026,12.847,-33.119,135.282
1,117674,508,-1.303,-0.860,10.015,0.294,-0.101,0.026,12.847,-33.119,135.282
1,117697,508,-1.189,-0.597,9.872,0.340,-0.114,0.062,12.584,-33.981,135.063
1,117701,507,-1.189,-0.597,9.872,0.340,-0.114,0.062,12.584,-33.981,135.063
1,117705,512,-1.189,-0.597,9.872,0.340,-0.114,0.062,12.584,-33.981,135.063
1,117727,511,-1.321,-0.166,9.992,0.456,-0.111,0.018,12.672,-33.441,134.771
1,117731,509,-1.321,-0.166,9.992,0.456,-0.111,0.018,12.672,-33.441,134.771
1,117734,513,-1.321,-0.166,9.992,0.456,-0.111,0.018,12.818,-33.134,135.004
1,117787,517,-1.281,-0.689,9.942,-0.101,-0.110,-0.038,12.803,-34.171,134.800
1,117791,517,-1.281,-0.689,9.942,-0.101,-0.110,-0.038,12.803,-34.171,134.800
1,117794,518,-1.201,-0.573,9.887,-0.132,-0.111,-0.033,12.803,-34.171,134.800
1,117817,517,-1.248,-0.554,9.954,0.004,-0.109,-0.033,12.467,-34.157,135.764
1,117821,518,-1.248,-0.554,9.954,0.004,-0.109,-0.033,12.467,-33.747,135.326
1,117825,520,-1.293,-0.852,10.052,0.034,-0.110,-0.024,13.183,-33.747,135.326
1,117847,521,-1.298,-0.899,9.971,0.126,-0.114,0.000,12.701,-34.201,135.355
1,117851,515,-1.298,-0.899,9.971,0.126,-0.114,0.000,12.701,-34.201,135.355
1,117854,520,-1.289,-0.658,9.907,0.243,-0.115,0.007,12.701,-34.201,135.355
1,117877,515,-1.231,-0.863,9.801,0.352,-0.110,0.027,13.052,-34.259,134.844
1,117880,516,-1.300,-0.820,10.010,0.352,-0.110,0.027,13.052,-34.259,134.844
1,117884,516,-1.300,-0.820,10.010,0.384,-0.106,0.040,13.373,-34.376,135.107
1,117907,516,-1.278,-0.100,10.061,0.511,-0.114,0.035,12.833,-34.040,134.522
1,117911,517,-1.177,-0.004,9.843,0.511,-0.110,0.038,12.599,-33.821,135.077
1,117915,519,-1.177,-0.004,9.843,0.511,-0.110,0.038,12.599,-33.821,135.077
1,117937,522,-1.293,-0.507,9.879,0.349,-0.105,0.040,12.833,-34.405,134.902
1,117941,518,-1.273,-0.225,9.967,0.343,-0.108,0.039,12.833,-34.405,134.902
1,117944,521,-1.273,-0.225,9.967,0.343,-0.108,0.039,12.833,-34.405,134.902
1,117967,523,-1.222,0.097,9.869,0.400,-0.112,0.026,13.037,-34.610,134.303
1,117971,523,-1.207,-0.068,9.845,0.352,-0.110,0.027,13.037,-34.610,138.044
1,117974,525,-1.207,-0.068,9.845,0.352,-0.110,0.027,13.213,-34.215,134.771
1,117998,521,-1.315,-0.153,10.016,0.302,-0.106,0.021,12.730,-35.165,135.063
1,118000,522,-1.311,0.108,9.983,0.341,-0.111,0.017,12.730,-35.165,135.063
1,118004,525,-1.311,0.108,9.983,0.341,-0.111,0.017,12.730,-35.165,135.063
1,118028,524,-1.262,-0.025,9.812,0.249,-0.108,0.018,12.935,-34.858,134.887
1,118032,521,-1.262,-0.025,9.812,0.249,-0.108,0.018,12.935,-34.858,134.887
1,118035,525,-1.262,-0.025,9.812,0.249,-0.108,0.018,12.876,-35.253,135.297
1,118057,526,-1.290,0.207,9.940,0.244,-0.112,0.001,12.365,-35.370,135.297
1,118061,527,-1.290,0.207,9.940,0.244,-0.112,0.001,12.906,-34.917,135.911
1,118064,530,-1.290,0.207,9.940,0.244,-0.112,0.001,12.906,-34.917,135.911
1,118087,527,-1.271,0.118,9.933,0.205,-0.109,0.002,12.628,-35.165,135.297
1,118090,527,-1.271,0.118,9.933,0.205,-0.109,0.002,12.628,-35.165,135.297
1,118094,526,-1.271,0.118,9.933,0.205,-0.109,0.002,12.628,-35.165,135.297
1,118117,527,-1.247,0.158,9.850,0.183,-0.112,0.001,12.993,-35.253,135.034
1,118121,526,-1.247,0.158,9.850,0.183,-0.112,0.001,12.993,-35.253,135.034
1,118125,530,-1.245,0.116,9.805,0.183,-0.112,-0.001,13.242,-34.800,135.209
1,118147,529,-1.311,0.176,10.010,0.204,-0.109,0.002,13.242,-35.370,135.925
1,118151,527,-1.311,0.176,10.010,0.204,-0.109,0.002,13.242,-35.370,135.925
1,118155,531,-1.281,0.269,10.065,0.224,-0.111,0.006,13.242,-35.370,135.925
1,118177,528,-1.247,0.298,9.844,0.197,-0.112,0.010,12.876,-35.224,135.019
1,118181,530,-1.247,0.298,9.844,0.197,-0.112,0.010,12.876,-35.224,135.019
1,118184,531,-1.261,0.348,9.811,0.189,-0.112,0.007,12.964,-35.165,135.151
1,118208,530,-1.321,0.493,10.004,0.167,-0.109,-0.005,12.862,-35.574,134.858
1,118210,532,-1.321,0.493,10.004,0.167,-0.109,-0.005,12.847,-35.194,134.961
1,118214,531,-1.322,0.502,9.947,0.133,-0.112,-0.017,12.847,-35.194,134.961
1,118237,529,-1.267,0.358,9.779,-0.043,-0.111,-0.029,12.774,-35.531,134.361
1,118241,529,-1.274,0.325,9.848,-0.043,-0.111,-0.029,12.774,-35.531,134.361
1,118245,528,-1.274,0.325,9.848,-0.076,-0.108,-0.033,12.774,-35.531,134.361
1,118267,516,-1.311,0.288,10.056,-0.032,-0.111,-0.037,12.613,-35.618,135.019
1,118271,520,-1.300,0.220,9.925,-0.029,-0.117,-0.034,12.613,-35.618,135.019
1,118275,517,-1.300,0.220,9.925,-0.029,-0.117,-0.034,13.227,-35.107,135.545
1,118297,508,-1.265,0.152,9.876,-0.064,-0.115,-0.040,12.935,-35.560,135.998
1,118300,508,-1.298,0.203,9.854,-0.057,-0.114,-0.043,12.935,-35.560,135.998
1,118304,506,-1.298,0.203,9.854,-0.057,-0.114,-0.043,12.935,-35.560,135.998
1,118327,508,-1.287,0.150,9.923,-0.034,-0.111,-0.034,12.920,-35.370,135.253
1,118331,509,-1.281,0.117,9.878,-0.033,-0.115,-0.033,12.920,-35.370,135.253
1,118334,507,-1.281,0.117,9.878,-0.033,-0.115,-0.033,12.920,-35.370,135.209
1,118357,512,-1.291,0.108,9.955,-0.023,-0.114,-0.032,12.423,-35.267,135.253
1,118361,512,-1.305,0.170,9.955,-0.001,-0.112,-0.029,13.110,-34.610,135.267
1,118387,511,-1.271,-0.007,9.861,0.018,-0.112,-0.021,12.599,-35.779,134.829
1,118391,511,-1.271,-0.007,9.861,0.023,-0.112,-0.021,12.599,-35.779,134.829
1,118395,510,-1.271,-0.007,9.861,0.023,-0.112,-0.021,12.599,-35.779,134.829
1,118417,512,-1.303,0.202,9.964,0.054,-0.115,-0.024,12.935,-35.735,134.449
1,118420,517,-1.303,0.202,9.964,0.054,-0.115,-0.024,12.935,-35.735,134.449
1,118424,517,-1.303,0.202,9.964,0.054,-0.115,-0.024,13.183,-35.531,135.019
1,118447,520,-1.284,0.042,9.869,0.055,-0.112,-0.021,13.139,-35.589,135.940
1,118451,521,-1.284,0.042,9.869,0.055,-0.112,-0.021,12.964,-35.545,135.940
1,118455,522,-1.284,0.042,9.996,0.055,-0.112,-0.021,12.964,-35.545,135.940
1,118477,526,-1.291,0.133,9.931,0.090,-0.114,-0.017,13.169,-35.238,134.771
1,118481,519,-1.291,0.133,9.931,0.090,-0.114,-0.017,13.169,-35.238,134.771
1,118484,523,-1.243,0.061,9.852,0.090,-0.111,-0.015,13.169,-35.238,134.771
1,118507,524,-1.265,0.195,9.921,0.106,-0.111,-0.016,12.745,-35.311,135.165
1,118511,523,-1.265,0.195,9.921,0.106,-0.111,-0.016,12.745,-34.887,135.165
1,118514,520,-1.278,0.274,9.965,0.111,-0.117,-0.020,12.745,-34.887,135.165
1,118538,522,-1.291,0.144,9.890,0.076,-0.115,-0.015,12.730,-35.004,135.589
1,118541,523,-1.291,0.144,9.890,0.076,-0.115,-0.015,12.730,-35.004,135.589
1,118544,520,-1.257,0.124,9.848,0.082,-0.116,-0.016,12.730,-35.004,135.589
1,118567,522,-1.303,0.179,9.917,0.092,-0.114,-0.016,12.847,-35.297,134.668
1,118571,519,-1.303,0.179,9.917,0.092,-0.114,-0.016,12.847,-35.297,134.668
1,118575,522,-1.303,0.178,9.952,0.076,-0.111,-0.017,13.096,-35.063,135.004
1,118597,521,-1.277,0.209,9.884,0.050,-0.114,-0.021,12.730,-35.151,135.019
1,118601,523,-1.273,0.234,9.850,0.050,-0.114,-0.023,12.949,-35.311,134.873
1,118604,526,-1.273,0.234,9.850,0.042,-0.114,-0.023,12.949,-35.311,134.873
1,118627,528,-1.277,0.194,9.979,0.034,-0.114,-0.023,12.949,-34.712,134.332
1,118631,527,-1.305,0.193,9.961,0.032,-0.115,-0.026,12.949,-34.712,134.332
1,118634,527,-1.305,0.193,9.961,0.032,-0.115,-0.026,12.949,-34.712,134.332
1,118657,527,-1.265,0.118,9.858,0.015,-0.111,-0.024,12.526,-35.004,133.967
1,118661,529,-1.255,0.108,9.848,0.023,-0.115,-0.027,13.432,-34.902,134.507
1,118665,526,-1.255,0.108,9.848,0.023,-0.115,-0.027,13.432,-34.902,134.507
1,118687,525,-1.291,0.136,9.970,0.038,-0.114,-0.024,12.789,-35.224,134.595
1,118691,526,-1.263,0.130,9.915,0.038,-0.114,-0.021,12.789,-35.224,134.595
1,118695,525,-1.263,0.130,9.915,0.038,-0.114,-0.021,12.789,-35.224,134.595
1,118717,527,-1.280,0.117,9.934,0.048,-0.116,-0.023,13.183,-35.224,134.464
1,118721,529,-1.295,0.117,9.934,0.060,-0.115,-0.022,13.183,-35.224,134.464
1,118724,525,-1.295,0.117,9.934,0.060,-0.115,-0.022,13.563,-35.092,134.464
1,118748,525,-1.287,0.109,9.860,0.066,-0.112,-0.018,12.949,-34.887,134.727
1,118750,528,-1.287,0.109,9.860,0.066,-0.112,-0.018,13.534,-35.165,135.165
1,118754,529,-1.287,0.109,9.860,0.066,-0.112,-0.018,13.534,-35.165,135.165
1,118777,529,-1.285,0.176,9.953,0.064,-0.111,-0.020,13.037,-34.858,134.464
1,118781,530,-1.285,0.176,9.953,0.064,-0.111,-0.020,13.037,-34.858,134.464
1,118785,531,-1.285,0.176,9.953,0.064,-0.111,-0.020,13.037,-34.858,134.464
1,118807,532,-1.251,0.151,9.864,0.048,-0.112,-0.020,12.906,-34.829,134.040
1,118811,532,-1.251,0.151,9.864,0.048,-0.112,-0.020,12.906,-34.829,134.946
1,118814,530,-1.251,0.128,9.894,0.048,-0.112,-0.020,13.417,-34.800,134.946
1,118837,531,-1.284,0.121,9.945,0.053,-0.111,-0.022,13.169,-34.917,135.151
1,118840,534,-1.284,0.121,9.945,0.053,-0.111,-0.022,13.169,-34.917,135.151
1,118867,529,-1.260,0.135,9.917,0.067,-0.112,-0.018,13.052,-35.224,134.785
1,118871,534,-1.260,0.135,9.917,0.067,-0.112,-0.018,13.052,-35.224,134.785
1,118875,533,-1.300,0.188,9.927,0.078,-0.114,-0.018,13.096,-35.048,134.683
1,118897,531,-1.284,0.167,9.925,0.064,-0.112,-0.017,12.774,-34.814,135.136
1,118901,534,-1.284,0.167,9.925,0.064,-0.112,-0.017,12.862,-34.683,135.253
1,118905,532,-1.292,0.171,9.905,0.054,-0.112,-0.018,12.862,-34.683,135.253
1,118927,531,-1.292,0.116,9.931,0.040,-0.114,-0.022,13.213,-35.311,135.092
1,118931,532,-1.292,0.116,9.931,0.040,-0.114,-0.022,13.213,-35.311,135.092
1,118934,529,-1.284,0.112,9.930,0.039,-0.116,-0.022,13.213,-35.311,135.092
1,118958,530,-1.277,0.144,9.880,0.050,-0.112,-0.022,13.271,-34.917,134.756
1,118960,528,-1.296,0.138,9.937,0.050,-0.112,-0.022,13.271,-34.917,134.756
1,118987,527,-1.280,0.118,9.936,0.050,-0.116,-0.021,12.891,-34.917,134.887
1,118991,526,-1.251,0.106,9.900,0.049,-0.116,-0.020,12.891,-34.917,134.887
1,118995,529,-1.251,0.106,9.900,0.049,-0.116,-0.020,12.891,-34.917,134.887
1,119017,530,-1.272,0.063,9.882,0.062,-0.114,-0.020,12.979,-35.224,134.829
1,119021,526,-1.299,0.110,10.014,0.081,-0.111,-0.020,12.979,-35.224,134.829
1,119025,531,-1.299,0.110,10.014,0.081,-0.111,-0.020,12.979,-34.814,135.019
1,119047,533,-1.280,0.167,9.924,0.073,-0.117,-0.017,13.183,-35.004,135.180
1,119051,530,-1.262,0.177,9.884,0.067,-0.115,-0.017,13.023,-34.756,135.253
1,119054,529,-1.262,0.177,9.884,0.067,-0.115,-0.017,13.023,-34.756,135.253
1,119078,531,-1.291,0.144,9.949,0.075,-0.116,-0.021,12.569,-34.917,134.303
1,119081,531,-1.321,0.144,9.949,0.065,-0.110,-0.020,12.569,-34.917,134.303
1,119084,532,-1.321,0.144,9.949,0.065,-0.110,-0.020,12.569,-34.917,134.303
1,119107,532,-1.269,0.121,9.886,0.073,-0.112,-0.017,12.818,-34.800,134.931
1,119111,532,-1.269,0.121,9.886,0.073,-0.112,-0.017,12.818,-34.800,134.931
1,119115,530,-1.269,0.121,9.886,0.073,-0.112,-0.017,13.256,-34.785,135.034
1,119137,533,-1.286,0.196,9.928,0.087,-0.110,-0.017,12.526,-34.946,135.560
1,119141,528,-1.286,0.196,9.928,0.087,-0.110,-0.017,12.526,-34.946,135.560
1,119144,534,-1.286,0.196,9.928,0.087,-0.110,-0.017,12.526,-34.946,135.560
1,119167,530,-1.260,0.199,9.899,0.059,-0.112,-0.018,12.949,-34.697,134.610
1,119171,534,-1.260,0.199,9.899,0.059,-0.112,-0.018,12.949,-34.697,134.610
1,119174,535,-1.244,0.225,9.839,0.059,-0.112,-0.018,13.125,-35.077,135.209
1,119197,534,-1.297,0.093,9.940,0.043,-0.111,-0.026,13.052,-35.267,134.449
1,119201,533,-1.297,0.093,9.940,0.043,-0.111,-0.026,12.949,-34.697,134.624
1,119205,534,-1.306,0.089,9.928,0.035,-0.112,-0.026,12.949,-34.697,134.624
1,119227,536,-1.284,0.171,9.896,0.054,-0.115,-0.023,13.271,-34.858,135.165
1,119231,535,-1.284,0.171,9.896,0.054,-0.115,-0.023,13.271,-34.858,135.165
1,119235,538,-1.286,0.184,9.946,0.060,-0.109,-0.018,13.271,-34.858,135.165
1,119257,540,-1.314,0.109,9.937,0.060,-0.112,-0.021,13.052,-35.194,135.589
1,119261,540,-1.314,0.109,9.937,0.060,-0.112,-0.021,13.052,-35.194,135.589
1,119264,537,-1.305,0.129,9.978,0.062,-0.114,-0.022,13.388,-35.063,135.004
1,119317,542,-1.274,0.172,9.880,0.028,-0.115,-0.026,12.759,-34.946,134.244
1,119321,540,-1.268,0.158,9.990,0.028,-0.114,-0.027,12.759,-34.946,134.244
1,119325,541,-1.268,0.158,9.990,0.018,-0.114,-0.027,12.759,-34.946,134.244
1,119347,540,-1.275,0.089,9.940,0.021,-0.120,-0.027,12.599,-35.837,134.420
1,119351,538,-1.273,0.078,9.888,0.029,-0.116,-0.018,12.803,-34.844,135.384
1,119354,538,-1.273,0.078,9.888,0.029,-0.116,-0.018,12.803,-34.844,135.384
1,119377,540,-1.281,0.114,9.943,0.071,-0.116,-0.020,12.409,-35.209,134.551
1,119381,539,-1.305,0.194,10.009,0.075,-0.114,-0.020,12.409,-35.209,134.551
1,119384,540,-1.305,0.194,10.009,0.075,-0.114,-0.020,12.409,-35.209,134.551
1,119407,536,-1.279,0.176,9.898,0.037,-0.114,-0.020,12.482,-35.370,134.449
1,119411,536,-1.272,0.158,9.845,0.034,-0.116,-0.021,12.482,-35.370,134.449
1,119415,535,-1.272,0.158,9.845,0.034,-0.116,-0.021,12.584,-34.990,134.391
1,119437,539,-1.281,0.173,9.941,0.040,-0.110,-0.021,12.803,-35.531,138.147
1,119441,537,-1.281,0.173,9.941,0.027,-0.112,-0.026,12.350,-35.487,134.946
1,119445,536,-1.281,0.173,9.941,0.027,-0.112,-0.026,12.350,-35.487,134.946
1,119467,533,-1.293,-0.018,9.939,-0.001,-0.116,-0.029,12.555,-35.443,134.347
1,119471,532,-1.293,-0.018,9.939,-0.001,-0.116,-0.029,12.555,-35.443,134.347
1,119474,536,-1.293,-0.018,9.939,-0.001,-0.116,-0.029,12.555,-35.443,134.347
1,119527,529,-1.261,0.063,9.875,0.034,-0.114,-0.022,12.613,-35.297,135.121
1,119531,526,-1.261,0.063,9.875,0.034,-0.114,-0.022,12.613,-35.297,135.121
1,119535,532,-1.279,0.005,9.812,0.034,-0.114,-0.022,12.613,-35.297,135.121
1,119557,531,-1.298,0.057,9.978,0.084,-0.112,-0.018,12.789,-35.092,134.376
1,119561,532,-1.298,0.057,9.978,0.084,-0.112,-0.018,12.789,-35.092,134.376
1,119565,531,-1.318,0.109,10.027,0.100,-0.115,-0.017,12.876,-34.785,134.537
1,119587,528,-1.272,0.140,9.893,0.077,-0.114,-0.013,12.701,-34.975,134.727
1,119590,530,-1.272,0.140,9.893,0.077,-0.114,-0.013,12.993,-34.975,135.004
1,119618,526,-1.290,0.229,9.936,0.081,-0.114,-0.017,12.496,-34.844,135.165
1,119621,527,-1.290,0.229,9.936,0.081,-0.114,-0.017,12.496,-34.844,135.165
1,119625,526,-1.278,0.167,9.911,0.057,-0.110,-0.018,12.496,-34.844,135.165
1,119647,522,-1.290,0.071,9.915,0.013,-0.115,-0.028,12.745,-35.063,135.326
1,119651,525,-1.290,0.071,9.915,0.013,-0.115,-0.028,12.745,-34.507,135.531
1,119655,524,-1.277,0.089,9.898,0.010,-0.116,-0.028,12.555,-34.507,135.531
1,119677,525,-1.257,0.063,9.870,0.035,-0.114,-0.022,12.964,-34.800,135.267
1,119681,526,-1.242,0.033,9.857,0.055,-0.115,-0.017,12.964,-34.800,135.267
1,119684,526,-1.242,0.033,9.857,0.055,-0.115,-0.017,12.964,-34.800,135.267
1,119708,528,-1.295,0.059,9.982,0.086,-0.114,-0.015,12.935,-35.209,134.332
1,119711,527,-1.296,0.144,9.943,0.088,-0.114,-0.017,12.935,-35.209,134.332
1,119714,526,-1.296,0.144,9.943,0.088,-0.114,-0.017,12.643,-35.428,134.727
1,119737,520,-1.256,0.157,9.826,0.075,-0.117,-0.017,12.452,-35.238,134.697
1,119741,522,-1.272,0.099,9.893,0.081,-0.115,-0.018,12.394,-34.931,134.887
1,119767,523,-1.305,0.162,10.004,0.073,-0.114,-0.018,13.037,-35.224,134.171
1,119771,525,-1.287,0.145,9.916,0.065,-0.115,-0.017,13.037,-35.224,134.171
1,119775,522,-1.287,0.145,9.916,0.065,-0.115,-0.017,13.037,-35.224,134.171
1,119797,521,-1.284,0.062,9.917,0.060,-0.111,-0.013,12.906,-35.560,134.244
1,119801,522,-1.284,0.062,9.917,0.079,-0.112,-0.013,12.906,-35.560,134.829
1,119804,523,-1.284,0.062,9.917,0.079,-0.112,-0.013,12.555,-35.209,134.829
1,119828,522,-1.266,0.215,9.890,0.071,-0.114,-0.020,13.008,-35.151,134.741
1,119831,519,-1.266,0.215,9.890,0.071,-0.114,-0.020,13.008,-35.151,134.741
1,119834,524,-1.266,0.215,9.890,0.071,-0.114,-0.020,13.008,-35.151,134.741
1,119857,523,-1.275,0.097,9.966,0.029,-0.111,-0.027,12.847,-34.931,134.434
1,119861,521,-1.275,0.097,9.966,0.029,-0.111,-0.027,12.847,-34.931,134.434
1,119865,524,-1.275,0.097,9.966,0.029,-0.111,-0.027,12.745,-35.224,135.311
1,119887,522,-1.253,0.039,9.846,0.039,-0.112,-0.018,12.526,-34.946,135.224
1,119891,524,-1.253,0.039,9.846,0.039,-0.112,-0.018,13.052,-34.654,135.297
1,119894,521,-1.213,0.039,9.815,0.039,-0.112,-0.017,13.052,-34.654,135.297
1,119917,521,-1.292,0.179,9.990,0.083,-0.114,-0.022,12.452,-35.180,134.610
1,119920,520,-1.292,0.179,9.990,0.083,-0.114,-0.022,12.452,-35.180,134.610
1,119924,522,-1.298,0.172,9.969,0.059,-0.112,-0.022,12.452,-35.180,134.610
1,119977,524,-1.291,0.142,9.946,0.061,-0.112,-0.021,12.964,-34.654,135.121
1,119981,521,-1.291,0.142,9.946,0.061,-0.112,-0.021,12.964,-34.654,135.121
1,119985,525,-1.295,0.103,9.833,0.044,-0.115,-0.022,12.964,-34.654,135.121
1,120007,525,-1.266,0.145,9.905,0.044,-0.111,-0.024,13.169,-34.727,134.873
1,120011,526,-1.266,0.165,9.972,0.044,-0.111,-0.024,13.169,-34.727,134.873
1,120014,526,-1.297,0.165,9.972,0.044,-0.111,-0.024,12.774,-34.902,134.215
1,120038,526,-1.283,0.035,9.904,0.038,-0.114,-0.021,13.183,-34.975,134.405
1,120041,525,-1.308,0.072,9.866,0.055,-0.114,-0.020,12.906,-34.624,134.537
1,120044,526,-1.308,0.072,9.866,0.055,-0.114,-0.020,12.906,-34.624,134.537
1,120067,522,-1.284,0.127,9.937,0.072,-0.112,-0.021,12.452,-35.004,134.581
1,120071,528,-1.298,0.102,9.958,0.062,-0.112,-0.020,12.452,-35.004,134.581
1,120075,525,-1.298,0.102,9.958,0.062,-0.112,-0.020,12.452,-35.004,134.581
1,120097,524,-1.272,0.086,9.868,0.064,-0.115,-0.021,12.643,-34.756,133.923
1,120101,524,-1.300,0.105,9.902,0.073,-0.114,-0.018,12.643,-34.756,133.923
1,120105,521,-1.300,0.105,9.902,0.073,-0.114,-0.018,12.862,-34.829,134.683
1,120127,523,-1.292,0.142,9.940,0.077,-0.115,-0.017,12.949,-34.449,134.756
1,120131,518,-1.280,0.141,9.917,0.066,-0.116,-0.017,12.949,-34.449,134.756
1,120134,518,-1.280,0.141,9.917,0.066,-0.116,-0.017,12.949,-34.449,134.756
1,120158,518,-1.303,0.220,9.943,0.054,-0.115,-0.020,13.198,-35.209,134.361
1,120161,520,-1.303,0.220,9.943,0.060,-0.115,-0.020,13.198,-35.209,134.361
1,120165,518,-1.303,0.220,9.943,0.060,-0.115,-0.020,13.198,-34.800,134.391
1,120187,518,-1.278,-0.008,9.897,0.020,-0.114,-0.023,12.833,-35.194,134.756
1,120218,518,-1.280,0.136,9.955,0.051,-0.111,-0.023,12.526,-34.975,134.741
1,120222,522,-1.280,0.136,9.955,0.051,-0.111,-0.023,12.526,-34.975,134.741
1,120225,513,-1.281,0.031,9.907,0.051,-0.111,-0.024,12.526,-34.975,134.741
1,120248,517,-1.272,0.083,9.888,0.064,-0.114,-0.021,12.643,-34.522,134.712
1,120250,516,-1.272,0.083,9.888,0.064,-0.114,-0.021,12.643,-34.522,134.712
1,120254,515,-1.260,0.159,9.946,0.064,-0.114,-0.021,13.198,-34.522,134.844
1,120277,520,-1.279,0.062,9.917,0.061,-0.111,-0.018,12.409,-35.151,135.545
1,120281,518,-1.279,0.062,9.917,0.061,-0.111,-0.018,12.204,-35.151,135.545
1,120285,522,-1.277,0.043,9.851,0.062,-0.114,-0.018,12.204,-35.151,135.545
1,120307,519,-1.275,0.164,9.963,0.083,-0.111,-0.021,12.306,-35.034,134.610
1,120311,516,-1.275,0.164,9.963,0.083,-0.111,-0.021,12.306,-35.034,134.610
1,120315,515,-1.280,0.167,9.945,0.078,-0.112,-0.017,12.306,-35.034,134.610
1,120337,520,-1.269,0.061,9.867,0.075,-0.112,-0.016,12.789,-35.267,134.449
1,120341,515,-1.269,0.061,9.867,0.075,-0.112,-0.016,13.359,-34.741,134.376
1,120344,518,-1.257,0.121,9.910,0.090,-0.109,-0.015,13.359,-34.741,134.376
1,120368,521,-1.293,0.224,9.949,0.089,-0.115,-0.018,12.643,-34.990,134.405
1,120371,517,-1.321,0.148,9.893,0.089,-0.115,-0.018,12.643,-34.990,134.405
1,120375,519,-1.321,0.148,9.893,0.059,-0.114,-0.018,12.643,-34.990,134.405
1,120397,520,-1.261,0.116,9.892,0.039,-0.111,-0.023,12.818,-34.668,134.405
1,120401,521,-1.259,0.153,9.925,0.046,-0.112,-0.023,12.818,-34.668,134.405
1,120405,522,-1.259,0.153,9.925,0.046,-0.112,-0.023,13.242,-34.844,134.537
1,120427,524,-1.290,0.144,9.923,0.034,-0.111,-0.021,12.833,-34.814,134.025
1,120431,525,-1.262,0.078,9.829,0.024,-0.115,-0.022,12.862,-34.990,134.785
1,120434,520,-1.262,0.078,9.829,0.024,-0.115,-0.022,12.862,-34.990,134.785
1,120458,521,-1.266,0.112,9.918,0.045,-0.115,-0.023,12.935,-34.478,133.967
1,120461,523,-1.293,0.135,9.929,0.053,-0.114,-0.024,12.935,-34.478,133.967
1,120464,521,-1.293,0.135,9.929,0.053,-0.114,-0.024,12.935,-34.478,133.967
1,120487,524,-1.284,0.047,9.909,0.046,-0.115,-0.021,12.774,-35.034,133.908
1,120491,523,-1.287,0.066,9.872,0.054,-0.114,-0.020,12.935,-34.873,134.376
1,120495,524,-1.287,0.066,9.872,0.054,-0.114,-0.020,12.935,-34.873,134.376
1,120517,522,-1.277,0.127,9.931,0.067,-0.112,-0.020,12.555,-35.063,134.537
1,120521,523,-1.277,0.127,9.931,0.057,-0.112,-0.020,12.555,-35.063,134.537
1,120525,524,-1.277,0.127,9.931,0.057,-0.112,-0.020,12.555,-35.063,134.537
1,120547,523,-1.275,0.121,9.918,0.068,-0.112,-0.021,12.716,-34.858,134.142
1,120551,520,-1.275,0.121,9.918,0.068,-0.112,-0.021,12.716,-34.858,134.142
1,120554,523,-1.275,0.121,9.918,0.068,-0.112,-0.021,12.628,-34.887,134.493
1,120578,525,-1.283,0.081,9.916,0.055,-0.112,-0.017,12.452,-34.975,134.040
1,120581,524,-1.283,0.081,9.916,0.055,-0.112,-0.017,12.993,-35.165,134.464
1,120584,526,-1.283,0.081,9.916,0.055,-0.112,-0.017,12.993,-35.165,134.464
1,120607,524,-1.267,0.185,9.928,0.067,-0.112,-0.020,12.584,-35.370,133.587
1,120611,527,-1.267,0.185,9.928,0.067,-0.112,-0.020,12.584,-35.370,133.587
1,120615,528,-1.309,0.145,9.892,0.067,-0.117,-0.022,12.584,-35.370,133.587
1,120637,529,-1.279,0.059,9.906,0.045,-0.112,-0.022,13.037,-34.990,133.821
1,120641,524,-1.279,0.059,9.906,0.045,-0.112,-0.022,13.373,-34.668,134.537
1,120644,525,-1.273,0.099,9.891,0.053,-0.114,-0.021,13.373,-34.668,134.537
1,120667,528,-1.283,0.142,9.924,0.064,-0.111,-0.020,12.935,-35.238,134.478
1,120670,526,-1.283,0.142,9.924,0.064,-0.111,-0.020,12.935,-35.238,134.478
1,120674,527,-1.250,0.109,9.925,0.059,-0.110,-0.021,12.935,-35.238,134.478
1,120697,526,-1.274,0.108,9.921,0.056,-0.115,-0.022,12.818,-34.697,134.405
1,120701,527,-1.274,0.108,9.921,0.056,-0.115,-0.022,12.818,-34.697,134.405
1,120705,526,-1.255,0.141,9.931,0.057,-0.109,-0.021,12.833,-34.668,134.274
1,120727,526,-1.279,0.112,9.907,0.051,-0.110,-0.018,12.292,-35.121,134.434
1,120731,529,-1.286,0.085,9.909,0.051,-0.110,-0.018,13.096,-34.961,135.034
1,120735,525,-1.286,0.085,9.909,0.053,-0.115,-0.022,13.096,-34.961,135.034
1,120757,527,-1.277,0.146,9.925,0.057,-0.116,-0.023,12.745,-35.121,133.601
1,120761,527,-1.299,0.151,9.907,0.051,-0.115,-0.022,12.745,-35.121,133.601
1,120765,526,-1.299,0.151,9.907,0.051,-0.115,-0.022,12.745,-35.121,133.601
1,120788,524,-1.287,0.065,9.903,0.043,-0.109,-0.018,12.818,-35.136,134.332
1,120791,525,-1.316,0.059,9.851,0.050,-0.112,-0.021,12.818,-35.136,134.127
1,120794,525,-1.316,0.059,9.851,0.050,-0.112,-0.021,12.891,-34.595,134.127
1,120817,528,-1.277,0.134,9.924,0.061,-0.111,-0.018,12.569,-34.800,134.829
1,120821,530,-1.284,0.099,9.856,0.055,-0.112,-0.020,12.569,-34.800,134.829
1,120825,527,-1.284,0.099,9.856,0.055,-0.112,-0.020,12.569,-34.800,134.829
1,120847,526,-1.285,0.074,9.955,0.056,-0.115,-0.021,12.643,-34.595,134.741
1,120851,528,-1.275,0.114,9.955,0.062,-0.114,-0.020,12.643,-34.595,134.741
1,120854,525,-1.275,0.114,9.955,0.062,-0.114,-0.020,13.227,-34.961,134.493
1,120877,526,-1.267,0.116,9.903,0.050,-0.112,-0.020,13.154,-35.224,134.142
1,120881,525,-1.267,0.116,9.903,0.050,-0.112,-0.020,12.906,-35.092,134.873
1,120884,528,-1.267,0.116,9.903,0.050,-0.112,-0.020,12.906,-35.092,134.873
1,120907,523,-1.281,0.116,9.941,0.048,-0.112,-0.022,12.803,-35.531,134.581
1,120911,523,-1.281,0.116,9.941,0.048,-0.112,-0.022,12.803,-35.531,134.581
1,120915,525,-1.281,0.116,9.941,0.048,-0.112,-0.022,12.803,-35.531,134.581
1,120937,524,-1.273,0.072,9.907,0.056,-0.114,-0.018,12.511,-35.224,134.186
1,120941,525,-1.273,0.072,9.907,0.056,-0.114,-0.018,12.511,-35.224,134.186
1,120945,524,-1.273,0.072,9.907,0.056,-0.114,-0.018,13.476,-35.151,134.814
1,120967,528,-1.275,0.105,9.933,0.071,-0.112,-0.017,12.876,-35.297,135.238
1,120971,528,-1.275,0.105,9.933,0.071,-0.112,-0.017,12.876,-35.297,135.238
1,120974,528,-1.279,0.096,9.849,0.064,-0.116,-0.022,12.876,-35.297,135.238
1,120998,526,-1.289,0.085,9.913,0.067,-0.114,-0.018,13.286,-35.194,134.654
1,121000,528,-1.289,0.085,9.913,0.067,-0.114,-0.018,13.286,-35.194,134.654
1,121004,528,-1.296,0.103,9.887,0.073,-0.112,-0.017,13.139,-34.814,134.537
1,121027,529,-1.269,0.117,9.923,0.075,-0.114,-0.016,12.993,-35.589,134.347
1,121031,528,-1.269,0.117,9.923,0.075,-0.114,-0.016,13.183,-34.946,134.493
1,121035,524,-1.275,0.141,9.948,0.073,-0.114,-0.016,13.183,-34.946,134.493
1,121057,527,-1.289,0.138,9.936,0.064,-0.114,-0.020,12.803,-35.151,133.835
1,121061,527,-1.289,0.138,9.936,0.064,-0.114,-0.020,12.803,-35.151,133.835
1,121065,529,-1.292,0.135,9.951,0.056,-0.114,-0.021,12.803,-35.151,133.835
1,121087,528,-1.277,0.103,9.906,0.057,-0.115,-0.020,13.081,-35.063,133.718
1,121091,529,-1.320,0.141,9.907,0.057,-0.115,-0.020,13.081,-35.063,133.718
1,121094,526,-1.320,0.141,9.907,0.062,-0.112,-0.020,13.139,-34.639,134.113
1,121118,526,-1.271,0.127,9.916,0.053,-0.111,-0.020,12.818,-35.399,133.674
1,121121,528,-1.320,0.091,9.868,0.049,-0.112,-0.021,12.818,-35.399,133.674
1,121177,528,-1.272,0.127,9.906,0.050,-0.111,-0.021,13.359,-35.311,134.434
1,121181,528,-1.245,0.105,9.936,0.049,-0.112,-0.022,13.008,-35.034,134.230
1,121185,530,-1.245,0.105,9.936,0.049,-0.112,-0.022,13.008,-35.034,134.230
1,121208,529,-1.286,0.110,9.925,0.050,-0.112,-0.022,12.876,-35.180,134.756
1,121211,531,-1.265,0.110,9.925,0.048,-0.115,-0.022,12.876,-35.180,134.756
1,121214,528,-1.265,0.110,9.925,0.048,-0.115,-0.022,12.876,-35.180,134.756
1,121237,530,-1.272,0.122,9.919,0.056,-0.115,-0.020,12.759,-35.209,134.274
1,121241,532,-1.272,0.122,9.919,0.056,-0.115,-0.020,12.759,-35.209,134.274
1,121245,530,-1.272,0.122,9.919,0.056,-0.115,-0.020,12.876,-35.092,134.449
1,121267,529,-1.280,0.084,9.909,0.051,-0.114,-0.018,12.686,-35.297,134.873
1,121271,532,-1.280,0.084,9.909,0.051,-0.114,-0.018,12.496,-35.107,134.873
1,121275,530,-1.280,0.084,9.909,0.051,-0.114,-0.018,12.496,-35.107,134.873
1,121297,527,-1.279,0.110,9.924,0.075,-0.115,-0.017,12.993,-35.267,134.434
1,121301,528,-1.279,0.110,9.924,0.075,-0.115,-0.017,12.993,-35.267,134.434
1,121304,527,-1.310,0.114,9.922,0.075,-0.115,-0.017,12.993,-35.267,134.434
1,121328,530,-1.268,0.120,9.893,0.062,-0.114,-0.015,12.759,-34.946,134.902
1,121331,526,-1.268,0.120,9.893,0.062,-0.114,-0.015,13.052,-34.624,134.449
1,121334,527,-1.318,0.124,9.864,0.055,-0.114,-0.018,13.052,-34.624,134.449
1,121357,527,-1.279,0.117,9.934,0.055,-0.112,-0.020,12.774,-35.370,134.157
1,121361,529,-1.279,0.117,9.934,0.055,-0.112,-0.020,12.774,-35.370,134.157
1,121365,528,-1.243,0.112,9.958,0.054,-0.116,-0.021,12.774,-35.370,134.157
1,121387,530,-1.275,0.123,9.896,0.055,-0.111,-0.020,12.599,-35.370,134.741
1,121391,526,-1.275,0.123,9.896,0.055,-0.111,-0.020,12.599,-35.370,134.741
1,121394,528,-1.256,0.153,9.910,0.053,-0.109,-0.020,13.096,-35.121,134.712
1,121416,529,-1.287,0.117,9.939,0.039,-0.110,-0.023,12.204,-35.326,134.917
1,121421,529,-1.287,0.117,9.887,0.039,-0.110,-0.023,12.540,-35.370,135.414
1,121424,526,-1.289,0.077,9.887,0.034,-0.112,-0.028,12.540,-35.370,135.414
1,121447,527,-1.275,0.102,9.909,0.040,-0.111,-0.024,12.599,-35.297,134.449
1,121451,527,-1.279,0.128,9.912,0.040,-0.111,-0.023,12.599,-35.297,134.449
1,121455,527,-1.279,0.128,9.912,0.046,-0.109,-0.023,12.599,-35.297,134.449
1,121477,526,-1.287,0.106,9.933,0.048,-0.114,-0.027,12.643,-35.326,134.581
1,121481,524,-1.275,0.104,9.919,0.045,-0.110,-0.026,13.110,-34.946,134.975
1,121485,527,-1.275,0.104,9.919,0.045,-0.110,-0.026,13.110,-34.946,134.975
1,121507,527,-1.260,0.124,9.910,0.037,-0.110,-0.024,12.686,-35.341,134.697
1,121511,523,-1.257,0.111,9.880,0.029,-0.110,-0.024,12.686,-35.341,134.697
1,121514,521,-1.257,0.111,9.880,0.029,-0.110,-0.024,12.686,-35.341,134.697
1,121538,525,-1.281,0.122,9.931,0.020,-0.111,-0.026,12.511,-35.457,134.551
1,121541,525,-1.275,0.110,9.918,0.028,-0.112,-0.029,12.511,-35.457,134.551
1,121544,526,-1.275,0.110,9.918,0.028,-0.112,-0.029,12.803,-35.311,134.639
1,121567,525,-1.266,0.130,9.867,-0.001,-0.112,-0.032,12.189,-35.384,134.697
1,121571,527,-1.266,0.130,9.867,-0.016,-0.111,-0.033,12.394,-35.297,135.297
1,121575,525,-1.266,0.130,9.867,-0.016,-0.111,-0.033,12.394,-35.297,135.297
1,121627,530,-1.278,0.117,9.884,-0.140,-0.116,-0.054,12.657,-35.311,133.879
1,121631,527,-1.278,0.117,9.884,-0.140,-0.116,-0.054,12.657,-34.727,134.931
1,121634,524,-1.278,0.117,9.884,-0.140,-0.116,-0.054,13.183,-34.727,134.931
1,121657,526,-1.279,-0.160,9.893,-0.199,-0.116,-0.062,12.599,-34.522,134.595
1,121661,528,-1.279,-0.160,9.893,-0.199,-0.116,-0.062,12.599,-34.522,134.595
1,121665,528,-1.314,-0.248,9.941,-0.199,-0.116,-0.062,12.599,-34.522,134.595
1,121687,525,-1.280,-0.386,9.935,-0.136,-0.116,-0.046,12.672,-34.727,134.434
1,121691,523,-1.280,-0.386,9.935,-0.136,-0.116,-0.046,12.672,-34.727,134.434
1,121695,523,-1.255,-0.501,9.907,-0.075,-0.123,-0.042,12.949,-35.048,134.391
1,121717,525,-1.275,-0.479,9.928,0.070,-0.114,-0.015,12.906,-35.063,133.484
1,121721,526,-1.275,-0.479,9.928,0.070,-0.114,-0.015,12.643,-34.595,134.332
1,121724,525,-1.299,-0.281,9.912,0.166,-0.117,-0.005,12.643,-34.595,134.332
1,121748,518,-1.262,-0.132,10.002,0.270,-0.114,0.007,11.926,-34.493,133.674
1,121750,511,-1.262,-0.132,10.002,0.270,-0.114,0.007,11.926,-34.493,133.674
1,121754,513,-1.259,-0.157,9.963,0.279,-0.116,0.011,11.926,-34.493,133.674
1,121777,513,-1.251,-0.223,9.961,0.199,-0.116,0.010,12.643,-34.507,133.937
1,121781,512,-1.251,-0.223,9.742,0.199,-0.116,0.010,12.643,-34.507,133.937
1,121785,512,-1.186,-0.048,9.742,0.206,-0.111,0.010,12.569,-34.507,134.478
1,121807,515,-1.283,-0.073,9.949,0.293,-0.110,0.017,12.526,-34.697,134.712
1,121811,514,-1.248,-0.090,9.937,0.293,-0.110,0.026,12.526,-34.697,134.712
1,121814,517,-1.248,-0.090,9.937,0.307,-0.110,0.026,12.526,-34.697,134.712
1,121837,517,-1.273,0.214,9.874,0.329,-0.108,0.028,13.125,-35.107,134.683
1,121841,518,-1.290,0.274,9.874,0.327,-0.108,0.017,13.125,-35.107,134.683
1,121844,514,-1.290,0.274,9.874,0.327,-0.108,0.017,12.716,-34.610,135.136
1,121868,517,-1.315,0.274,9.949,0.248,-0.114,0.004,12.979,-34.785,134.946
1,121872,519,-1.303,0.258,9.923,0.186,-0.110,0.001,12.935,-34.566,134.990
1,121875,514,-1.303,0.258,9.923,0.186,-0.110,0.001,12.935,-34.566,134.990
1,121897,519,-1.249,0.392,9.846,0.136,-0.109,-0.012,12.409,-34.756,135.253
1,121901,522,-1.249,0.370,9.875,0.103,-0.109,-0.017,12.409,-34.756,135.253
1,121905,523,-1.249,0.370,9.875,0.103,-0.109,-0.017,12.409,-34.756,135.253
1,121927,521,-1.261,0.211,9.881,0.020,-0.111,-0.028,12.993,-35.019,134.902
1,121931,524,-1.261,0.211,9.881,-0.015,-0.110,-0.033,12.993,-35.019,134.902
1,121934,524,-1.261,0.211,9.881,-0.015,-0.110,-0.033,13.110,-34.946,134.887
1,121958,518,-1.285,0.060,10.000,-0.050,-0.111,-0.034,12.540,-34.756,135.180
1,121960,518,-1.285,0.060,10.000,-0.050,-0.111,-0.034,12.540,-34.756,135.180
1,121964,517,-1.285,0.060,10.000,-0.050,-0.111,-0.034,12.540,-34.756,135.180
1,121987,517,-1.272,0.060,9.852,0.034,-0.115,-0.024,12.964,-35.151,134.887
1,121991,515,-1.272,0.060,9.852,0.034,-0.115,-0.024,12.964,-35.151,134.887
1,121995,519,-1.272,0.060,9.852,0.034,-0.115,-0.024,12.964,-34.917,134.566
1,122017,519,-1.299,0.060,9.977,0.055,-0.115,-0.021,12.759,-35.019,134.449
1,122021,520,-1.299,0.060,9.977,0.055,-0.115,-0.021,12.774,-35.034,135.414
1,122047,520,-1.269,0.063,9.870,0.095,-0.116,-0.012,12.964,-34.990,135.267
1,122051,520,-1.269,0.063,9.870,0.095,-0.116,-0.012,12.964,-34.990,135.267
1,122054,522,-1.236,0.118,9.903,0.119,-0.114,-0.009,12.964,-34.990,135.267
1,122078,520,-1.285,0.183,9.967,0.137,-0.117,-0.009,12.789,-34.946,134.478
1,122081,523,-1.285,0.183,9.967,0.137,-0.117,-0.009,12.789,-34.946,134.478
1,122084,518,-1.283,0.207,9.959,0.132,-0.119,-0.012,13.081,-34.756,134.595
1,122107,518,-1.263,0.234,9.882,0.087,-0.116,-0.016,12.964,-34.873,135.297
1,122111,517,-1.263,0.234,9.882,0.087,-0.116,-0.016,13.271,-34.873,135.297
1,122115,517,-1.277,0.200,9.886,0.062,-0.112,-0.016,13.271,-34.873,135.297
1,122137,520,-1.284,0.150,9.929,0.053,-0.117,-0.020,13.242,-35.326,134.317
1,122141,518,-1.284,0.150,9.917,0.053,-0.117,-0.020,13.242,-35.326,134.317
1,122144,524,-1.281,0.150,9.917,0.053,-0.114,-0.020,13.242,-35.326,134.317
1,122167,524,-1.278,0.151,9.891,0.045,-0.112,-0.021,13.271,-34.712,134.800
1,122171,524,-1.281,0.146,9.892,0.048,-0.112,-0.021,12.847,-34.098,134.610
1,122174,522,-1.281,0.146,9.892,0.048,-0.112,-0.021,12.847,-34.098,134.610
1,122197,522,-1.296,0.100,9.921,0.056,-0.112,-0.020,13.198,-35.019,134.902
1,122201,522,-1.255,0.108,9.934,0.071,-0.114,-0.017,13.198,-35.019,134.902
1,122205,523,-1.255,0.108,9.934,0.071,-0.114,-0.017,13.198,-35.019,134.902
1,122227,525,-1.289,0.156,9.899,0.082,-0.112,-0.018,12.745,-34.917,134.537
1,122231,522,-1.259,0.157,9.894,0.075,-0.110,-0.018,12.745,-34.917,134.537
1,122235,524,-1.259,0.157,9.894,0.075,-0.110,-0.018,12.935,-34.522,134.741
1,122257,519,-1.275,0.189,9.929,0.057,-0.104,-0.016,12.745,-35.121,135.107
1,122261,521,-1.266,0.167,9.937,0.053,-0.112,-0.021,12.847,-34.961,134.668
1,122288,522,-1.267,0.156,9.925,0.050,-0.116,-0.020,13.110,-34.887,134.858
1,122291,519,-1.267,0.156,9.925,0.056,-0.114,-0.020,13.110,-34.887,134.858
1,122294,522,-1.267,0.156,9.925,0.056,-0.114,-0.020,13.110,-34.887,134.858
1,122317,522,-1.278,0.165,9.911,0.038,-0.111,-0.023,13.227,-34.639,135.121
1,122321,524,-1.278,0.165,9.911,0.038,-0.111,-0.023,12.847,-34.522,134.814
1,122325,523,-1.278,0.165,9.911,0.038,-0.111,-0.023,12.847,-34.522,134.814
1,122347,522,-1.295,0.130,9.928,0.044,-0.115,-0.023,12.394,-35.224,135.194
1,122351,522,-1.295,0.130,9.928,0.044,-0.115,-0.023,12.394,-35.224,135.194
1,122354,526,-1.295,0.130,9.928,0.044,-0.115,-0.023,12.394,-35.224,135.194
1,122377,524,-1.293,0.121,9.903,0.053,-0.112,-0.018,12.511,-34.975,134.464
1,122380,527,-1.293,0.121,9.903,0.053,-0.112,-0.018,12.511,-34.975,134.464
1,122384,522,-1.298,0.146,9.904,0.053,-0.112,-0.018,12.569,-35.063,134.975
1,122407,524,-1.281,0.138,9.949,0.059,-0.115,-0.020,12.482,-34.990,135.297
1,122411,522,-1.281,0.138,9.949,0.059,-0.115,-0.020,12.628,-35.063,134.946
1,122415,523,-1.244,0.154,9.959,0.064,-0.111,-0.017,12.628,-35.063,134.946
1,122437,522,-1.272,0.162,9.888,0.073,-0.114,-0.016,12.292,-35.107,135.063
1,122441,519,-1.272,0.162,9.888,0.073,-0.114,-0.016,12.292,-35.107,135.063
1,122445,524,-1.297,0.194,9.919,0.076,-0.114,-0.017,12.292,-35.107,135.063
1,122467,521,-1.256,0.162,9.923,0.050,-0.112,-0.021,12.906,-34.990,134.332
1,122498,524,-1.279,0.167,9.916,0.054,-0.111,-0.021,12.759,-35.151,134.814
1,122500,523,-1.279,0.193,9.912,0.054,-0.111,-0.021,12.759,-35.151,134.814
1,122504,522,-1.263,0.193,9.912,0.062,-0.110,-0.020,12.759,-35.151,134.814
1,122527,522,-1.281,0.074,9.868,0.045,-0.109,-0.020,12.774,-35.224,134.917
1,122531,524,-1.293,0.032,9.918,0.046,-0.110,-0.022,12.774,-35.224,134.917
1,122535,523,-1.293,0.032,9.918,0.046,-0.110,-0.022,13.037,-34.917,135.443
1,122557,523,-1.295,0.202,9.949,0.086,-0.114,-0.017,13.359,-35.194,135.165
1,122561,525,-1.238,0.209,9.855,0.086,-0.115,-0.015,12.906,-34.814,135.750
1,122564,524,-1.238,0.209,9.855,0.086,-0.115,-0.015,12.906,-34.814,135.750
1,122587,526,-1.271,0.061,9.882,0.067,-0.114,-0.018,12.774,-35.311,135.048
1,122591,522,-1.283,0.139,10.010,0.076,-0.111,-0.018,12.774,-35.311,135.048
1,122594,523,-1.283,0.139,10.010,0.076,-0.111,-0.018,12.774,-35.311,135.048
1,122618,521,-1.265,0.262,9.934,0.071,-0.111,-0.017,12.803,-35.004,135.092
1,122621,524,-1.243,0.156,9.861,0.049,-0.112,-0.018,12.803,-35.004,135.253
1,122625,521,-1.243,0.156,9.861,0.049,-0.112,-0.018,13.388,-34.639,135.253
1,122647,523,-1.296,0.286,10.008,0.055,-0.112,-0.028,13.037,-35.355,134.712
1,122651,523,-1.296,0.286,10.008,0.044,-0.112,-0.028,13.037,-35.355,134.712
1,122655,521,-1.296,0.286,10.008,0.044,-0.112,-0.028,13.037,-35.355,134.712
1,122677,522,-1.256,0.036,9.850,-0.017,-0.110,-0.027,12.672,-35.253,135.355
1,122681,524,-1.256,0.036,9.850,-0.017,-0.110,-0.027,12.672,-35.253,135.355
1,122684,524,-1.256,0.036,9.850,-0.017,-0.110,-0.027,12.672,-34.654,135.209
1,122708,523,-1.291,0.123,9.982,0.034,-0.115,-0.026,13.052,-35.092,135.282
1,122710,521,-1.291,0.123,9.982,0.034,-0.115,-0.026,12.993,-34.741,135.077
1,122714,521,-1.291,0.123,9.982,0.034,-0.115,-0.026,12.993,-34.741,135.077
1,122737,517,-1.251,0.156,9.850,0.050,-0.112,-0.022,12.891,-34.887,135.092
1,122741,522,-1.251,0.156,9.850,0.050,-0.112,-0.022,12.891,-34.887,135.092
1,122745,522,-1.247,0.242,9.911,0.050,-0.112,-0.022,12.891,-34.887,135.092
1,122767,522,-1.304,0.193,9.946,-0.004,-0.114,-0.032,13.081,-35.487,134.683
1,122771,521,-1.304,0.193,9.946,-0.004,-0.114,-0.032,13.081,-35.487,134.683
1,122775,518,-1.297,0.115,9.921,-0.044,-0.114,-0.037,13.373,-34.581,135.311
1,122797,517,-1.274,-0.011,9.948,-0.054,-0.112,-0.034,12.803,-35.121,135.837
1,122801,521,-1.274,-0.011,9.948,-0.054,-0.112,-0.034,12.803,-35.121,135.837
1,122804,515,-1.281,-0.071,9.953,-0.027,-0.112,-0.028,12.803,-35.121,135.837
1,122828,521,-1.273,-0.095,9.882,0.075,-0.114,-0.016,13.213,-35.151,134.464
1,122831,524,-1.273,-0.095,9.882,0.075,-0.114,-0.016,13.213,-35.151,134.464
1,122834,522,-1.311,0.023,9.906,0.108,-0.111,-0.011,12.964,-35.004,135.282
1,122857,522,-1.285,0.114,9.935,0.132,-0.111,-0.010,12.745,-35.501,134.741
1,122861,520,-1.327,0.109,9.951,0.132,-0.111,-0.010,12.847,-34.317,135.209
1,122865,522,-1.327,0.109,9.951,0.119,-0.111,-0.012,12.847,-34.317,135.209
1,122888,521,-1.284,0.135,9.893,0.110,-0.110,-0.012,13.213,-35.121,134.858
1,122892,523,-1.273,0.147,9.843,0.095,-0.110,-0.015,13.213,-35.121,134.858
1,122895,522,-1.273,0.147,9.843,0.095,-0.110,-0.015,13.213,-35.121,134.858
1,122947,523,-1.278,0.127,9.863,0.044,-0.114,-0.020,13.373,-35.034,135.706
1,122977,525,-1.283,0.193,9.892,0.037,-0.110,-0.024,13.373,-35.823,134.595
1,122981,525,-1.278,0.133,9.892,0.006,-0.111,-0.027,13.373,-35.823,134.595
1,122984,526,-1.278,0.133,9.892,0.006,-0.111,-0.027,13.373,-35.823,135.282
1,123007,524,-1.289,0.028,9.946,0.000,-0.111,-0.029,12.935,-35.253,135.077
1,123011,525,-1.289,0.028,9.946,0.004,-0.111,-0.029,12.964,-34.741,135.165
1,123014,527,-1.289,0.028,9.946,0.004,-0.111,-0.029,12.964,-34.741,135.165
1,123038,526,-1.268,-0.038,9.852,0.076,-0.111,-0.016,13.461,-34.961,134.858
1,123041,530,-1.268,-0.038,9.852,0.076,-0.111,-0.016,13.461,-34.961,134.858
1,123067,526,-1.302,0.182,9.982,0.116,-0.114,-0.011,12.833,-35.209,135.151
1,123071,527,-1.302,0.182,9.982,0.116,-0.114,-0.011,12.833,-35.209,135.151
1,123075,525,-1.302,0.182,9.982,0.116,-0.114,-0.011,13.344,-34.537,135.589
1,123097,527,-1.265,0.115,9.854,0.066,-0.112,-0.017,12.847,-34.741,134.961
1,123127,531,-1.290,0.128,9.936,0.057,-0.112,-0.023,12.949,-34.639,134.829
1,123131,528,-1.290,0.128,9.936,0.057,-0.112,-0.023,12.949,-34.639,134.829
1,123134,532,-1.269,0.111,9.915,0.048,-0.112,-0.021,12.949,-34.639,134.829
1,123157,532,-1.259,0.106,9.928,0.042,-0.112,-0.021,13.315,-34.873,134.800
1,123161,531,-1.259,0.106,9.928,0.042,-0.112,-0.021,13.534,-34.478,135.224
1,123165,529,-1.289,0.097,9.995,0.054,-0.114,-0.023,13.534,-34.478,135.224
1,123187,531,-1.272,0.011,9.882,0.043,-0.114,-0.021,13.066,-34.946,134.566
1,123191,535,-1.272,0.011,9.882,0.043,-0.114,-0.021,13.066,-34.946,134.566
1,123195,531,-1.309,0.039,9.910,0.062,-0.110,-0.017,13.066,-34.946,134.566
1,123217,534,-1.296,0.166,9.955,0.094,-0.111,-0.017,13.359,-35.224,134.011
1,123221,531,-1.283,0.181,9.979,0.094,-0.111,-0.016,13.359,-35.224,134.011
1,123224,533,-1.283,0.181,9.979,0.090,-0.112,-0.016,12.979,-34.873,134.785
1,123248,532,-1.283,0.098,9.862,0.054,-0.111,-0.021,12.964,-35.238,134.507
1,123250,531,-1.318,0.096,9.912,0.040,-0.114,-0.022,13.139,-34.917,135.472
1,123254,537,-1.318,0.096,9.912,0.040,-0.114,-0.022,13.139,-34.917,135.472
1,123277,534,-1.299,0.181,9.955,0.056,-0.111,-0.021,13.081,-34.887,134.566
1,123281,533,-1.277,0.134,9.876,0.045,-0.111,-0.022,13.081,-34.887,134.566
1,123285,532,-1.277,0.134,9.876,0.045,-0.111,-0.022,13.081,-34.887,134.566
1,123307,534,-1.272,0.043,9.898,0.037,-0.111,-0.023,13.183,-35.282,135.063
1,123311,534,-1.311,0.092,9.998,0.050,-0.112,-0.026,13.490,-34.697,135.224
1,123315,535,-1.311,0.092,9.998,0.050,-0.112,-0.026,13.490,-34.697,135.224
1,123337,534,-1.284,0.096,9.826,0.053,-0.121,-0.024,13.417,-34.961,135.121
1,123341,537,-1.256,0.062,9.826,0.060,-0.112,-0.017,13.417,-34.961,135.121
1,123344,535,-1.256,0.062,9.826,0.060,-0.112,-0.017,13.417,-34.961,135.121
1,123367,536,-1.283,0.154,9.998,0.079,-0.114,-0.020,13.110,-35.121,135.297
1,123371,535,-1.283,0.154,9.998,0.079,-0.114,-0.020,13.110,-35.121,135.297
1,123375,537,-1.283,0.154,9.998,0.079,-0.114,-0.020,13.198,-34.873,135.004
1,123397,536,-1.249,0.091,9.838,0.053,-0.112,-0.018,13.359,-34.961,134.873
1,123401,538,-1.249,0.091,9.838,0.053,-0.112,-0.018,13.213,-35.209,135.238
1,123405,538,-1.249,0.091,9.838,0.053,-0.112,-0.018,13.213,-35.209,135.238
1,123427,534,-1.315,0.196,10.019,0.057,-0.112,-0.022,13.066,-35.209,135.077
1,123431,537,-1.315,0.196,10.019,0.057,-0.112,-0.022,13.066,-35.209,135.077
1,123434,537,-1.315,0.159,9.930,0.057,-0.112,-0.022,13.066,-35.209,135.077
1,123458,535,-1.248,0.065,9.848,0.026,-0.115,-0.022,13.169,-35.034,135.414
1,123460,534,-1.248,0.065,9.848,0.026,-0.115,-0.022,13.563,-34.683,135.560
1,123464,535,-1.312,0.087,9.940,0.026,-0.111,-0.023,13.563,-34.683,135.560
1,123487,536,-1.304,0.110,9.986,0.037,-0.114,-0.023,12.833,-34.814,135.019
1,123491,538,-1.304,0.110,9.986,0.037,-0.114,-0.023,12.833,-34.814,135.019
1,123495,537,-1.297,0.072,9.921,0.027,-0.112,-0.021,12.833,-34.814,135.019
1,123518,532,-1.251,0.095,9.892,0.042,-0.114,-0.023,12.949,-35.180,135.355
1,123522,533,-1.251,0.095,9.892,0.042,-0.114,-0.023,12.949,-35.180,135.355
1,123525,531,-1.286,0.112,9.873,0.046,-0.114,-0.023,13.125,-34.478,134.449
1,123547,529,-1.275,0.035,9.928,0.028,-0.112,-0.022,12.891,-35.384,134.873
1,123550,529,-1.275,0.035,9.928,0.028,-0.112,-0.022,12.482,-35.428,135.238
1,123554,527,-1.268,0.024,9.836,0.037,-0.115,-0.021,12.482,-35.428,135.238
1,123578,528,-1.281,0.112,9.921,0.064,-0.115,-0.020,12.643,-35.151,135.063
1,123581,529,-1.269,0.132,10.004,0.064,-0.115,-0.020,12.643,-35.151,135.063
1,123584,526,-1.269,0.132,10.004,0.060,-0.114,-0.020,12.643,-35.151,135.063
1,123607,524,-1.293,0.016,9.890,0.031,-0.115,-0.023,13.154,-35.282,134.975
1,123611,525,-1.305,0.004,9.949,0.034,-0.114,-0.024,13.154,-35.282,135.121
1,123615,525,-1.305,0.004,9.949,0.034,-0.114,-0.024,13.315,-34.844,135.121
1,123637,526,-1.283,0.089,9.925,0.071,-0.114,-0.020,13.037,-34.961,135.457
1,123641,526,-1.291,0.049,9.827,0.070,-0.112,-0.017,13.037,-34.961,135.457
1,123667,528,-1.283,0.055,9.918,0.070,-0.110,-0.018,13.139,-35.282,135.004
1,123670,529,-1.260,0.105,9.973,0.071,-0.112,-0.022,13.139,-35.282,135.004
1,123674,529,-1.260,0.105,9.973,0.071,-0.112,-0.022,13.271,-35.063,135.121
1,123697,527,-1.260,0.062,9.893,0.064,-0.108,-0.017,13.198,-35.107,134.654
1,123701,530,-1.256,0.062,9.893,0.067,-0.110,-0.017,13.198,-34.858,134.990
1,123705,530,-1.256,0.062,9.893,0.067,-0.110,-0.017,13.198,-34.858,134.990
1,123727,529,-1.292,0.166,9.973,0.068,-0.111,-0.021,13.125,-34.697,134.420
1,123731,532,-1.292,0.166,9.973,0.068,-0.111,-0.021,13.125,-34.697,134.420
1,123734,529,-1.292,0.166,9.973,0.068,-0.111,-0.021,13.125,-34.697,134.420
1,123757,536,-1.280,0.028,9.869,0.035,-0.111,-0.022,12.686,-35.647,135.019
1,123761,533,-1.280,0.028,9.869,0.035,-0.111,-0.022,12.686,-35.647,135.019
1,123764,535,-1.280,0.028,9.869,0.035,-0.111,-0.022,13.256,-35.297,134.961
1,123788,531,-1.302,0.102,9.934,0.059,-0.111,-0.021,12.862,-35.311,135.092
1,123791,531,-1.302,0.102,9.934,0.059,-0.111,-0.021,12.862,-35.311,135.092
1,123794,533,-1.302,0.047,9.929,0.059,-0.111,-0.021,12.862,-35.311,135.092
1,123817,531,-1.277,0.089,9.885,0.062,-0.115,-0.021,12.935,-35.647,134.668
1,123821,532,-1.277,0.089,9.885,0.062,-0.115,-0.021,12.935,-35.647,134.668
1,123825,534,-1.262,0.108,9.892,0.065,-0.114,-0.021,13.315,-35.209,134.961
1,123847,532,-1.297,0.051,9.937,0.060,-0.114,-0.018,13.154,-35.355,134.917
1,123851,532,-1.297,0.051,9.937,0.060,-0.114,-0.018,13.213,-34.639,135.618
1,123854,534,-1.253,0.054,9.992,0.064,-0.114,-0.018,13.213,-34.639,135.618
1,123876,532,-1.267,0.136,9.892,0.068,-0.112,-0.017,13.271,-35.224,134.756
1,123881,532,-1.267,0.136,9.892,0.068,-0.112,-0.017,13.271,-35.224,134.756
1,123884,536,-1.255,0.122,9.894,0.066,-0.111,-0.018,13.271,-35.224,134.756
1,123907,536,-1.292,0.085,9.911,0.055,-0.115,-0.020,13.169,-35.428,134.610
1,123911,536,-1.292,0.085,9.911,0.055,-0.115,-0.020,13.169,-35.428,134.610
1,123915,530,-1.268,0.111,9.886,0.050,-0.115,-0.020,13.388,-35.136,135.165
1,123937,536,-1.290,0.074,9.906,0.050,-0.114,-0.022,13.344,-35.034,134.624
1,123941,534,-1.293,0.042,9.961,0.050,-0.115,-0.022,13.344,-35.034,134.624
1,123945,537,-1.293,0.042,9.961,0.050,-0.115,-0.022,13.344,-35.034,134.624
1,123967,534,-1.283,0.079,9.904,0.049,-0.116,-0.021,13.271,-35.311,135.297
1,123971,532,-1.225,0.080,9.905,0.049,-0.114,-0.021,13.271,-35.311,135.297
1,123974,535,-1.225,0.080,9.905,0.049,-0.114,-0.021,13.271,-35.077,135.633
1,123998,533,-1.292,0.037,9.905,0.051,-0.114,-0.022,12.979,-34.902,134.829
1,124000,534,-1.277,0.050,10.002,0.054,-0.112,-0.021,13.154,-34.917,134.990
1,124004,533,-1.277,0.050,10.002,0.054,-0.112,-0.021,13.154,-34.917,134.990
1,124027,535,-1.274,0.100,9.898,0.065,-0.116,-0.021,12.949,-35.165,134.610
1,124031,534,-1.284,0.097,9.907,0.060,-0.114,-0.021,12.949,-35.165,134.610
1,124035,535,-1.284,0.097,9.907,0.060,-0.114,-0.021,12.949,-35.165,134.610
1,124057,531,-1.299,0.085,9.906,0.062,-0.112,-0.020,13.052,-35.034,134.654
1,124061,535,-1.299,0.085,9.906,0.062,-0.114,-0.020,13.052,-35.034,134.654
1,124064,531,-1.299,0.085,9.906,0.062,-0.114,-0.020,13.359,-35.341,135.092
1,124087,532,-1.268,0.077,9.903,0.067,-0.114,-0.018,13.081,-35.194,134.697
1,124090,535,-1.268,0.077,9.903,0.067,-0.114,-0.018,13.110,-35.501,134.697
1,124094,534,-1.268,0.077,9.903,0.067,-0.114,-0.018,13.110,-35.501,134.697
1,124117,529,-1.286,0.059,9.946,0.078,-0.112,-0.017,13.300,-35.253,134.741
1,124121,532,-1.286,0.059,9.946,0.078,-0.112,-0.017,13.300,-35.253,134.741
1,124125,533,-1.286,0.059,9.946,0.078,-0.112,-0.017,13.300,-35.253,134.741
1,124147,530,-1.277,0.075,9.891,0.084,-0.112,-0.017,12.993,-35.077,134.961
1,124151,529,-1.277,0.075,9.891,0.084,-0.112,-0.017,13.271,-34.917,135.267
1,124155,533,-1.278,0.110,9.943,0.084,-0.112,-0.017,13.271,-34.917,135.267
1,124177,528,-1.293,0.074,9.930,0.104,-0.112,-0.011,13.213,-34.844,135.282
1,124181,530,-1.293,0.074,9.930,0.104,-0.112,-0.011,13.213,-34.844,135.282
1,124184,528,-1.234,0.124,9.931,0.111,-0.110,-0.011,13.213,-34.844,135.282
1,124208,525,-1.279,0.179,9.905,0.105,-0.110,-0.013,13.008,-35.326,134.814
1,124210,524,-1.279,0.179,9.905,0.105,-0.110,-0.013,13.008,-35.326,134.814
1,124214,524,-1.266,0.117,9.909,0.089,-0.111,-0.013,13.081,-35.063,135.121
1,124237,522,-1.285,0.183,9.947,0.081,-0.112,-0.015,13.461,-35.267,134.697
1,124241,523,-1.285,0.183,9.947,0.081,-0.112,-0.015,12.906,-35.326,135.604
1,124245,518,-1.273,0.268,9.953,0.088,-0.111,-0.016,12.906,-35.326,135.604
1,124267,523,-1.272,0.160,9.900,0.039,-0.114,-0.021,13.066,-35.209,135.224
1,124271,524,-1.272,0.160,9.900,0.039,-0.114,-0.021,13.066,-35.209,135.224
1,124274,523,-1.266,0.148,9.900,0.026,-0.114,-0.024,13.066,-35.209,135.224
1,124297,527,-1.298,0.133,9.954,0.009,-0.111,-0.028,12.920,-35.326,134.990
1,124301,532,-1.304,0.095,9.973,0.006,-0.114,-0.028,13.256,-34.785,134.478
1,124304,528,-1.304,0.095,9.973,0.006,-0.114,-0.028,13.256,-34.785,134.478
1,124328,527,-1.274,0.042,9.887,0.040,-0.116,-0.023,13.446,-35.326,135.531
1,124331,525,-1.297,0.093,9.915,0.062,-0.114,-0.021,13.446,-35.326,135.531
1,124334,525,-1.297,0.093,9.915,0.062,-0.114,-0.021,13.446,-35.326,135.531
1,124357,527,-1.284,0.141,9.960,0.055,-0.110,-0.020,12.920,-35.107,135.121
1,124361,525,-1.317,0.126,9.947,0.046,-0.116,-0.023,12.920,-35.107,135.121
1,124365,525,-1.317,0.126,9.947,0.046,-0.116,-0.023,13.359,-34.595,135.633
1,124387,524,-1.277,0.079,9.880,0.046,-0.116,-0.023,13.505,-34.844,135.282
1,124391,523,-1.277,0.135,9.884,0.056,-0.115,-0.021,13.286,-34.624,135.954
1,124394,525,-1.277,0.135,9.884,0.056,-0.115,-0.021,13.286,-34.624,135.954
1,124417,518,-1.310,0.092,9.935,0.056,-0.110,-0.020,13.023,-35.326,134.931
1,124421,519,-1.310,0.092,9.935,0.046,-0.114,-0.021,13.023,-35.326,134.931
1,124424,516,-1.310,0.092,9.935,0.046,-0.114,-0.021,13.023,-35.326,134.931
1,124447,515,-1.277,0.093,9.896,0.056,-0.112,-0.022,13.125,-35.209,134.990
1,124451,515,-1.277,0.093,9.896,0.056,-0.112,-0.022,13.125,-34.858,135.121
1,124455,515,-1.277,0.093,9.896,0.056,-0.112,-0.022,13.593,-34.858,135.121
1,124477,517,-1.290,0.074,9.931,0.086,-0.111,-0.016,12.862,-35.077,135.253
1,124481,522,-1.290,0.074,9.931,0.086,-0.111,-0.016,12.862,-35.077,135.253
1,124485,520,-1.290,0.074,9.931,0.086,-0.111,-0.016,12.862,-35.077,135.253
1,124507,518,-1.278,0.120,9.929,0.084,-0.111,-0.016,13.037,-34.961,134.697
1,124511,521,-1.278,0.120,9.929,0.084,-0.111,-0.016,13.037,-34.961,134.697
1,124514,522,-1.269,0.104,9.892,0.084,-0.111,-0.015,13.052,-35.092,135.428
1,124538,518,-1.280,0.142,9.918,0.078,-0.114,-0.018,13.359,-35.151,134.785
1,124541,517,-1.280,0.142,9.918,0.078,-0.114,-0.018,12.409,-34.873,135.180
1,124544,521,-1.305,0.122,9.949,0.068,-0.111,-0.018,12.409,-34.873,135.180
1,124567,524,-1.261,0.167,9.873,0.049,-0.110,-0.021,12.876,-34.858,134.654
1,124571,521,-1.261,0.167,9.873,0.049,-0.110,-0.021,12.876,-34.858,134.654
1,124575,522,-1.280,0.160,9.854,0.035,-0.114,-0.023,12.876,-34.858,134.654
1,124597,523,-1.283,0.098,10.000,0.038,-0.114,-0.026,13.198,-35.121,134.171
1,124601,523,-1.283,0.098,10.000,0.038,-0.114,-0.026,13.198,-35.121,134.171
1,124604,525,-1.289,0.079,9.915,0.039,-0.114,-0.026,12.774,-34.844,135.370
1,124626,527,-1.274,0.105,9.867,0.051,-0.111,-0.022,12.935,-34.887,134.741
1,124630,528,-1.274,0.084,9.911,0.051,-0.111,-0.022,12.935,-34.887,134.741
1,124634,525,-1.245,0.084,9.911,0.062,-0.112,-0.021,12.935,-34.887,134.741
1,124657,527,-1.283,0.120,9.965,0.068,-0.115,-0.021,13.066,-34.931,134.171
1,124661,524,-1.287,0.133,9.925,0.062,-0.114,-0.021,13.066,-34.931,134.171
1,124665,527,-1.287,0.133,9.925,0.062,-0.114,-0.021,13.315,-35.004,134.464
1,124687,530,-1.272,0.092,9.893,0.053,-0.114,-0.022,12.964,-35.194,134.639
1,124691,525,-1.315,0.087,9.887,0.057,-0.112,-0.022,12.803,-35.077,135.267
1,124695,526,-1.315,0.087,9.887,0.057,-0.112,-0.022,12.803,-35.077,135.267
1,124718,527,-1.279,0.142,9.958,0.075,-0.112,-0.020,12.993,-35.355,134.230
1,124721,527,-1.262,0.159,9.885,0.072,-0.116,-0.018,12.993,-35.355,134.230
1,124725,527,-1.262,0.159,9.885,0.072,-0.116,-0.018,12.993,-35.355,134.230
1,124748,528,-1.269,0.081,9.896,0.065,-0.120,-0.022,12.993,-34.917,135.019
1,124750,525,-1.304,0.095,9.942,0.070,-0.112,-0.021,12.993,-34.917,135.019
1,124754,528,-1.304,0.095,9.942,0.070,-0.112,-0.021,13.227,-34.595,135.633
1,124777,527,-1.262,0.092,9.839,0.064,-0.111,-0.016,13.329,-34.829,135.282
1,124781,524,-1.262,0.092,9.839,0.076,-0.115,-0.016,13.329,-34.829,135.282
1,124785,528,-1.262,0.092,9.839,0.076,-0.115,-0.016,13.329,-34.829,135.282
1,124807,524,-1.272,0.122,9.857,0.094,-0.115,-0.010,13.154,-35.209,134.595
1,124811,527,-1.272,0.122,9.857,0.094,-0.115,-0.010,13.154,-35.209,134.595
1,124815,526,-1.272,0.122,9.857,0.094,-0.115,-0.010,13.315,-34.814,134.800
1,124837,524,-1.323,0.257,10.091,0.147,-0.114,-0.013,13.666,-34.873,135.721
1,124841,526,-1.323,0.257,10.091,0.147,-0.114,-0.013,12.906,-34.069,134.858
1,124844,528,-1.323,0.257,10.091,0.147,-0.114,-0.013,12.906,-34.069,134.858
1,124867,525,-1.235,0.212,9.768,0.040,-0.112,-0.016,12.365,-34.931,134.741
1,124871,527,-1.235,0.212,9.768,0.040,-0.112,-0.016,12.365,-34.931,134.741
1,124875,527,-1.236,0.250,9.880,0.040,-0.105,-0.020,12.365,-34.931,134.741
1,124897,534,-1.308,0.229,10.106,0.022,-0.112,-0.029,13.008,-35.194,134.639
1,124901,532,-1.308,0.229,10.106,0.022,-0.112,-0.029,13.008,-35.194,134.639
1,124905,534,-1.334,0.036,9.978,-0.009,-0.116,-0.028,13.198,-34.785,135.063
1,124927,534,-1.269,0.141,9.899,0.031,-0.119,-0.022,13.198,-35.180,135.194
1,124931,535,-1.269,0.141,9.899,0.031,-0.119,-0.022,13.198,-35.180,135.194
1,124934,538,-1.261,0.230,9.844,0.054,-0.121,-0.024,13.198,-35.180,135.194
1,124958,539,-1.291,0.049,9.881,0.012,-0.111,-0.023,13.403,-35.428,135.121
1,124960,534,-1.291,0.049,9.881,0.012,-0.111,-0.023,13.403,-35.428,135.121
1,124964,539,-1.341,0.049,9.928,0.021,-0.111,-0.023,13.403,-35.428,135.121
1,124987,537,-1.287,0.177,10.000,0.054,-0.115,-0.022,12.935,-35.121,134.566
1,124991,536,-1.287,0.120,9.954,0.054,-0.115,-0.022,13.359,-34.814,135.107
1,124995,536,-1.279,0.120,9.954,0.046,-0.116,-0.020,13.359,-34.814,135.107
1,125017,536,-1.266,0.057,9.913,0.035,-0.115,-0.021,12.847,-35.457,134.215
1,125021,536,-1.238,0.165,9.928,0.042,-0.116,-0.024,12.847,-35.457,134.215
1,125025,539,-1.238,0.165,9.928,0.042,-0.116,-0.024,12.847,-35.457,134.215
1,125047,533,-1.249,0.157,9.903,0.026,-0.119,-0.027,12.745,-35.136,134.244
1,125051,536,-1.266,0.054,9.790,0.007,-0.114,-0.023,12.745,-35.136,134.244
1,125054,533,-1.266,0.054,9.790,0.007,-0.114,-0.023,13.300,-34.537,134.391
1,125078,537,-1.266,-0.006,10.004,0.023,-0.111,-0.020,13.256,-35.151,135.063
1,125081,534,-1.292,0.106,10.008,0.070,-0.114,-0.021,13.037,-35.238,134.873
1,125084,539,-1.292,0.106,10.008,0.070,-0.114,-0.021,13.037,-35.238,134.873
1,125107,538,-1.265,0.086,9.857,0.059,-0.116,-0.018,12.803,-35.384,134.361
1,125111,540,-1.235,0.023,9.872,0.054,-0.114,-0.016,12.803,-35.384,134.361
1,125115,537,-1.235,0.023,9.872,0.054,-0.114,-0.016,12.803,-35.384,134.361
1,125137,541,-1.273,0.195,9.923,0.104,-0.115,-0.016,13.183,-35.019,134.478
1,125141,542,-1.273,0.195,9.923,0.087,-0.115,-0.016,12.686,-34.741,134.361
1,125144,543,-1.273,0.195,9.923,0.087,-0.115,-0.016,12.686,-34.741,134.361
1,125167,544,-1.283,0.042,9.924,0.087,-0.112,-0.016,12.730,-35.326,134.581
1,125170,541,-1.283,0.042,9.924,0.087,-0.112,-0.016,12.730,-35.326,134.581
1,125174,540,-1.283,0.042,9.924,0.087,-0.112,-0.016,12.730,-35.326,134.581
1,125197,544,-1.263,0.115,9.873,0.098,-0.119,-0.011,12.818,-34.902,134.157
1,125201,541,-1.263,0.115,9.873,0.098,-0.119,-0.011,12.818,-34.902,134.157
1,125205,544,-1.263,0.115,9.873,0.098,-0.119,-0.011,12.876,-35.034,135.443
1,125227,538,-1.278,0.209,9.976,0.108,-0.114,-0.015,12.818,-34.858,134.420
1,125231,540,-1.278,0.209,9.976,0.108,-0.114,-0.015,12.716,-35.077,135.048
1,125235,541,-1.339,0.236,10.063,0.108,-0.114,-0.016,12.716,-35.077,135.048
1,125257,544,-1.248,0.211,9.855,0.050,-0.115,-0.018,12.482,-35.238,134.347
1,125261,545,-1.248,0.211,9.855,0.050,-0.115,-0.018,12.482,-35.238,134.347
1,125264,545,-1.208,0.183,9.861,0.034,-0.112,-0.016,12.482,-35.238,134.347
1,125288,548,-1.281,0.170,9.982,0.045,-0.114,-0.026,12.438,-35.414,135.136
1,125291,548,-1.281,0.170,9.982,0.045,-0.114,-0.026,13.037,-34.697,135.194
1,125294,545,-1.249,0.115,9.928,0.016,-0.114,-0.028,13.037,-34.697,135.194
1,125317,543,-1.262,0.045,9.878,-0.002,-0.112,-0.028,12.935,-35.151,135.399
1,125321,547,-1.262,0.045,9.878,-0.002,-0.112,-0.028,12.935,-35.151,135.399
1,125325,544,-1.245,0.066,9.937,0.032,-0.116,-0.029,12.935,-35.151,135.399
1,125347,545,-1.287,0.089,9.966,0.075,-0.117,-0.018,12.643,-34.975,134.756
1,125351,544,-1.254,0.142,9.864,0.075,-0.117,-0.018,12.643,-34.975,134.756
1,125354,541,-1.254,0.142,9.864,0.090,-0.116,-0.013,12.803,-34.814,134.873
1,125376,543,-1.244,0.264,9.876,0.087,-0.112,-0.018,13.169,-35.399,134.697
1,125381,541,-1.265,0.144,9.860,0.045,-0.110,-0.024,12.862,-35.238,134.712
1,125384,541,-1.265,0.144,9.860,0.045,-0.110,-0.024,12.862,-35.238,134.712
1,125408,548,-1.287,0.098,9.965,0.013,-0.110,-0.024,13.110,-35.472,134.639
1,125412,548,-1.232,0.162,9.945,0.034,-0.116,-0.026,13.110,-35.472,134.639
1,125416,546,-1.232,0.162,9.945,0.034,-0.116,-0.026,13.110,-35.472,134.639
1,125437,550,-1.232,0.108,9.894,0.043,-0.112,-0.020,12.482,-35.472,134.771
1,125441,547,-1.242,0.118,9.912,0.045,-0.114,-0.021,12.482,-35.472,135.311
1,125445,549,-1.242,0.118,9.912,0.045,-0.114,-0.021,12.891,-34.624,135.311
1,125467,550,-1.269,0.226,9.925,0.046,-0.114,-0.020,12.438,-35.209,135.004
1,125471,547,-1.278,0.233,9.925,0.037,-0.115,-0.020,12.438,-35.209,135.004
1,125474,547,-1.278,0.233,9.925,0.037,-0.115,-0.020,12.438,-35.209,135.004
1,125498,540,-1.281,0.123,9.948,0.010,-0.112,-0.026,12.759,-35.034,134.522
1,125500,541,-1.281,0.123,9.948,0.011,-0.112,-0.026,12.759,-35.034,134.522
1,125504,539,-1.281,0.123,9.948,0.011,-0.112,-0.026,13.081,-35.253,134.157
1,125527,537,-1.241,0.237,9.832,-0.075,-0.111,-0.040,12.833,-35.764,134.201
1,125531,538,-1.241,0.237,9.832,-0.075,-0.111,-0.040,12.555,-35.136,134.771
1,125535,540,-1.241,0.237,9.832,-0.075,-0.111,-0.040,12.555,-35.136,134.771
1,125557,540,-1.302,0.085,10.001,-0.166,-0.115,-0.059,12.511,-35.048,134.084
1,125561,540,-1.302,0.085,10.001,-0.166,-0.115,-0.059,12.511,-35.048,134.084
1,125565,541,-1.302,0.085,10.025,-0.166,-0.115,-0.059,12.511,-35.048,134.084
1,125587,536,-1.242,-0.050,9.714,-0.222,-0.115,-0.057,12.803,-34.931,134.274
1,125590,538,-1.242,-0.050,9.714,-0.222,-0.115,-0.057,12.803,-34.931,134.274
1,125594,537,-1.265,-0.163,9.881,-0.222,-0.110,-0.054,12.672,-34.317,134.361
1,125617,537,-1.284,-0.172,10.021,-0.153,-0.115,-0.057,12.219,-34.405,135.019
1,125621,538,-1.284,-0.172,10.021,-0.153,-0.115,-0.057,12.219,-34.405,135.019
1,125625,536,-1.213,-0.213,9.899,-0.137,-0.119,-0.056,12.219,-34.405,135.019
1,125647,541,-1.220,-0.494,9.845,-0.123,-0.111,-0.039,12.569,-34.215,134.054
1,125651,538,-1.220,-0.494,9.845,-0.123,-0.111,-0.039,12.569,-34.215,134.054
1,125655,537,-1.261,-0.519,9.910,-0.050,-0.114,-0.034,12.657,-34.244,135.019
1,125677,541,-1.285,-0.293,9.998,0.101,-0.111,-0.016,12.423,-34.654,134.595
1,125681,540,-1.285,-0.293,9.998,0.101,-0.111,-0.016,12.394,-34.025,135.180
1,125684,538,-1.262,-0.181,10.013,0.137,-0.116,-0.011,12.394,-34.025,135.180
1,125708,533,-1.244,-0.118,9.820,0.161,-0.114,-0.016,12.336,-34.654,133.601
1,125710,536,-1.232,-0.118,9.838,0.161,-0.114,-0.016,12.336,-34.654,133.601
1,125714,535,-1.232,-0.118,9.838,0.119,-0.112,-0.016,12.336,-34.654,133.601
1,125738,536,-1.289,-0.165,9.918,0.094,-0.109,-0.015,12.789,-34.449,134.142
1,125742,536,-1.305,-0.166,9.884,0.112,-0.110,-0.016,12.789,-34.449,134.595
1,125746,535,-1.305,-0.166,9.884,0.112,-0.110,-0.016,12.847,-33.864,134.595
1,125767,535,-1.248,-0.172,9.803,0.084,-0.106,-0.016,13.110,-34.054,134.873
1,125771,531,-1.231,-0.090,9.884,0.092,-0.104,-0.018,13.110,-34.054,134.873
1,125774,533,-1.231,-0.090,9.884,0.092,-0.104,-0.018,13.110,-34.054,134.873
1,125797,535,-1.296,-0.038,10.000,0.072,-0.108,-0.026,13.066,-34.025,134.405
1,125801,534,-1.268,-0.159,9.913,0.035,-0.108,-0.022,13.066,-34.025,134.405
1,125804,531,-1.268,-0.159,9.913,0.035,-0.108,-0.022,13.066,-34.201,135.077
1,125827,532,-1.268,-0.165,9.991,0.068,-0.105,-0.021,12.759,-34.654,133.894
1,125831,533,-1.285,-0.165,9.991,0.110,-0.105,-0.021,13.037,-34.054,134.376
1,125834,533,-1.285,-0.165,9.991,0.110,-0.105,-0.021,13.037,-34.054,134.376
1,125857,536,-1.278,-0.224,9.941,0.134,-0.109,-0.005,12.964,-34.537,134.127
1,125861,534,-1.278,-0.224,9.941,0.134,-0.109,-0.005,12.964,-34.537,134.127
1,125865,537,-1.278,-0.224,9.941,0.134,-0.109,-0.005,12.964,-34.537,134.127
1,125887,536,-1.267,-0.169,9.863,0.233,-0.109,0.007,12.935,-34.595,134.639
1,125891,536,-1.267,-0.169,9.863,0.233,-0.109,0.007,12.935,-34.595,134.639
1,125894,536,-1.267,-0.169,9.863,0.233,-0.109,0.007,13.607,-34.186,134.537
1,125917,537,-1.271,0.066,9.905,0.301,-0.110,0.017,13.300,-35.282,134.756
1,125920,536,-1.271,0.066,9.905,0.301,-0.110,0.017,13.125,-35.282,134.756
1,125924,537,-1.271,0.047,9.875,0.301,-0.110,0.017,13.125,-35.282,134.756
1,125947,537,-1.298,0.047,9.912,0.275,-0.110,0.015,13.139,-34.522,134.347
1,125951,540,-1.298,0.047,9.912,0.275,-0.110,0.015,13.139,-34.522,134.347
1,125955,540,-1.289,0.127,9.936,0.279,-0.104,0.016,13.139,-34.522,134.347
1,125977,538,-1.269,0.244,9.873,0.277,-0.111,0.012,12.876,-35.034,134.522
1,125981,537,-1.269,0.244,9.873,0.277,-0.111,0.012,13.081,-34.829,134.961
1,125985,540,-1.229,0.187,9.855,0.261,-0.104,0.016,13.081,-34.829,134.961
1,126007,537,-1.291,0.187,9.885,0.224,-0.108,0.007,13.096,-35.238,135.238
1,126011,535,-1.291,0.187,9.885,0.224,-0.108,0.007,13.096,-35.238,135.238
1,126014,537,-1.320,0.239,9.927,0.209,-0.108,0.002,13.096,-35.238,135.238
1,126038,542,-1.279,0.281,9.870,0.191,-0.112,-0.001,13.242,-35.253,134.610
1,126041,541,-1.279,0.281,9.870,0.191,-0.112,-0.001,13.242,-35.253,134.610
1,126044,539,-1.278,0.272,9.863,0.183,-0.111,0.000,13.169,-35.151,134.785
1,126067,541,-1.285,0.312,9.976,0.170,-0.106,-0.001,13.227,-35.355,134.595
1,126071,542,-1.260,0.449,9.936,0.170,-0.110,-0.010,13.052,-35.238,134.873
1,126075,544,-1.260,0.449,9.936,0.171,-0.110,-0.010,13.052,-35.238,134.873
1,126097,541,-1.280,0.504,9.856,0.094,-0.114,-0.020,13.096,-35.267,134.142
1,126101,545,-1.251,0.359,9.849,0.027,-0.115,-0.022,13.096,-35.267,134.142
1,126104,545,-1.251,0.359,9.849,0.027,-0.115,-0.022,13.096,-35.267,134.142
1,126127,541,-1.303,0.229,9.940,-0.023,-0.110,-0.034,12.716,-35.282,133.324
1,126130,541,-1.295,0.173,10.051,-0.024,-0.111,-0.038,13.110,-34.566,134.464
1,126134,540,-1.295,0.173,10.051,-0.024,-0.111,-0.038,13.110,-34.566,134.464
1,126157,545,-1.283,0.096,9.915,0.022,-0.112,-0.017,13.213,-35.180,134.288
1,126161,547,-1.250,0.075,9.879,0.082,-0.114,-0.010,13.213,-35.180,134.288
1,126165,547,-1.250,0.075,9.879,0.082,-0.114,-0.010,13.213,-35.180,134.288
1,126187,544,-1.303,0.357,9.934,0.156,-0.115,-0.006,12.789,-35.501,134.259
1,126191,546,-1.303,0.357,9.934,0.143,-0.117,-0.010,12.789,-35.501,134.259
1,126195,548,-1.303,0.357,9.934,0.143,-0.117,-0.010,12.745,-35.472,133.967
1,126217,544,-1.262,0.333,9.887,0.086,-0.112,-0.012,13.125,-35.267,134.098
1,126221,543,-1.262,0.333,9.887,0.086,-0.112,-0.012,12.920,-35.355,134.332
1,126224,540,-1.262,0.333,9.887,0.086,-0.112,-0.012,12.920,-35.355,134.332
1,126248,547,-1.283,0.415,9.873,0.054,-0.115,-0.027,13.256,-35.092,134.274
1,126250,549,-1.283,0.415,9.873,0.054,-0.115,-0.027,13.256,-35.092,134.274
1,126254,547,-1.283,0.415,9.873,0.054,-0.115,-0.027,13.256,-35.092,134.274
1,126277,549,-1.296,0.212,9.988,-0.012,-0.114,-0.027,13.096,-35.428,134.347
1,126281,547,-1.296,0.212,9.988,-0.012,-0.114,-0.027,13.096,-34.990,134.931
1,126285,550,-1.296,0.229,10.065,-0.012,-0.114,-0.027,13.066,-34.990,134.931
1,126307,544,-1.265,0.150,9.846,0.015,-0.114,-0.026,13.154,-35.238,134.873
1,126311,546,-1.265,0.150,9.846,0.015,-0.114,-0.026,13.154,-35.238,134.873
1,126314,544,-1.231,0.171,9.864,0.011,-0.111,-0.022,13.154,-35.238,134.873
1,126336,542,-1.322,0.306,9.977,0.067,-0.116,-0.022,13.125,-35.355,134.727
1,126341,544,-1.322,0.306,9.977,0.067,-0.116,-0.022,13.125,-35.355,134.727
1,126344,542,-1.289,0.270,9.934,0.073,-0.116,-0.021,13.300,-35.224,135.136
1,126367,545,-1.244,0.244,9.844,0.053,-0.114,-0.018,12.876,-35.077,134.493
1,126371,543,-1.244,0.244,9.844,0.053,-0.114,-0.018,13.066,-34.493,135.107
1,126375,547,-1.249,0.327,9.940,0.050,-0.110,-0.022,13.066,-34.493,135.107
1,126397,535,-1.286,0.276,9.963,0.010,-0.116,-0.031,12.979,-35.428,134.420
1,126401,538,-1.286,0.276,9.963,0.010,-0.116,-0.031,12.979,-35.428,134.420
1,126405,534,-1.244,0.160,9.880,-0.010,-0.116,-0.026,12.979,-35.428,134.420
1,126427,532,-1.269,0.195,9.898,0.020,-0.119,-0.024,12.818,-35.077,134.961
1,126431,530,-1.275,0.299,9.955,0.059,-0.116,-0.023,12.818,-35.077,134.961
1,126434,531,-1.275,0.299,9.955,0.059,-0.116,-0.023,13.636,-35.034,134.712
1,126458,531,-1.284,0.179,9.870,0.023,-0.116,-0.024,12.935,-35.457,134.858
1,126460,531,-1.244,0.147,9.874,0.006,-0.117,-0.026,12.935,-35.457,134.858
1,126464,532,-1.244,0.147,9.874,0.006,-0.117,-0.026,12.935,-35.457,134.858
1,126488,527,-1.286,0.293,9.960,0.034,-0.119,-0.032,13.344,-35.034,134.887
1,126492,531,-1.341,0.252,9.930,0.031,-0.117,-0.027,13.344,-35.034,134.887
1,126495,529,-1.341,0.252,9.930,0.031,-0.117,-0.027,13.578,-35.209,134.507
1,126517,524,-1.275,0.091,9.852,0.038,-0.120,-0.022,13.008,-35.560,133.952
1,126521,526,-1.271,0.124,9.875,0.054,-0.116,-0.021,13.052,-34.931,134.025
1,126524,525,-1.271,0.124,9.875,0.054,-0.116,-0.021,13.052,-34.931,134.025
1,126547,525,-1.279,0.188,9.931,0.066,-0.112,-0.020,12.643,-35.267,133.791
1,126551,527,-1.279,0.188,9.931,0.059,-0.114,-0.018,12.643,-35.267,133.791
1,126554,529,-1.279,0.188,9.931,0.059,-0.114,-0.018,12.643,-35.267,133.791
1,126577,529,-1.265,0.274,9.923,0.067,-0.112,-0.021,12.759,-35.779,134.566
1,126581,527,-1.265,0.274,9.923,0.067,-0.112,-0.021,12.759,-35.779,134.566
1,126584,530,-1.265,0.274,9.923,0.067,-0.112,-0.021,13.286,-35.633,134.405
1,126607,524,-1.259,0.139,9.854,0.027,-0.115,-0.021,12.949,-35.238,134.449
1,126611,527,-1.259,0.139,9.854,0.027,-0.115,-0.021,12.949,-35.238,134.449
1,126615,526,-1.259,0.139,9.854,0.027,-0.115,-0.021,12.949,-35.238,134.449
1,126637,529,-1.297,0.187,9.967,0.079,-0.111,-0.021,12.540,-35.837,134.347
1,126641,530,-1.297,0.187,9.967,0.079,-0.111,-0.021,12.540,-35.837,134.347
1,126644,530,-1.300,0.200,10.069,0.079,-0.111,-0.021,12.935,-35.545,134.990
1,126667,533,-1.278,0.142,9.867,0.071,-0.110,-0.017,13.139,-35.194,134.332
1,126670,530,-1.278,0.142,9.867,0.071,-0.110,-0.017,12.774,-35.384,135.428
1,126674,528,-1.318,0.136,9.912,0.087,-0.110,-0.020,12.774,-35.384,135.428
1,126697,527,-1.309,0.189,9.954,0.122,-0.109,-0.012,12.964,-35.852,134.741
1,126701,529,-1.309,0.189,9.954,0.122,-0.109,-0.012,12.964,-35.852,134.741
1,126705,531,-1.291,0.212,9.916,0.140,-0.110,-0.007,12.964,-35.852,134.741
1,126727,530,-1.263,0.452,9.970,0.155,-0.112,-0.007,12.789,-35.837,134.551
1,126731,534,-1.263,0.452,9.970,0.155,-0.112,-0.007,12.789,-35.837,134.551
1,126735,533,-1.265,0.508,9.929,0.122,-0.111,-0.021,13.052,-35.487,134.347
1,126757,537,-1.284,0.304,9.863,-0.028,-0.108,-0.028,13.023,-35.618,134.507
1,126761,537,-1.284,0.209,9.969,-0.028,-0.108,-0.028,13.023,-35.618,134.507
1,126764,536,-1.291,0.209,9.969,-0.048,-0.111,-0.028,13.023,-35.618,134.507
1,126788,535,-1.261,0.225,9.919,0.016,-0.117,-0.029,13.519,-35.443,134.581
1,126791,533,-1.290,0.214,9.888,0.009,-0.117,-0.028,13.519,-35.443,134.581
